{"learner":{"attributes":{"best_iteration":"4999","best_ntree_limit":"5000","scikit_learn":"{\"n_estimators\": 5000, \"objective\": \"reg:squarederror\", \"max_depth\": null, \"max_leaves\": null, \"max_bin\": null, \"grow_policy\": null, \"learning_rate\": null, \"verbosity\": null, \"booster\": null, \"tree_method\": null, \"gamma\": null, \"min_child_weight\": null, \"max_delta_step\": null, \"subsample\": null, \"sampling_method\": null, \"colsample_bytree\": null, \"colsample_bylevel\": null, \"colsample_bynode\": null, \"reg_alpha\": null, \"reg_lambda\": null, \"scale_pos_weight\": null, \"base_score\": null, \"missing\": NaN, \"num_parallel_tree\": null, \"random_state\": 42, \"n_jobs\": null, \"monotone_constraints\": null, \"interaction_constraints\": null, \"importance_type\": null, \"gpu_id\": null, \"validate_parameters\": null, \"predictor\": null, \"enable_categorical\": false, \"feature_types\": null, \"max_cat_to_onehot\": null, \"max_cat_threshold\": null, \"eval_metric\": null, \"early_stopping_rounds\": null, \"callbacks\": null, \"_estimator_type\": \"regressor\"}"},"feature_names":["Points","Was Home","Opp rating","ScoreForLast5","ScoreAgainstLast5","MinAvgOverall","GlsAvgOverall","AstAvgOverall","CrdYAvgOverall","CrdRAvgOverall","xGAvgOverall","xAGAvgOverall","CSAvgOverall","Team ScoreAvgOverall","Opp ScoreAvgOverall","FPLAvgOverall"],"feature_types":["float","float","float","float","float","float","float","float","float","float","float","float","float","float","float","float"],"gradient_booster":{"model":{"gbtree_model_param":{"num_parallel_tree":"1","num_trees":"5000","size_leaf_vector":"0"},"tree_info":[0,0,0,0,0,0,0,0,0,0,0,0,0,0,0,0,0,0,0,0,0,0,0,0,0,0,0,0,0,0,0,0,0,0,0,0,0,0,0,0,0,0,0,0,0,0,0,0,0,0,0,0,0,0,0,0,0,0,0,0,0,0,0,0,0,0,0,0,0,0,0,0,0,0,0,0,0,0,0,0,0,0,0,0,0,0,0,0,0,0,0,0,0,0,0,0,0,0,0,0,0,0,0,0,0,0,0,0,0,0,0,0,0,0,0,0,0,0,0,0,0,0,0,0,0,0,0,0,0,0,0,0,0,0,0,0,0,0,0,0,0,0,0,0,0,0,0,0,0,0,0,0,0,0,0,0,0,0,0,0,0,0,0,0,0,0,0,0,0,0,0,0,0,0,0,0,0,0,0,0,0,0,0,0,0,0,0,0,0,0,0,0,0,0,0,0,0,0,0,0,0,0,0,0,0,0,0,0,0,0,0,0,0,0,0,0,0,0,0,0,0,0,0,0,0,0,0,0,0,0,0,0,0,0,0,0,0,0,0,0,0,0,0,0,0,0,0,0,0,0,0,0,0,0,0,0,0,0,0,0,0,0,0,0,0,0,0,0,0,0,0,0,0,0,0,0,0,0,0,0,0,0,0,0,0,0,0,0,0,0,0,0,0,0,0,0,0,0,0,0,0,0,0,0,0,0,0,0,0,0,0,0,0,0,0,0,0,0,0,0,0,0,0,0,0,0,0,0,0,0,0,0,0,0,0,0,0,0,0,0,0,0,0,0,0,0,0,0,0,0,0,0,0,0,0,0,0,0,0,0,0,0,0,0,0,0,0,0,0,0,0,0,0,0,0,0,0,0,0,0,0,0,0,0,0,0,0,0,0,0,0,0,0,0,0,0,0,0,0,0,0,0,0,0,0,0,0,0,0,0,0,0,0,0,0,0,0,0,0,0,0,0,0,0,0,0,0,0,0,0,0,0,0,0,0,0,0,0,0,0,0,0,0,0,0,0,0,0,0,0,0,0,0,0,0,0,0,0,0,0,0,0,0,0,0,0,0,0,0,0,0,0,0,0,0,0,0,0,0,0,0,0,0,0,0,0,0,0,0,0,0,0,0,0,0,0,0,0,0,0,0,0,0,0,0,0,0,0,0,0,0,0,0,0,0,0,0,0,0,0,0,0,0,0,0,0,0,0,0,0,0,0,0,0,0,0,0,0,0,0,0,0,0,0,0,0,0,0,0,0,0,0,0,0,0,0,0,0,0,0,0,0,0,0,0,0,0,0,0,0,0,0,0,0,0,0,0,0,0,0,0,0,0,0,0,0,0,0,0,0,0,0,0,0,0,0,0,0,0,0,0,0,0,0,0,0,0,0,0,0,0,0,0,0,0,0,0,0,0,0,0,0,0,0,0,0,0,0,0,0,0,0,0,0,0,0,0,0,0,0,0,0,0,0,0,0,0,0,0,0,0,0,0,0,0,0,0,0,0,0,0,0,0,0,0,0,0,0,0,0,0,0,0,0,0,0,0,0,0,0,0,0,0,0,0,0,0,0,0,0,0,0,0,0,0,0,0,0,0,0,0,0,0,0,0,0,0,0,0,0,0,0,0,0,0,0,0,0,0,0,0,0,0,0,0,0,0,0,0,0,0,0,0,0,0,0,0,0,0,0,0,0,0,0,0,0,0,0,0,0,0,0,0,0,0,0,0,0,0,0,0,0,0,0,0,0,0,0,0,0,0,0,0,0,0,0,0,0,0,0,0,0,0,0,0,0,0,0,0,0,0,0,0,0,0,0,0,0,0,0,0,0,0,0,0,0,0,0,0,0,0,0,0,0,0,0,0,0,0,0,0,0,0,0,0,0,0,0,0,0,0,0,0,0,0,0,0,0,0,0,0,0,0,0,0,0,0,0,0,0,0,0,0,0,0,0,0,0,0,0,0,0,0,0,0,0,0,0,0,0,0,0,0,0,0,0,0,0,0,0,0,0,0,0,0,0,0,0,0,0,0,0,0,0,0,0,0,0,0,0,0,0,0,0,0,0,0,0,0,0,0,0,0,0,0,0,0,0,0,0,0,0,0,0,0,0,0,0,0,0,0,0,0,0,0,0,0,0,0,0,0,0,0,0,0,0,0,0,0,0,0,0,0,0,0,0,0,0,0,0,0,0,0,0,0,0,0,0,0,0,0,0,0,0,0,0,0,0,0,0,0,0,0,0,0,0,0,0,0,0,0,0,0,0,0,0,0,0,0,0,0,0,0,0,0,0,0,0,0,0,0,0,0,0,0,0,0,0,0,0,0,0,0,0,0,0,0,0,0,0,0,0,0,0,0,0,0,0,0,0,0,0,0,0,0,0,0,0,0,0,0,0,0,0,0,0,0,0,0,0,0,0,0,0,0,0,0,0,0,0,0,0,0,0,0,0,0,0,0,0,0,0,0,0,0,0,0,0,0,0,0,0,0,0,0,0,0,0,0,0,0,0,0,0,0,0,0,0,0,0,0,0,0,0,0,0,0,0,0,0,0,0,0,0,0,0,0,0,0,0,0,0,0,0,0,0,0,0,0,0,0,0,0,0,0,0,0,0,0,0,0,0,0,0,0,0,0,0,0,0,0,0,0,0,0,0,0,0,0,0,0,0,0,0,0,0,0,0,0,0,0,0,0,0,0,0,0,0,0,0,0,0,0,0,0,0,0,0,0,0,0,0,0,0,0,0,0,0,0,0,0,0,0,0,0,0,0,0,0,0,0,0,0,0,0,0,0,0,0,0,0,0,0,0,0,0,0,0,0,0,0,0,0,0,0,0,0,0,0,0,0,0,0,0,0,0,0,0,0,0,0,0,0,0,0,0,0,0,0,0,0,0,0,0,0,0,0,0,0,0,0,0,0,0,0,0,0,0,0,0,0,0,0,0,0,0,0,0,0,0,0,0,0,0,0,0,0,0,0,0,0,0,0,0,0,0,0,0,0,0,0,0,0,0,0,0,0,0,0,0,0,0,0,0,0,0,0,0,0,0,0,0,0,0,0,0,0,0,0,0,0,0,0,0,0,0,0,0,0,0,0,0,0,0,0,0,0,0,0,0,0,0,0,0,0,0,0,0,0,0,0,0,0,0,0,0,0,0,0,0,0,0,0,0,0,0,0,0,0,0,0,0,0,0,0,0,0,0,0,0,0,0,0,0,0,0,0,0,0,0,0,0,0,0,0,0,0,0,0,0,0,0,0,0,0,0,0,0,0,0,0,0,0,0,0,0,0,0,0,0,0,0,0,0,0,0,0,0,0,0,0,0,0,0,0,0,0,0,0,0,0,0,0,0,0,0,0,0,0,0,0,0,0,0,0,0,0,0,0,0,0,0,0,0,0,0,0,0,0,0,0,0,0,0,0,0,0,0,0,0,0,0,0,0,0,0,0,0,0,0,0,0,0,0,0,0,0,0,0,0,0,0,0,0,0,0,0,0,0,0,0,0,0,0,0,0,0,0,0,0,0,0,0,0,0,0,0,0,0,0,0,0,0,0,0,0,0,0,0,0,0,0,0,0,0,0,0,0,0,0,0,0,0,0,0,0,0,0,0,0,0,0,0,0,0,0,0,0,0,0,0,0,0,0,0,0,0,0,0,0,0,0,0,0,0,0,0,0,0,0,0,0,0,0,0,0,0,0,0,0,0,0,0,0,0,0,0,0,0,0,0,0,0,0,0,0,0,0,0,0,0,0,0,0,0,0,0,0,0,0,0,0,0,0,0,0,0,0,0,0,0,0,0,0,0,0,0,0,0,0,0,0,0,0,0,0,0,0,0,0,0,0,0,0,0,0,0,0,0,0,0,0,0,0,0,0,0,0,0,0,0,0,0,0,0,0,0,0,0,0,0,0,0,0,0,0,0,0,0,0,0,0,0,0,0,0,0,0,0,0,0,0,0,0,0,0,0,0,0,0,0,0,0,0,0,0,0,0,0,0,0,0,0,0,0,0,0,0,0,0,0,0,0,0,0,0,0,0,0,0,0,0,0,0,0,0,0,0,0,0,0,0,0,0,0,0,0,0,0,0,0,0,0,0,0,0,0,0,0,0,0,0,0,0,0,0,0,0,0,0,0,0,0,0,0,0,0,0,0,0,0,0,0,0,0,0,0,0,0,0,0,0,0,0,0,0,0,0,0,0,0,0,0,0,0,0,0,0,0,0,0,0,0,0,0,0,0,0,0,0,0,0,0,0,0,0,0,0,0,0,0,0,0,0,0,0,0,0,0,0,0,0,0,0,0,0,0,0,0,0,0,0,0,0,0,0,0,0,0,0,0,0,0,0,0,0,0,0,0,0,0,0,0,0,0,0,0,0,0,0,0,0,0,0,0,0,0,0,0,0,0,0,0,0,0,0,0,0,0,0,0,0,0,0,0,0,0,0,0,0,0,0,0,0,0,0,0,0,0,0,0,0,0,0,0,0,0,0,0,0,0,0,0,0,0,0,0,0,0,0,0,0,0,0,0,0,0,0,0,0,0,0,0,0,0,0,0,0,0,0,0,0,0,0,0,0,0,0,0,0,0,0,0,0,0,0,0,0,0,0,0,0,0,0,0,0,0,0,0,0,0,0,0,0,0,0,0,0,0,0,0,0,0,0,0,0,0,0,0,0,0,0,0,0,0,0,0,0,0,0,0,0,0,0,0,0,0,0,0,0,0,0,0,0,0,0,0,0,0,0,0,0,0,0,0,0,0,0,0,0,0,0,0,0,0,0,0,0,0,0,0,0,0,0,0,0,0,0,0,0,0,0,0,0,0,0,0,0,0,0,0,0,0,0,0,0,0,0,0,0,0,0,0,0,0,0,0,0,0,0,0,0,0,0,0,0,0,0,0,0,0,0,0,0,0,0,0,0,0,0,0,0,0,0,0,0,0,0,0,0,0,0,0,0,0,0,0,0,0,0,0,0,0,0,0,0,0,0,0,0,0,0,0,0,0,0,0,0,0,0,0,0,0,0,0,0,0,0,0,0,0,0,0,0,0,0,0,0,0,0,0,0,0,0,0,0,0,0,0,0,0,0,0,0,0,0,0,0,0,0,0,0,0,0,0,0,0,0,0,0,0,0,0,0,0,0,0,0,0,0,0,0,0,0,0,0,0,0,0,0,0,0,0,0,0,0,0,0,0,0,0,0,0,0,0,0,0,0,0,0,0,0,0,0,0,0,0,0,0,0,0,0,0,0,0,0,0,0,0,0,0,0,0,0,0,0,0,0,0,0,0,0,0,0,0,0,0,0,0,0,0,0,0,0,0,0,0,0,0,0,0,0,0,0,0,0,0,0,0,0,0,0,0,0,0,0,0,0,0,0,0,0,0,0,0,0,0,0,0,0,0,0,0,0,0,0,0,0,0,0,0,0,0,0,0,0,0,0,0,0,0,0,0,0,0,0,0,0,0,0,0,0,0,0,0,0,0,0,0,0,0,0,0,0,0,0,0,0,0,0,0,0,0,0,0,0,0,0,0,0,0,0,0,0,0,0,0,0,0,0,0,0,0,0,0,0,0,0,0,0,0,0,0,0,0,0,0,0,0,0,0,0,0,0,0,0,0,0,0,0,0,0,0,0,0,0,0,0,0,0,0,0,0,0,0,0,0,0,0,0,0,0,0,0,0,0,0,0,0,0,0,0,0,0,0,0,0,0,0,0,0,0,0,0,0,0,0,0,0,0,0,0,0,0,0,0,0,0,0,0,0,0,0,0,0,0,0,0,0,0,0,0,0,0,0,0,0,0,0,0,0,0,0,0,0,0,0,0,0,0,0,0,0,0,0,0,0,0,0,0,0,0,0,0,0,0,0,0,0,0,0,0,0,0,0,0,0,0,0,0,0,0,0,0,0,0,0,0,0,0,0,0,0,0,0,0,0,0,0,0,0,0,0,0,0,0,0,0,0,0,0,0,0,0,0,0,0,0,0,0,0,0,0,0,0,0,0,0,0,0,0,0,0,0,0,0,0,0,0,0,0,0,0,0,0,0,0,0,0,0,0,0,0,0,0,0,0,0,0,0,0,0,0,0,0,0,0,0,0,0,0,0,0,0,0,0,0,0,0,0,0,0,0,0,0,0,0,0,0,0,0,0,0,0,0,0,0,0,0,0,0,0,0,0,0,0,0,0,0,0,0,0,0,0,0,0,0,0,0,0,0,0,0,0,0,0,0,0,0,0,0,0,0,0,0,0,0,0,0,0,0,0,0,0,0,0,0,0,0,0,0,0,0,0,0,0,0,0,0,0,0,0,0,0,0,0,0,0,0,0,0,0,0,0,0,0,0,0,0,0,0,0,0,0,0,0,0,0,0,0,0,0,0,0,0,0,0,0,0,0,0,0,0,0,0,0,0,0,0,0,0,0,0,0,0,0,0,0,0,0,0,0,0,0,0,0,0,0,0,0,0,0,0,0,0,0,0,0,0,0,0,0,0,0,0,0,0,0,0,0,0,0,0,0,0,0,0,0,0,0,0,0,0,0,0,0,0,0,0,0,0,0,0,0,0,0,0,0,0,0,0,0,0,0,0,0,0,0,0,0,0,0,0,0,0,0,0,0,0,0,0,0,0,0,0,0,0,0,0,0,0,0,0,0,0,0,0,0,0,0,0,0,0,0,0,0,0,0,0,0,0,0,0,0,0,0,0,0,0,0,0,0,0,0,0,0,0,0,0,0,0,0,0,0,0,0,0,0,0,0,0,0,0,0,0,0,0,0,0,0,0,0,0,0,0,0,0,0,0,0,0,0,0,0,0,0,0,0,0,0,0,0,0,0,0,0,0,0,0,0,0,0,0,0,0,0,0,0,0,0,0,0,0,0,0,0,0,0,0,0,0,0,0,0,0,0,0,0,0,0,0,0,0,0,0,0,0,0,0,0,0,0,0,0,0,0,0,0,0,0,0,0,0,0,0,0,0,0,0,0,0,0,0,0,0,0,0,0,0,0,0,0,0,0,0,0,0,0,0,0,0,0,0,0,0,0,0,0,0,0,0,0,0,0,0,0,0,0,0,0,0,0,0,0,0,0,0,0,0,0,0,0,0,0,0,0,0,0,0,0,0,0,0,0,0,0,0,0,0,0,0,0,0,0,0,0,0,0,0,0,0,0,0,0,0,0,0,0,0,0,0,0,0,0,0,0,0,0,0,0,0,0,0,0,0,0,0,0,0,0,0,0,0,0,0,0,0,0,0,0,0,0,0,0,0,0,0,0,0,0,0,0,0,0,0,0,0,0,0,0,0,0,0,0,0,0,0,0,0,0,0,0,0,0,0,0,0,0,0,0,0,0,0,0,0,0,0,0,0,0,0,0,0,0,0,0,0,0,0,0,0,0,0,0,0,0,0,0,0,0,0,0,0,0,0,0,0,0,0,0,0,0,0,0,0,0,0,0,0,0,0,0,0,0,0,0,0,0,0,0,0,0,0,0,0,0,0,0,0,0,0,0,0,0,0,0,0,0,0,0,0,0,0,0,0,0,0,0,0,0,0,0,0,0,0,0,0,0,0,0,0,0,0,0,0,0,0,0,0,0,0,0,0,0,0,0,0,0,0,0,0,0,0,0,0,0,0,0,0,0,0,0,0,0,0,0,0,0,0,0,0,0,0,0,0,0,0,0,0,0,0,0,0,0,0,0,0,0,0,0,0,0,0,0,0,0,0,0,0,0,0,0,0,0,0,0,0,0,0,0,0,0,0,0,0,0,0,0,0,0,0,0,0,0,0,0,0,0,0,0,0,0,0,0,0,0,0,0,0,0,0,0,0,0,0,0,0,0,0,0,0,0,0,0,0,0,0,0,0,0,0,0,0,0,0,0,0,0,0,0,0,0,0,0,0,0,0,0,0,0,0,0,0,0,0,0,0,0,0,0,0,0,0,0,0,0,0,0,0,0,0,0,0,0,0,0,0,0,0,0,0,0,0,0,0,0,0,0,0,0,0,0,0,0,0,0,0,0,0,0,0,0,0,0,0,0,0,0,0,0,0,0,0,0,0,0,0,0,0,0,0,0,0,0,0,0,0,0,0,0,0,0,0,0,0,0,0,0,0,0,0,0,0,0,0,0,0,0,0,0,0,0,0,0,0,0,0,0,0,0,0,0,0,0,0,0,0,0,0,0,0,0,0,0,0,0,0,0,0,0,0,0,0,0,0,0,0,0,0,0,0,0,0,0,0,0,0,0,0,0,0,0,0,0,0,0,0,0,0,0,0,0,0,0,0,0,0,0,0,0,0,0,0,0,0,0,0,0,0,0,0,0,0,0,0,0,0,0,0,0,0,0,0,0,0,0,0,0,0,0,0,0,0,0,0,0,0,0,0,0,0,0,0,0,0,0,0,0,0,0,0,0,0,0,0,0,0,0,0,0,0,0,0,0,0,0,0,0,0,0,0,0,0,0,0,0,0,0,0,0,0,0,0,0,0,0,0,0,0,0,0,0,0,0,0,0,0,0,0,0,0,0,0,0,0,0,0,0,0,0,0,0,0,0,0,0,0,0,0,0,0,0,0,0,0,0,0,0,0,0,0,0,0,0,0,0,0,0,0,0,0,0,0,0,0,0,0,0,0,0,0,0,0,0,0,0,0,0,0,0,0,0,0,0,0,0,0,0,0,0,0,0,0,0,0,0,0,0,0,0,0,0,0,0,0,0,0,0,0,0,0,0,0,0,0,0,0,0,0,0,0,0,0,0,0,0,0,0,0,0,0,0,0,0,0,0,0,0,0,0,0,0,0,0,0,0,0,0,0,0,0,0,0,0,0,0,0,0,0,0,0,0,0,0,0,0,0,0,0,0,0,0,0,0,0,0,0,0,0,0,0,0,0,0,0,0,0,0,0,0,0,0,0,0,0,0,0,0,0,0,0,0,0,0,0,0,0,0,0,0,0,0,0,0,0,0,0,0,0,0,0,0,0,0,0,0,0,0,0,0,0,0,0,0,0,0,0,0,0,0,0,0,0,0,0,0,0,0,0,0,0,0,0,0,0,0,0,0,0,0,0,0,0,0,0,0,0,0,0,0,0,0,0,0,0,0,0,0,0,0,0,0,0,0,0,0,0,0,0,0,0,0,0,0,0,0,0,0,0,0,0,0,0,0,0,0,0,0,0,0,0,0,0,0,0,0,0,0,0,0,0,0,0,0,0,0,0,0,0,0,0,0,0,0,0,0,0,0,0,0,0,0,0,0,0,0,0,0,0,0,0,0,0,0,0,0,0,0,0,0,0,0,0,0,0,0,0,0,0,0,0,0,0,0,0,0,0,0,0,0,0,0,0,0,0,0,0,0,0,0,0,0,0,0,0,0,0,0,0,0,0,0,0,0,0,0,0,0,0,0,0,0,0,0,0,0,0,0,0,0,0,0,0,0,0,0,0,0,0,0,0,0,0,0,0,0,0,0,0,0,0,0,0,0,0,0,0,0,0,0,0,0,0,0,0,0,0,0,0,0,0,0,0,0,0,0,0,0,0,0,0,0,0,0,0,0,0,0,0,0,0,0,0,0,0,0,0,0,0,0,0,0,0,0,0,0,0,0,0,0,0,0,0,0,0,0,0,0,0,0,0,0,0,0,0,0,0,0,0,0,0,0,0,0,0,0,0,0,0,0,0,0,0,0,0,0,0,0,0,0,0,0,0,0,0,0,0,0,0,0,0,0,0,0,0,0,0,0,0,0,0,0,0,0,0,0,0,0,0,0,0,0,0,0,0,0,0,0,0,0,0,0,0,0,0,0,0,0,0,0,0,0,0,0,0,0,0,0,0,0,0,0,0,0,0,0,0,0,0,0,0,0,0,0,0,0,0,0,0,0,0,0,0,0,0,0,0,0,0,0,0,0,0,0,0,0,0,0,0,0,0,0,0,0,0,0,0,0,0,0,0,0,0,0,0,0,0,0,0,0,0,0,0,0,0,0,0,0,0,0,0,0,0,0,0,0,0,0,0,0,0,0,0,0,0,0,0,0,0,0,0,0,0,0,0,0,0,0,0,0,0,0,0,0,0,0,0,0,0,0,0,0,0,0,0,0,0,0,0,0,0,0,0,0,0,0,0,0,0,0,0,0,0,0,0,0,0,0,0,0,0,0,0,0,0,0,0,0,0,0,0,0,0,0,0,0,0,0,0,0,0,0,0,0,0,0,0,0,0,0,0,0,0,0,0,0,0,0,0,0,0,0,0,0,0,0,0,0,0,0,0,0,0,0,0,0,0,0,0,0,0,0,0,0,0,0,0,0,0,0,0,0,0,0,0,0,0,0,0,0,0,0,0,0,0,0,0,0,0,0,0,0,0,0,0,0,0,0,0,0,0,0,0,0,0,0,0,0,0,0,0,0,0,0,0,0,0,0,0,0,0,0,0,0,0,0,0,0,0,0,0,0,0,0,0,0,0,0,0,0,0,0,0,0,0,0,0,0,0,0,0,0,0,0,0,0,0,0,0,0,0,0,0,0,0,0,0,0,0,0,0,0,0,0,0,0,0,0,0,0,0,0,0,0,0,0,0,0,0,0,0,0,0,0,0,0,0,0,0,0,0,0,0,0,0,0,0,0,0,0,0,0,0,0,0,0,0,0,0,0,0,0,0,0,0,0,0,0,0,0,0,0,0,0,0,0,0,0,0,0,0,0,0,0,0,0,0,0,0,0,0,0,0,0,0,0,0,0,0,0,0,0,0,0,0,0,0,0,0,0,0,0,0,0,0,0,0,0,0,0,0,0,0,0,0,0,0,0,0,0,0,0,0,0,0,0,0,0,0,0,0,0,0,0,0,0,0,0,0,0,0,0,0,0,0,0,0,0,0,0,0,0,0,0,0,0,0,0,0,0,0,0,0,0,0,0,0,0,0,0,0,0,0,0,0,0,0,0,0,0,0,0,0,0,0,0,0,0,0,0,0,0,0,0,0,0,0,0,0,0,0,0,0,0,0,0,0,0,0,0,0,0,0,0,0,0,0,0,0,0,0,0,0,0,0,0,0,0,0,0,0,0,0,0,0,0,0,0,0,0,0,0,0,0,0,0,0,0,0,0,0,0,0,0,0,0,0,0,0,0,0,0,0,0,0,0,0,0,0,0,0,0,0,0,0,0,0,0,0,0,0,0,0,0,0,0,0,0,0,0,0,0,0,0,0,0,0,0,0,0,0,0,0,0,0,0,0,0,0,0,0,0,0,0,0,0,0,0,0,0,0,0,0,0,0,0,0,0,0,0,0,0,0,0,0,0,0,0,0,0,0,0,0,0,0,0,0,0,0,0],"trees":[{"base_weights":[2.2196722E0,8.5714287E-1,4.0229006E0,6.891026E-1,2.125E0,3.172043E0,5.948718E0,6.092715E-1,2.5833333E0,3.5833333E0,1.4E0,3.8888888E0,1.6129032E0,3.0416667E0,6.982143E0,5.6333333E-1,3.75E0,6.25E-1,4.3333335E0,-2.5E-1,4.4E0,2.4E0,8.181818E-1,5.904762E0,2.8139534E0,1.2884616E0,2.75E0,4.3125E0,4E-1,1.375E0,7.6E0,2E-1,8.313953E-1,6.666667E-1,3.3333333E0,1.1428572E0,2E-1,1.9166666E0,7.03125E0,1.5277778E0,3.5961537E0,1.4722222E0,7.777778E-1,3.625E0,6.666667E-1,4.714286E0,7.5E-1,6.25E-1,-2.5E-1,-0E0,2.75E0,9.34375E0,4.05E0,7.2727275E-1,9.090909E-2,1.8888888E0,6.9871795E-1,1.25E0,2.5E-1,3.75E-1,-2.5E-1,-3.3333334E-1,3.125E0,7.4E0,7.5E-1,4.25E0,1.117647E0,1.1111112E0,4.638889E0,6.25E-1,1.6E0,1.125E0,4.1666666E-1,-2.5E-1,2.5E-1,1.6666666E0,1.0321428E1,5.142857E0,1.125E0],"categories":[],"categories_nodes":[],"categories_segments":[],"categories_sizes":[],"default_left":[1,1,1,1,1,1,1,1,1,1,1,1,1,1,1,1,0,0,0,0,0,1,1,1,1,1,1,1,1,1,1,1,1,0,0,1,1,1,1,1,1,1,1,0,0,0,0,0,0,1,0,1,1,0,0,0,0,0,0,0,0,0,0,0,0,0,0,0,0,0,0,0,0,0,0,0,0,0,0],"id":0,"left_children":[1,3,5,7,9,11,13,15,17,19,21,23,25,27,29,31,-1,-1,-1,-1,-1,33,35,37,39,41,43,45,47,49,51,53,55,-1,-1,57,59,61,63,65,67,69,71,-1,-1,-1,-1,-1,-1,73,-1,75,77,-1,-1,-1,-1,-1,-1,-1,-1,-1,-1,-1,-1,-1,-1,-1,-1,-1,-1,-1,-1,-1,-1,-1,-1,-1,-1],"loss_changes":[7.459221E2,3.5819595E1,1.9578662E2,2.201612E1,1.6129166E1,9.767029E1,9.5927246E1,1.967369E1,1.7854164E1,1.9883339E1,6.7636356E0,1.1990106E2,7.8932953E0,3.8560417E1,8.655359E1,1.44431E1,0E0,0E0,0E0,0E0,0E0,5.866665E0,1.9792209E0,8.086682E1,3.77659E1,1.2948761E0,8.520832E0,7.9151764E0,8.875E-1,7.5625E0,1.1691565E2,3.6727276E0,1.0746471E1,0E0,0E0,3.5714245E-1,4.875E-1,1.7354166E1,3.15094E1,1.5346405E1,6.2217957E1,9.486122E-1,6.5972185E-1,0E0,0E0,0E0,0E0,0E0,0E0,2.5E-1,0E0,1.0288916E2,2.6180359E1,0E0,0E0,0E0,0E0,0E0,0E0,0E0,0E0,0E0,0E0,0E0,0E0,0E0,0E0,0E0,0E0,0E0,0E0,0E0,0E0,0E0,0E0,0E0,0E0,0E0,0E0],"parents":[2147483647,0,0,1,1,2,2,3,3,4,4,5,5,6,6,7,7,8,8,9,9,10,10,11,11,12,12,13,13,14,14,15,15,21,21,22,22,23,23,24,24,25,25,26,26,27,27,28,28,29,29,30,30,31,31,32,32,35,35,36,36,37,37,38,38,39,39,40,40,41,41,42,42,49,49,51,51,52,52],"right_children":[2,4,6,8,10,12,14,16,18,20,22,24,26,28,30,32,-1,-1,-1,-1,-1,34,36,38,40,42,44,46,48,50,52,54,56,-1,-1,58,60,62,64,66,68,70,72,-1,-1,-1,-1,-1,-1,74,-1,76,78,-1,-1,-1,-1,-1,-1,-1,-1,-1,-1,-1,-1,-1,-1,-1,-1,-1,-1,-1,-1,-1,-1,-1,-1,-1,-1],"split_conditions":[2.0749998E0,1.805E0,4.6458334E-1,2.6785713E-1,1.84E0,2.1825397E-1,1.7093083E3,3.1547618E0,5E-1,7.0000005E-1,3.3333335E-2,2.9285714E-2,2.3000002E0,8.4246155E1,2.020202E-1,1.8090909E0,1.125E0,1.875E-1,1.3000001E0,-7.5E-2,1.32E0,3.75E-2,7.7380955E-2,1.5916666E1,1.4415585E0,1.828636E3,2.75E-1,1.7023934E3,1.6E0,4.26E0,1.8139854E3,1.2111111E0,4.7727272E-2,2.0000002E-1,1E0,2E0,2.0149999E0,2.725E0,6.794697E1,4.7375E1,6.1818182E-2,1.6462906E3,1.4583334E-1,1.0875001E0,2.0000002E-1,1.4142858E0,2.2500001E-1,1.875E-1,-7.5E-2,4.205E0,8.2500005E-1,7.934295E1,1.7692308E-1,2.1818183E-1,2.727273E-2,5.6666666E-1,2.096154E-1,3.75E-1,7.5E-2,1.12500004E-1,-7.5E-2,-1.0000001E-1,9.3750006E-1,2.22E0,2.2500001E-1,1.2750001E0,3.3529413E-1,3.3333337E-1,1.3916667E0,1.875E-1,4.8000002E-1,3.375E-1,1.25E-1,-7.5E-2,7.5E-2,5E-1,3.0964286E0,1.5428572E0,3.375E-1],"split_indices":[0,0,10,8,0,6,2,14,1,3,6,11,4,5,12,15,0,0,0,0,0,10,7,5,14,2,6,2,3,0,2,15,10,0,0,0,0,0,5,5,11,2,8,0,0,0,0,0,0,0,0,5,7,0,0,0,0,0,0,0,0,0,0,0,0,0,0,0,0,0,0,0,0,0,0,0,0,0,0],"split_type":[0,0,0,0,0,0,0,0,0,0,0,0,0,0,0,0,0,0,0,0,0,0,0,0,0,0,0,0,0,0,0,0,0,0,0,0,0,0,0,0,0,0,0,0,0,0,0,0,0,0,0,0,0,0,0,0,0,0,0,0,0,0,0,0,0,0,0,0,0,0,0,0,0,0,0,0,0,0,0],"sum_hessian":[3.04E2,1.74E2,1.3E2,1.55E2,1.9E1,9.2E1,3.8E1,1.5E2,5E0,5E0,1.4E1,6.2E1,3E1,1.1E1,2.7E1,1.49E2,1E0,3E0,2E0,1E0,4E0,4E0,1E1,2E1,4.2E1,2.5E1,5E0,7E0,4E0,3E0,2.4E1,6.4E1,8.5E1,2E0,2E0,6E0,4E0,5E0,1.5E1,1.7E1,2.5E1,1.7E1,8E0,3E0,2E0,6E0,1E0,3E0,1E0,2E0,1E0,1.5E1,9E0,1E1,5.4E1,8E0,7.7E1,5E0,1E0,3E0,1E0,2E0,3E0,1.4E1,1E0,1E0,1.6E1,8E0,1.7E1,3E0,1.4E1,3E0,5E0,1E0,1E0,2E0,1.3E1,6E0,3E0],"tree_param":{"num_deleted":"0","num_feature":"16","num_nodes":"79","size_leaf_vector":"0"}},{"base_weights":[1.6313298E0,5.27165E-1,2.814533E0,4.6416712E-1,2.0562499E0,2.4276252E0,5.830614E0,4.2553422E-1,3.1875E0,4.84375E-1,3.4666665E0,2.159123E0,4.719368E0,6.5388827E0,2.0710871E0,1.6264652E0,3.6545223E-1,6.5625E-1,2.0833333E-1,4.94E0,1.9431394E0,5.416667E-1,5.4297075E0,3.787857E0,8.3557825E0,2.3739495E0,5.8125E-1,7.419871E-1,3.4666667E0,2.6690474E-1,1.0153036E0,5.4790473E0,5.833333E-1,2.5801487E0,1.4995372E0,6.5625E-1,1.5625E-1,6.375E-1,5.8451786E0,4.2066665E0,6.375E-1,2.7238095E0,1.0063809E1,1.9358973E-1,9.677884E-1,6.709061E-2,3.9252013E-1,1.2563076E0,8.923075E-2,6.877311E-1,2.8536556E0,4.9813065E-1,1.79245E0,6.485714E0,2.1886904E0,3.0541668E0,1.1052679E1],"categories":[],"categories_nodes":[],"categories_segments":[],"categories_sizes":[],"default_left":[1,1,1,1,1,1,1,1,0,1,0,1,1,1,1,1,1,0,0,1,1,1,1,1,1,0,0,1,0,1,1,0,0,1,1,0,0,0,1,0,0,0,1,0,0,0,0,0,0,0,0,0,0,0,0,0,0],"id":1,"left_children":[1,3,5,7,9,11,13,15,-1,17,-1,19,21,23,25,27,29,-1,-1,31,33,35,37,39,41,-1,-1,43,-1,45,47,-1,-1,49,51,-1,-1,-1,53,-1,-1,-1,55,-1,-1,-1,-1,-1,-1,-1,-1,-1,-1,-1,-1,-1,-1],"loss_changes":[3.9698395E2,1.4361889E1,1.5738635E2,1.4845982E1,1.1622824E1,7.103497E1,2.9061523E1,1.0445215E1,0E0,5.3059876E-2,0E0,6.2475708E1,3.5637543E1,3.332782E1,4.2500305E-1,8.821104E0,9.14307E0,0E0,0E0,1.5591507E1,2.8062378E1,2.9947937E-2,1.8174927E1,6.5540543E0,3.992502E1,0E0,0E0,5.5561924E-1,0E0,3.2115307E0,4.128458E0,0E0,0E0,2.132898E1,1.9346542E1,0E0,0E0,0E0,9.225891E0,0E0,0E0,0E0,9.013977E-1,0E0,0E0,0E0,0E0,0E0,0E0,0E0,0E0,0E0,0E0,0E0,0E0,0E0,0E0],"parents":[2147483647,0,0,1,1,2,2,3,3,4,4,5,5,6,6,7,7,9,9,11,11,12,12,13,13,14,14,15,15,16,16,19,19,20,20,21,21,22,22,23,23,24,24,27,27,29,29,30,30,33,33,34,34,38,38,42,42],"right_children":[2,4,6,8,10,12,14,16,-1,18,-1,20,22,24,26,28,30,-1,-1,32,34,36,38,40,42,-1,-1,44,-1,46,48,-1,-1,50,52,-1,-1,-1,54,-1,-1,-1,56,-1,-1,-1,-1,-1,-1,-1,-1,-1,-1,-1,-1,-1,-1],"split_conditions":[1.815E0,2.6785713E-1,4.5804197E-1,3.1547618E0,5E-1,3.2051283E-1,1.8426165E3,7.595238E-1,9.5625E-1,1.36E0,1.04E0,6.515151E-1,7.0000005E-1,7.920833E1,4.165E0,1.535E0,3.1180556E0,1.96875E-1,6.25E-2,2.1223776E0,1.7152007E3,3.54E0,7.708333E1,3.4450002E0,1.6908652E3,7.121849E-1,1.7437501E-1,1.29E0,1.0400001E0,1.8482956E1,3.4182692E0,1.6437143E0,1.75E-1,8.6607146E-1,1.7669092E3,1.96875E-1,4.6875E-2,1.9125001E-1,7.8888893E-1,1.262E0,1.9125001E-1,8.171429E-1,1.6E0,5.807692E-2,2.9033652E-1,2.0127183E-2,1.1775605E-1,3.768923E-1,2.6769226E-2,2.0631933E-1,8.560967E-1,1.494392E-1,5.37735E-1,1.9457142E0,6.5660715E-1,9.1625005E-1,3.3158038E0],"split_indices":[0,8,12,14,1,8,2,14,0,0,0,13,3,5,0,0,15,0,0,14,2,0,5,0,2,0,0,0,0,5,15,0,0,13,2,0,0,0,6,0,0,0,3,0,0,0,0,0,0,0,0,0,0,0,0,0,0],"split_type":[0,0,0,0,0,0,0,0,0,0,0,0,0,0,0,0,0,0,0,0,0,0,0,0,0,0,0,0,0,0,0,0,0,0,0,0,0,0,0,0,0,0,0,0,0,0,0,0,0,0,0,0,0,0,0,0,0],"sum_hessian":[3.04E2,1.58E2,1.46E2,1.53E2,5E0,1.31E2,1.5E1,1.52E2,1E0,3E0,2E0,1.19E2,1.2E1,1.2E1,3E0,6E0,1.46E2,1E0,2E0,7E0,1.12E2,2E0,1E1,6E0,6E0,2E0,1E0,5E0,1E0,1.28E2,1.8E1,6E0,1E0,4.4E1,6.8E1,1E0,1E0,1E0,9E0,5E0,1E0,2E0,4E0,2E0,3E0,5E1,7.8E1,1.4E1,4E0,6E0,3.8E1,1.6E1,5.2E1,7E0,2E0,1E0,3E0],"tree_param":{"num_deleted":"0","num_feature":"16","num_nodes":"57","size_leaf_vector":"0"}},{"base_weights":[1.2015381E0,4.5518902E-1,2.1893973E0,1.5451093E0,3.7976894E-1,1.8188378E0,4.5673356E0,3.2623334E0,4.933586E-1,1.9001773E-1,8.001929E-1,1.5842987E0,3.5371978E0,5.4101644E0,1.4625149E0,8.379668E-3,7.826701E-1,1.4415166E-1,2.709375E0,3.9058733E-1,1.1790218E0,5.0212383E0,1.4309782E0,4.6041667E-1,4.0547566E0,2.5715501E0,6.3860426E0,1.8991596E0,5.383653E-1,1.5487178E-1,-2.1554834E-1,7.703012E-1,1.1437984E-1,-1.3330741E-1,4.9190032E-1,2.0916831E0,6.5719E-1,3.5516906E0,1.2819755E0,5.578125E-1,1.328125E-1,5.057143E-1,4.3590894E0,2.9435E0,5.41875E-1,7.425171E0,1.8327297E0,1.582031E0,1.7186101E-1,1.2179799E-2,2.9292542E-1,1.15085684E-1,-3.372647E-1,5.547228E-1,-4.1368574E-1,-9.30469E-2,2.7291842E0,7.7790576E-1,4.0208608E-2,4.4634643E0,1.1520953E0,-5.8742803E-1,1.4373534E0,1.7382588E0,5.2339797E0,1.6342857E0,8.117937E0],"categories":[],"categories_nodes":[],"categories_segments":[],"categories_sizes":[],"default_left":[1,1,1,1,1,1,1,0,1,1,1,1,1,1,1,1,0,1,0,1,1,0,1,1,1,1,1,0,0,0,0,1,1,1,1,1,1,1,1,0,0,0,1,0,0,1,0,0,0,0,0,0,0,0,0,0,0,0,0,0,0,0,0,0,0,0,0],"id":2,"left_children":[1,3,5,7,9,11,13,-1,15,17,19,21,23,25,27,29,-1,31,-1,33,35,-1,37,39,41,43,45,-1,-1,-1,-1,47,49,51,53,55,57,59,61,-1,-1,-1,63,-1,-1,65,-1,-1,-1,-1,-1,-1,-1,-1,-1,-1,-1,-1,-1,-1,-1,-1,-1,-1,-1,-1,-1],"loss_changes":[2.2387619E2,1.3798538E1,1.0712573E2,1.825751E1,1.30109825E1,4.074362E1,3.657367E1,0E0,1.1159211E0,1.2898035E1,7.453182E0,4.7090942E1,1.8834518E1,1.9589844E1,9.9518394E-1,1.6459711E-1,0E0,2.0370362E0,0E0,1.4455853E0,1.1008011E1,0E0,2.704599E1,2.163744E-2,9.676544E0,2.179676E0,2.8974976E1,0E0,0E0,0E0,0E0,2.1569695E0,2.0036426E0,2.9212224E-1,1.4810863E0,1.27888565E1,1.3093491E0,7.984993E0,2.84384E1,0E0,0E0,0E0,1.383139E1,0E0,0E0,1.4815063E1,0E0,0E0,0E0,0E0,0E0,0E0,0E0,0E0,0E0,0E0,0E0,0E0,0E0,0E0,0E0,0E0,0E0,0E0,0E0,0E0,0E0],"parents":[2147483647,0,0,1,1,2,2,3,3,4,4,5,5,6,6,8,8,9,9,10,10,11,11,12,12,13,13,14,14,15,15,17,17,19,19,20,20,22,22,23,23,24,24,25,25,26,26,31,31,32,32,33,33,34,34,35,35,36,36,37,37,38,38,42,42,45,45],"right_children":[2,4,6,8,10,12,14,-1,16,18,20,22,24,26,28,30,-1,32,-1,34,36,-1,38,40,42,44,46,-1,-1,-1,-1,48,50,52,54,56,58,60,62,-1,-1,-1,64,-1,-1,66,-1,-1,-1,-1,-1,-1,-1,-1,-1,-1,-1,-1,-1,-1,-1,-1,-1,-1,-1,-1,-1],"split_conditions":[2.0749998E0,8.019481E-1,4.2261904E-1,6.904762E-2,4.6977272E1,3.2051283E-1,1.8375569E3,9.7870004E-1,1.225E0,3.1547618E0,5E-1,2.6136365E-2,7.0000005E-1,7.920833E1,7.992857E1,1.65E0,2.3480104E-1,1.1339285E0,8.128125E-1,7.333334E-2,1.7137686E3,1.5063716E0,6.515151E-1,3.54E0,1.3E0,3.4450002E0,1.095E1,5.6974787E-1,1.615096E-1,4.6461534E-2,-6.4664505E-2,1.35E0,2.323611E1,7.7380955E-2,3.2E0,7.0000005E-1,3.541667E-1,5.9276222E1,2.2698412E0,1.6734377E-1,3.9843753E-2,1.517143E-1,8.4263885E1,8.8305E-1,1.625625E-1,6.25E-2,5.4981893E-1,4.7460932E-1,5.1558305E-2,3.65394E-3,8.787763E-2,3.4525707E-2,-1.0117941E-1,1.6641684E-1,-1.2410573E-1,-2.7914071E-2,8.1875527E-1,2.3337173E-1,1.2062583E-2,1.3390393E0,3.4562862E-1,-1.7622842E-1,4.3120602E-1,5.214777E-1,1.570194E0,4.9028572E-1,2.4353812E0],"split_indices":[0,14,12,6,5,8,2,0,3,14,1,10,3,5,5,0,0,15,0,10,2,0,13,0,4,0,15,0,0,0,0,0,5,6,4,3,12,5,15,0,0,0,5,0,0,7,0,0,0,0,0,0,0,0,0,0,0,0,0,0,0,0,0,0,0,0,0],"split_type":[0,0,0,0,0,0,0,0,0,0,0,0,0,0,0,0,0,0,0,0,0,0,0,0,0,0,0,0,0,0,0,0,0,0,0,0,0,0,0,0,0,0,0,0,0,0,0,0,0,0,0,0,0,0,0,0,0,0,0,0,0,0,0,0,0,0,0],"sum_hessian":[3.04E2,1.74E2,1.3E2,1E1,1.64E2,1.14E2,1.6E1,3E0,7E0,1.14E2,5E1,1.02E2,1.2E1,1.2E1,4E0,3E0,4E0,1.13E2,1E0,2.5E1,2.5E1,3E0,9.9E1,2E0,1E1,4E0,8E0,2E0,2E0,2E0,1E0,4E0,1.09E2,4E0,2.1E1,8E0,1.7E1,5E0,9.4E1,1E0,1E0,1E0,9E0,3E0,1E0,6E0,2E0,1E0,3E0,7E1,3.9E1,2E0,2E0,2E1,1E0,2E0,6E0,1.4E1,3E0,3E0,2E0,7E0,8.7E1,3E0,6E0,1E0,5E0],"tree_param":{"num_deleted":"0","num_feature":"16","num_nodes":"67","size_leaf_vector":"0"}},{"base_weights":[8.8955766E-1,6.229386E-1,2.6403353E0,2.8161353E-1,1.0970266E0,5.180234E0,2.2142289E0,2.5371465E-1,2.3029687E0,2.1503038E0,6.431637E-1,8.654658E-1,7.7682576E0,2.992002E0,9.258799E-1,2.0965579E-1,1.3129005E0,2.7644942E0,-1.1460306E-1,1.0899084E0,1.8033987E-1,1.3991114E0,3.642077E0,-1.011364E0,1.7222744E0,9.7941685E-1,1.5357588E-1,2.987284E-1,2.2274964E0,1.7975006E0,5.1324053E0,2.830753E-1,-4.0982515E-1,8.0487925E-1,3.453951E0,-5.7815254E-1,4.1919744E-1,4.9814954E-2,2.1987262E0,4.0072092E-1,4.1099224E0,-1.2252936E0,-7.7822626E-2,3.6696595E-1,2.1846445E0,4.7434807E-1,1.9997947E0,8.681682E-2,4.598653E-1,4.7460407E-1,8.190185E-2,7.004627E-1,3.3554997E0,4.4384158E-1,8.1539355E-2,-4.83181E-2,1.5325129E0,2.0157409E-1,-7.9828095E-1,7.452837E-1,-6.1146116E-1,3.9135417E-1,-4.8740137E-1,-5.0282264E-1,1.103904E0,4.5096025E0,1.274454E0,9.27475E-1,-1.2902872E-1,2.3786485E0,4.1330767E-1],"categories":[],"categories_nodes":[],"categories_segments":[],"categories_sizes":[],"default_left":[1,1,1,1,1,1,1,1,0,1,1,0,0,1,1,1,1,1,1,1,1,1,1,1,1,1,1,1,0,1,0,1,0,1,0,1,1,1,0,1,1,0,0,1,1,0,0,0,0,0,0,0,0,0,0,0,0,0,0,0,0,0,0,0,0,0,0,0,0,0,0],"id":3,"left_children":[1,3,5,7,9,11,13,15,-1,17,19,-1,-1,21,23,25,27,29,31,33,35,37,39,41,43,45,47,49,-1,51,-1,53,-1,55,-1,57,59,61,-1,63,65,-1,-1,67,69,-1,-1,-1,-1,-1,-1,-1,-1,-1,-1,-1,-1,-1,-1,-1,-1,-1,-1,-1,-1,-1,-1,-1,-1,-1,-1],"loss_changes":[1.4072638E2,4.273468E1,3.1820465E1,8.213091E0,5.1679825E1,4.9110443E1,3.3303314E1,6.9580526E0,0E0,4.6222595E1,1.6137814E1,0E0,0E0,1.7685303E1,2.4884E1,6.3248043E0,4.899931E0,5.030812E1,1.0552387E0,2.4172829E1,7.4892263E0,8.521811E0,2.1099869E1,9.032059E-1,6.091503E0,4.2050114E0,2.8431873E0,1.1366713E-1,0E0,3.1833282E1,0E0,9.3410194E-2,0E0,2.3044207E1,0E0,1.8773127E0,1.0874306E1,9.246684E-1,0E0,2.4611378E0,8.985367E0,0E0,0E0,1.2317088E0,1.7660599E0,0E0,0E0,0E0,0E0,0E0,0E0,0E0,0E0,0E0,0E0,0E0,0E0,0E0,0E0,0E0,0E0,0E0,0E0,0E0,0E0,0E0,0E0,0E0,0E0,0E0,0E0],"parents":[2147483647,0,0,1,1,2,2,3,3,4,4,5,5,6,6,7,7,9,9,10,10,13,13,14,14,15,15,16,16,17,17,18,18,19,19,20,20,21,21,22,22,23,23,24,24,25,25,26,26,27,27,29,29,31,31,33,33,35,35,36,36,37,37,39,39,40,40,43,43,44,44],"right_children":[2,4,6,8,10,12,14,16,-1,18,20,-1,-1,22,24,26,28,30,32,34,36,38,40,42,44,46,48,50,-1,52,-1,54,-1,56,-1,58,60,62,-1,64,66,-1,-1,68,70,-1,-1,-1,-1,-1,-1,-1,-1,-1,-1,-1,-1,-1,-1,-1,-1,-1,-1,-1,-1,-1,-1,-1,-1,-1,-1],"split_conditions":[4.5267856E-1,1.805E0,9.2857146E-1,3.1547618E0,2.9285714E-2,7.976785E1,2.1E0,2.6785713E-1,6.9089067E-1,2.2252747E-1,1.1833334E0,2.5963977E-1,2.3304775E0,1.7090387E3,2.211111E0,8.2575756E-1,5E-1,1.7662337E-1,2.8E0,3.1666666E-1,4.5555554E-2,1.3E0,1.1547619E-1,4.2349997E0,8.077083E1,1.625E0,5.61875E1,1.36E0,6.6824895E-1,2.361111E-1,1.5397216E0,2.14E0,-1.2294755E-1,1.3E0,1.0361853E0,2.0549998E0,2.3541667E-1,4.185E0,6.596179E-1,4.2250004E0,3.923077E-1,-3.675881E-1,-2.334679E-2,2.96E0,1.9306671E3,1.4230442E-1,5.9993845E-1,2.6045047E-2,1.379596E-1,1.4238122E-1,2.4570556E-2,2.1013881E-1,1.00665E0,1.3315248E-1,2.4461808E-2,-1.44954305E-2,4.597539E-1,6.0472228E-2,-2.394843E-1,2.2358513E-1,-1.8343836E-1,1.1740626E-1,-1.4622042E-1,-1.508468E-1,3.311712E-1,1.3528808E0,3.8233623E-1,2.782425E-1,-3.870862E-2,7.1359456E-1,1.239923E-1],"split_indices":[10,0,14,14,11,5,3,8,0,6,13,0,0,2,13,14,1,10,0,12,11,3,11,0,5,0,5,0,0,12,0,0,0,4,0,0,10,0,0,0,8,0,0,0,2,0,0,0,0,0,0,0,0,0,0,0,0,0,0,0,0,0,0,0,0,0,0,0,0,0,0],"split_type":[0,0,0,0,0,0,0,0,0,0,0,0,0,0,0,0,0,0,0,0,0,0,0,0,0,0,0,0,0,0,0,0,0,0,0,0,0,0,0,0,0,0,0,0,0,0,0,0,0,0,0,0,0,0,0,0,0,0,0,0,0,0,0,0,0,0,0,0,0,0,0],"sum_hessian":[3.04E2,2.65E2,3.9E1,1.55E2,1.1E2,4E0,3.5E1,1.54E2,1E0,3.2E1,7.8E1,2E0,2E0,2.1E1,1.4E1,1.49E2,5E0,2.5E1,7E0,3.9E1,3.9E1,7E0,1.4E1,4E0,1E1,9E0,1.4E2,3E0,2E0,1.9E1,6E0,3E0,4E0,3.6E1,3E0,9E0,3E1,3E0,4E0,2E0,1.2E1,3E0,1E0,3E0,7E0,7E0,2E0,1.16E2,2.4E1,1E0,2E0,1.2E1,7E0,1E0,2E0,1.7E1,1.9E1,2E0,7E0,2.3E1,7E0,2E0,1E0,1E0,1E0,1E1,2E0,1E0,2E0,6E0,1E0],"tree_param":{"num_deleted":"0","num_feature":"16","num_nodes":"71","size_leaf_vector":"0"}},{"base_weights":[6.6330916E-1,4.6074158E-1,1.9938009E0,2.4191956E-1,8.71971E-1,4.144187E0,1.6397529E0,2.2080964E-1,1.9575233E0,1.2714121E0,4.079064E-3,6.923726E-1,6.214606E0,2.2101443E0,6.9386166E-1,1.0254071E0,1.8094383E-1,2.2989378E0,7.400296E-1,-2.2524709E-1,9.5892483E-1,-4.1429114E-1,2.3548455E0,-7.861418E-1,1.3035122E0,3.259852E-1,2.0824482E0,1.460798E-1,9.569675E-1,8.652066E-1,3.7895212E0,-1.361672E-1,1.1242537E0,1.0061642E-1,-4.1483384E-1,1.6171668E0,-2.3837276E-1,1.5282531E0,3.507027E0,-9.4960266E-1,-6.6149235E-2,3.167596E-1,1.6339495E0,2.902782E-2,4.6720693E-1,-1.5677375E-1,1.9014962E-1,2.7055627E-1,1.7819971E0,2.1087065E0,2.1640599E-1,4.7627487E0,1.1389928E0,8.951446E-1,-6.3820636E-1,2.6112053E-1,1.6851692E0,-8.393087E-2,2.3763643E-1,-2.5342357E-1,-5.4456615E-1,-6.0544395E-1,2.4788481E-1,2.1396058E0,-1.0310412E-4,1.4258624E0,3.9631047E0,7.883537E-1,-1.03223E-1,1.7669961E0,3.513115E-1],"categories":[],"categories_nodes":[],"categories_segments":[],"categories_sizes":[],"default_left":[1,1,1,1,1,1,1,1,0,1,1,0,0,1,1,1,1,1,1,1,1,0,1,1,1,1,0,1,1,1,1,1,1,1,1,0,1,1,1,0,0,1,1,0,0,0,0,0,0,0,0,0,0,0,0,0,0,0,0,0,0,0,0,0,0,0,0,0,0,0,0],"id":4,"left_children":[1,3,5,7,9,11,13,15,-1,17,19,-1,-1,21,23,25,27,29,31,33,35,-1,37,39,41,43,-1,45,47,49,51,53,55,57,59,-1,61,63,65,-1,-1,67,69,-1,-1,-1,-1,-1,-1,-1,-1,-1,-1,-1,-1,-1,-1,-1,-1,-1,-1,-1,-1,-1,-1,-1,-1,-1,-1,-1,-1],"loss_changes":[8.1283295E1,2.372535E1,2.3658173E1,5.905608E0,3.1888603E1,3.1430687E1,1.788948E1,5.395668E0,0E0,3.2697296E1,6.785128E0,0E0,0E0,9.330292E0,1.4559019E1,5.235695E0,4.378444E0,4.160028E1,1.4629293E1,1.586224E0,5.114157E0,0E0,1.464045E1,5.256374E-1,3.06909E0,2.3805898E-1,0E0,2.1786294E0,3.4820352E0,9.225064E0,2.0370941E1,7.8199115E0,1.4084312E1,2.7281174E-1,1.9703627E-1,0E0,6.8555385E-1,1.3081329E1,1.9425354E0,0E0,0E0,8.7362146E-1,7.444382E-1,0E0,0E0,0E0,0E0,0E0,0E0,0E0,0E0,0E0,0E0,0E0,0E0,0E0,0E0,0E0,0E0,0E0,0E0,0E0,0E0,0E0,0E0,0E0,0E0,0E0,0E0,0E0,0E0],"parents":[2147483647,0,0,1,1,2,2,3,3,4,4,5,5,6,6,7,7,9,9,10,10,13,13,14,14,15,15,16,16,17,17,18,18,19,19,20,20,22,22,23,23,24,24,25,25,27,27,28,28,29,29,30,30,31,31,32,32,33,33,34,34,36,36,37,37,38,38,41,41,42,42],"right_children":[2,4,6,8,10,12,14,16,-1,18,20,-1,-1,22,24,26,28,30,32,34,36,-1,38,40,42,44,-1,46,48,50,52,54,56,58,60,-1,62,64,66,-1,-1,68,70,-1,-1,-1,-1,-1,-1,-1,-1,-1,-1,-1,-1,-1,-1,-1,-1,-1,-1,-1,-1,-1,-1,-1,-1,-1,-1,-1,-1],"split_conditions":[4.5267856E-1,2.0749998E0,9.2857146E-1,3.1547618E0,2.1825397E-1,7.976785E1,2.1E0,7.7350426E-1,5.87257E-1,2.9285714E-2,2.3000002E0,2.077118E-1,1.8643818E0,1.6538333E3,2.211111E0,1.535E0,2.6785713E-1,2.0714287E-2,6.1818182E-2,3.1825397E0,2.75E-1,-1.24287345E-1,6.321429E-1,4.2349997E0,8.077083E1,1.29E0,6.247345E-1,1.285E0,5E-1,6.681818E-1,2.2E0,7.0000005E-1,1.4415585E0,3.2967035E-2,7.1428575E-2,4.8515004E-1,3.275E0,6.3809524E0,1.7043253E3,-2.8488082E-1,-1.984477E-2,2.96E0,1.9306671E3,8.708347E-3,1.4016208E-1,-4.7032125E-2,5.704489E-2,8.1166886E-2,5.345991E-1,6.32612E-1,6.49218E-2,1.4288247E0,3.4169784E-1,2.685434E-1,-1.9146192E-1,7.8336164E-2,5.055508E-1,-2.5179263E-2,7.129093E-2,-7.602707E-2,-1.6336985E-1,-1.8163319E-1,7.4365444E-2,6.4188176E-1,-3.0931238E-5,4.2775875E-1,1.1889315E0,2.3650612E-1,-3.0966902E-2,5.3009886E-1,1.05393454E-1],"split_indices":[10,0,14,14,6,5,3,14,0,11,4,0,0,2,13,0,8,11,11,15,6,0,10,0,5,0,0,0,1,13,4,3,14,11,8,0,0,15,2,0,0,0,2,0,0,0,0,0,0,0,0,0,0,0,0,0,0,0,0,0,0,0,0,0,0,0,0,0,0,0,0],"split_type":[0,0,0,0,0,0,0,0,0,0,0,0,0,0,0,0,0,0,0,0,0,0,0,0,0,0,0,0,0,0,0,0,0,0,0,0,0,0,0,0,0,0,0,0,0,0,0,0,0,0,0,0,0,0,0,0,0,0,0,0,0,0,0,0,0,0,0,0,0,0,0],"sum_hessian":[3.04E2,2.65E2,3.9E1,1.74E2,9.1E1,4E0,3.5E1,1.73E2,1E0,6.2E1,2.9E1,2E0,2E0,2.1E1,1.4E1,7E0,1.66E2,2E1,4.2E1,2.4E1,5E0,1E0,2E1,4E0,1E1,5E0,2E0,1.6E2,6E0,1.1E1,9E0,1.3E1,2.9E1,9E0,1.5E1,3E0,2E0,1.3E1,7E0,3E0,1E0,3E0,7E0,2E0,3E0,2E1,1.4E2,4E0,2E0,3E0,8E0,6E0,3E0,4E0,9E0,1.2E1,1.7E1,4E0,5E0,8E0,7E0,1E0,1E0,9E0,4E0,2E0,5E0,1E0,2E0,6E0,1E0],"tree_param":{"num_deleted":"0","num_feature":"16","num_nodes":"71","size_leaf_vector":"0"}},{"base_weights":[4.97244E-1,3.424449E-1,1.5142269E0,1.8060076E-1,6.569334E-1,3.3153498E0,1.2220092E0,1.0362754E0,1.4970164E-1,3.0031385E0,5.41511E-1,5.5389816E-1,4.971685E0,2.66882E0,9.577572E-1,1.9780508E0,7.0874855E-2,7.278684E-1,1.09519325E-1,3.57513E0,6.4358187E-1,8.177395E-1,1.6138818E-2,3.597441E0,8.5059243E-1,5.544324E-1,1.7896284E0,8.469518E-2,1.4706939E-2,1.5483702E0,2.266339E-1,-8.694326E-2,2.757145E-1,2.0399413E0,4.811273E-1,5.957014E-1,-7.3016584E-1,8.9905506E-1,-3.6171296E-1,2.1982698E0,6.2709844E-1,-2.85815E-2,3.8547945E-1,4.9005587E-2,-2.4371354E-1,2.3664309E-1,1.3038565E0,8.306508E-1,3.566818E0,2.3441987E0,2.4787766E-1,-2.2251964E-2,1.3709246E0,-1.2149367E0,-2.1472053E-1,1.6469506E0,5.12645E-2,3.6471346E-1,-7.252262E-1,5.281483E-1,2.388599E0],"categories":[],"categories_nodes":[],"categories_segments":[],"categories_sizes":[],"default_left":[1,1,1,1,1,1,1,1,1,1,1,0,0,1,1,0,1,1,1,0,0,1,1,0,0,1,1,0,0,0,1,1,1,1,1,1,1,1,1,1,0,0,0,0,0,0,0,0,0,0,0,0,0,0,0,0,0,0,0,0,0],"id":5,"left_children":[1,3,5,7,9,11,13,15,17,19,21,-1,-1,23,25,-1,27,29,31,-1,-1,33,35,-1,-1,37,39,-1,-1,-1,41,43,45,47,49,51,53,55,57,59,-1,-1,-1,-1,-1,-1,-1,-1,-1,-1,-1,-1,-1,-1,-1,-1,-1,-1,-1,-1,-1],"loss_changes":[4.7497025E1,1.3420256E1,1.700142E1,4.5246744E0,2.2746197E1,2.0115635E1,1.1207535E1,5.31495E0,3.9162023E0,3.0976944E0,1.2612484E1,0E0,0E0,5.382263E0,9.74423E0,0E0,1.8594265E-3,4.1729884E0,5.313455E0,0E0,0E0,2.2468788E1,1.3843398E1,0E0,0E0,7.586861E0,3.3720436E0,0E0,0E0,0E0,3.3533618E-1,1.6103988E0,3.2264957E0,1.919447E1,1.9408718E1,8.653438E0,3.237349E0,1.06945715E1,2.1129591E0,9.6357346E-1,0E0,0E0,0E0,0E0,0E0,0E0,0E0,0E0,0E0,0E0,0E0,0E0,0E0,0E0,0E0,0E0,0E0,0E0,0E0,0E0,0E0],"parents":[2147483647,0,0,1,1,2,2,3,3,4,4,5,5,6,6,7,7,8,8,9,9,10,10,13,13,14,14,16,16,17,17,18,18,21,21,22,22,25,25,26,26,30,30,31,31,32,32,33,33,34,34,35,35,36,36,37,37,38,38,39,39],"right_children":[2,4,6,8,10,12,14,16,18,20,22,-1,-1,24,26,-1,28,30,32,-1,-1,34,36,-1,-1,38,40,-1,-1,-1,42,44,46,48,50,52,54,56,58,60,-1,-1,-1,-1,-1,-1,-1,-1,-1,-1,-1,-1,-1,-1,-1,-1,-1,-1,-1,-1,-1],"split_conditions":[4.5267856E-1,2.1E0,9.2857146E-1,1.1339285E0,2.6136365E-2,7.976785E1,5.958333E0,1.35E0,8.019481E-1,2.935E0,1.8042943E3,1.6616945E-1,1.4915055E0,5E-1,2.0555556E-1,5.9341526E-1,1.5E0,6.904762E-2,2.3777779E1,1.0725391E0,1.9307457E-1,2.9285714E-2,8.846154E-2,1.0792323E0,2.5517774E-1,1.3809524E-1,3E0,2.5408557E-2,4.412082E-3,4.645111E-1,1.225E0,1.5508928E1,2.005E0,1.7662337E-1,1.1547619E-1,1.9416207E3,2.2252747E-1,8.0625E-1,5E-1,6.458334E-1,1.8812954E-1,-8.57445E-3,1.1564384E-1,1.4701677E-2,-7.311407E-2,7.099293E-2,3.9115697E-1,2.4919525E-1,1.0700455E0,7.0325965E-1,7.43633E-2,-6.6755894E-3,4.1127738E-1,-3.6448103E-1,-6.441616E-2,4.940852E-1,1.537935E-2,1.0941404E-1,-2.1756788E-1,1.584445E-1,7.165797E-1],"split_indices":[10,0,14,15,10,5,15,0,14,0,2,0,0,1,11,0,0,6,5,0,0,11,8,0,0,7,3,0,0,0,3,5,0,10,10,2,6,6,1,6,0,0,0,0,0,0,0,0,0,0,0,0,0,0,0,0,0,0,0,0,0],"split_type":[0,0,0,0,0,0,0,0,0,0,0,0,0,0,0,0,0,0,0,0,0,0,0,0,0,0,0,0,0,0,0,0,0,0,0,0,0,0,0,0,0,0,0,0,0,0,0,0,0,0,0,0,0,0,0,0,0,0,0,0,0],"sum_hessian":[3.04E2,2.65E2,3.9E1,1.76E2,8.9E1,4E0,3.5E1,5E0,1.71E2,3E0,8.6E1,2E0,2E0,4E0,3.1E1,2E0,3E0,1E1,1.61E2,2E0,1E0,5.6E1,3E1,2E0,2E0,2.2E1,9E0,2E0,1E0,3E0,7E0,7.4E1,8.7E1,1.1E1,4.5E1,1.7E1,1.3E1,1.6E1,6E0,6E0,3E0,3E0,4E0,4E1,3.4E1,8.5E1,2E0,7E0,4E0,4E0,4.1E1,1E1,7E0,6E0,7E0,8E0,8E0,2E0,4E0,1E0,5E0],"tree_param":{"num_deleted":"0","num_feature":"16","num_nodes":"61","size_leaf_vector":"0"}},{"base_weights":[3.7886846E-1,2.4143863E-1,1.091942E0,9.1976583E-1,1.9559287E-1,2.6522799E0,8.9430565E-1,-3.527212E-2,1.6664922E0,1.6079897E-1,6.4664155E-1,4.4311854E-1,3.9773476E0,1.4281396E0,4.1011295E-1,-1.9689833E-1,2.9973766E-1,6.6435015E-1,2.3353357E0,5.0964123E-3,2.6766118E-1,9.526417E-2,1.1261699E0,-4.740107E-1,1.6533139E0,1.1456363E0,-1.5661173E-1,-3.6580318E-1,9.394091E-2,3.701071E-1,7.9499364E-2,-4.3944516E-3,1.1116447E0,5.470445E-1,2.6456475E0,8.2926536E-1,-5.115484E-2,2.3639398E0,2.3412572E-1,-3.244227E-1,1.8827786E-1,1.4841746E0,-8.4564365E-2,3.6647353E-1,2.086723E0,5.1367915E-1,1.5866541E0,-8.777032E-1,7.928789E-1,1.7557731E-1,-3.4665942E-2,-7.8311205E-2,7.171953E-2,1.5824407E0,5.706756E-2,-1.0028877E-1,1.0057299E0,3.2664266E-1,-2.2254847E-1,2.8938532E-2,2.3656787E-1,3.6554694E-1,1.609688E0,3.738755E-2,-1.642341E-1,5.1470995E-1,-1.8735433E-1,-8.43994E-2,2.2602246E0,2.0017251E-1,7.604616E-1,4.3871903E-1,1.7284973E0,-9.714369E-1,-6.3916504E-2,-2.4461198E-1,1.0065627E0],"categories":[],"categories_nodes":[],"categories_segments":[],"categories_sizes":[],"default_left":[1,1,1,1,1,1,1,1,1,1,1,0,0,1,1,1,1,1,1,1,1,1,1,0,1,1,1,0,1,0,0,1,0,0,0,1,1,0,1,0,1,1,1,1,1,1,1,1,1,0,0,0,0,0,0,0,0,0,0,0,0,0,0,0,0,0,0,0,0,0,0,0,0,0,0,0,0],"id":6,"left_children":[1,3,5,7,9,11,13,15,17,19,21,-1,-1,23,25,27,29,31,33,35,37,39,41,-1,43,45,47,-1,49,-1,-1,51,-1,-1,-1,53,55,-1,57,-1,59,61,63,65,67,69,71,73,75,-1,-1,-1,-1,-1,-1,-1,-1,-1,-1,-1,-1,-1,-1,-1,-1,-1,-1,-1,-1,-1,-1,-1,-1,-1,-1,-1,-1],"loss_changes":[2.9625622E1,7.812396E0,1.273864E1,1.1469213E1,3.6939058E0,1.2874008E1,1.104583E1,4.9218866E-1,4.4810066E0,3.758987E0,4.387534E0,0E0,0E0,9.778309E0,1.0600401E1,3.2910883E-1,1.707089E-2,1.5005143E0,1.3273506E0,4.353951E0,8.8667E0,4.1241124E-1,4.0265465E0,0E0,9.832111E0,2.250718E0,1.0965956E1,0E0,3.7583552E-2,0E0,0E0,2.2494735E-2,0E0,0E0,0E0,3.3992958E0,4.6706066E0,0E0,5.691957E0,0E0,5.471003E-2,3.9440346E-1,3.528794E-2,5.890179E-1,5.464466E0,3.1198418E-1,2.1863556E-1,6.2442255E-1,1.7980824E0,0E0,0E0,0E0,0E0,0E0,0E0,0E0,0E0,0E0,0E0,0E0,0E0,0E0,0E0,0E0,0E0,0E0,0E0,0E0,0E0,0E0,0E0,0E0,0E0,0E0,0E0,0E0,0E0],"parents":[2147483647,0,0,1,1,2,2,3,3,4,4,5,5,6,6,7,7,8,8,9,9,10,10,13,13,14,14,15,15,16,16,17,17,18,18,19,19,20,20,21,21,22,22,24,24,25,25,26,26,28,28,31,31,35,35,36,36,38,38,40,40,41,41,42,42,43,43,44,44,45,45,46,46,47,47,48,48],"right_children":[2,4,6,8,10,12,14,16,18,20,22,-1,-1,24,26,28,30,32,34,36,38,40,42,-1,44,46,48,-1,50,-1,-1,52,-1,-1,-1,54,56,-1,58,-1,60,62,64,66,68,70,72,74,76,-1,-1,-1,-1,-1,-1,-1,-1,-1,-1,-1,-1,-1,-1,-1,-1,-1,-1,-1,-1,-1,-1,-1,-1,-1,-1,-1,-1],"split_conditions":[3.7E0,5E-1,9.2857146E-1,1.74E0,4.6410257E-1,7.976785E1,5E-1,1.5550001E0,1.6783217E-1,3.3083336E1,1.635E0,1.3293557E-1,1.1932043E0,1.6514878E3,1.3616071E0,5E-1,1.645E0,5E-2,3E-1,1.1339285E0,1.7424243E-2,1.2116667E1,3.1E0,-1.4220321E-1,1.0384616E0,8.386818E1,1.8375E0,-1.0974096E-1,1.46E0,1.11032136E-1,2.384981E-2,2.295E0,3.3349344E-1,1.6411336E-1,7.936943E-1,1.35E0,2.815E0,7.0918196E-1,3.3541665E0,-9.732681E-2,1.29E0,3E-1,1.755E0,1.1E0,2.175E0,4.0950003E0,1.6396104E-1,4.2349997E0,1.7E0,5.2673195E-2,-1.0399783E-2,-2.3493363E-2,2.151586E-2,4.7473225E-1,1.7120268E-2,-3.0086633E-2,3.0171898E-1,9.79928E-2,-6.676454E-2,8.68156E-3,7.0970364E-2,1.0966409E-1,4.8290643E-1,1.1216265E-2,-4.927023E-2,1.5441298E-1,-5.62063E-2,-2.5319822E-2,6.780674E-1,6.0051758E-2,2.2813849E-1,1.3161571E-1,5.185492E-1,-2.914311E-1,-1.9174952E-2,-7.33836E-2,3.019688E-1],"split_indices":[15,3,14,0,12,5,1,0,8,5,0,0,0,2,14,1,0,7,3,15,10,5,3,0,14,5,14,0,0,0,0,0,0,0,0,0,0,0,15,0,0,4,0,4,0,0,11,0,4,0,0,0,0,0,0,0,0,0,0,0,0,0,0,0,0,0,0,0,0,0,0,0,0,0,0,0,0],"split_type":[0,0,0,0,0,0,0,0,0,0,0,0,0,0,0,0,0,0,0,0,0,0,0,0,0,0,0,0,0,0,0,0,0,0,0,0,0,0,0,0,0,0,0,0,0,0,0,0,0,0,0,0,0,0,0,0,0,0,0,0,0,0,0,0,0,0,0,0,0,0,0,0,0,0,0,0,0],"sum_hessian":[3.04E2,2.56E2,4.8E1,1.5E1,2.41E2,4E0,4.4E1,7E0,8E0,2.25E2,1.6E1,2E0,2E0,2E1,2.4E1,5E0,2E0,4E0,4E0,9.2E1,1.33E2,8E0,8E0,2E0,1.8E1,1E1,1.4E1,3E0,2E0,1E0,1E0,2E0,2E0,1E0,3E0,5E0,8.7E1,1E0,1.32E2,1E0,7E0,6E0,2E0,5E0,1.3E1,5E0,5E0,8E0,6E0,1E0,1E0,1E0,1E0,2E0,3E0,8.4E1,3E0,1.1E2,2.2E1,2E0,5E0,1E0,5E0,1E0,1E0,4E0,1E0,1E0,1.2E1,3E0,2E0,1E0,4E0,7E0,1E0,1E0,5E0],"tree_param":{"num_deleted":"0","num_feature":"16","num_nodes":"77","size_leaf_vector":"0"}},{"base_weights":[2.8549874E-1,1.9324538E-1,9.0975904E-1,7.2863215E-1,1.5848571E-1,7.472701E-1,2.6105363E0,-1.6263671E-2,1.3098027E0,1.7831029E-1,-3.9659014E-1,1.5689387E0,5.0324947E-1,3.3864088E0,5.293956E-1,-1.490734E-1,2.54777E-1,5.3134835E-1,1.8262964E0,1.00829996E-1,4.307311E-1,-5.907586E-1,1.8866634E-1,3.0486906E-1,1.9394838E0,2.5162232E-1,1.1637713E0,-2.8349745E-1,7.984978E-2,3.1459105E-1,6.757447E-2,-3.7353039E-3,8.893159E-1,4.6498775E-1,2.0503767E0,1.6182527E-1,-2.3917255E-1,7.9244024E-1,1.807299E-1,-6.6530526E-1,-7.1739495E-2,7.736546E-2,3.7993813E-1,2.1918588E0,3.3880424E-1,4.9053437E-1,-2.5765452E-1,5.42668E-1,2.018054E0,-3.2798165E-1,-7.50224E-2,1.492407E-1,-2.9466033E-2,-6.656456E-2,6.0961604E-2,7.796879E-2,4.7029433E-1,9.5976925E-1,-3.1626937E-1,-3.6600897E-1,1.1345655E0,-4.099331E-2,7.391373E-1,2.5126352E0,4.543767E-1,1.9630851E-1,1.3241348E0,1.40728E-1,-6.9121903E-1,7.0334923E-1,1.47537E-1],"categories":[],"categories_nodes":[],"categories_segments":[],"categories_sizes":[],"default_left":[1,1,1,1,1,1,1,1,1,1,1,1,1,0,0,1,1,1,1,1,1,1,0,1,1,1,1,1,1,0,0,1,0,0,0,1,1,1,1,0,0,0,0,1,0,1,1,1,0,0,0,0,0,0,0,0,0,0,0,0,0,0,0,0,0,0,0,0,0,0,0],"id":7,"left_children":[1,3,5,7,9,11,13,15,17,19,21,23,25,-1,-1,27,29,31,33,35,37,39,-1,41,43,45,47,49,51,-1,-1,53,-1,-1,-1,55,57,59,61,-1,-1,-1,-1,63,-1,65,67,69,-1,-1,-1,-1,-1,-1,-1,-1,-1,-1,-1,-1,-1,-1,-1,-1,-1,-1,-1,-1,-1,-1,-1],"loss_changes":[1.7389181E1,4.8533545E0,8.827164E0,6.9478855E0,2.843761E0,6.6290855E0,3.0513515E0,3.2595518E-1,2.648201E0,4.7286334E0,1.1342016E0,3.1558704E0,4.693325E0,0E0,0E0,2.0727389E-1,1.2333706E-2,9.61035E-1,5.718117E-1,3.937551E0,5.011162E0,2.23109E-1,0E0,2.1841347E-2,1.6812172E0,2.9248528E0,3.1496487E0,1.2489438E-2,2.7154109E-2,0E0,0E0,1.6252458E-2,0E0,0E0,0E0,4.1020722E0,2.9841495E0,9.53096E0,4.363715E0,0E0,0E0,0E0,0E0,1.6450329E0,0E0,3.6643295E0,1.4790701E0,2.7717078E-1,0E0,0E0,0E0,0E0,0E0,0E0,0E0,0E0,0E0,0E0,0E0,0E0,0E0,0E0,0E0,0E0,0E0,0E0,0E0,0E0,0E0,0E0,0E0],"parents":[2147483647,0,0,1,1,2,2,3,3,4,4,5,5,6,6,7,7,8,8,9,9,10,10,11,11,12,12,15,15,16,16,17,17,18,18,19,19,20,20,21,21,23,23,24,24,25,25,26,26,27,27,28,28,31,31,35,35,36,36,37,37,38,38,43,43,45,45,46,46,47,47],"right_children":[2,4,6,8,10,12,14,16,18,20,22,24,26,-1,-1,28,30,32,34,36,38,40,-1,42,44,46,48,50,52,-1,-1,54,-1,-1,-1,56,58,60,62,-1,-1,-1,-1,64,-1,66,68,70,-1,-1,-1,-1,-1,-1,-1,-1,-1,-1,-1,-1,-1,-1,-1,-1,-1,-1,-1,-1,-1,-1,-1],"split_conditions":[4.6458334E-1,5E-1,9.253968E-1,1.74E0,2.9285717E-1,5.958333E0,4.1E0,1.5550001E0,1.6783217E-1,1.0555556E-1,8.012821E-2,1.7133533E3,2.0555556E-1,1.0159227E0,1.5881868E-1,5E-1,1.645E0,5E-2,3E-1,7.417583E-2,1.3693182E-1,8.397917E1,5.6599904E-2,4.035E0,4.2250004E0,1.7E0,1.0741758E0,5.211111E1,1.46E0,9.437732E-2,2.0272342E-2,2.295E0,2.6679477E-1,1.3949633E-1,6.15113E-1,2.54E0,1.6341722E3,8.8194445E-2,1.8505463E3,-1.9959159E-1,-2.152185E-2,2.3209639E-2,1.1398144E-1,2.5E0,1.01641275E-1,1.5E0,1.7395942E3,3E0,6.0541624E-1,-9.83945E-2,-2.2506721E-2,4.477221E-2,-8.83981E-3,-1.9969368E-2,1.8288482E-2,2.3390638E-2,1.410883E-1,2.879308E-1,-9.488081E-2,-1.0980269E-1,3.4036964E-1,-1.22979935E-2,2.217412E-1,7.537906E-1,1.3631302E-1,5.8892556E-2,3.9724046E-1,4.2218402E-2,-2.0736572E-1,2.1100478E-1,4.4261098E-2],"split_indices":[10,3,10,0,7,15,0,0,8,7,8,2,11,0,0,1,0,7,3,7,10,5,0,0,0,4,14,5,0,0,0,0,0,0,0,0,2,10,2,0,0,0,0,3,0,4,2,3,0,0,0,0,0,0,0,0,0,0,0,0,0,0,0,0,0,0,0,0,0,0,0],"split_type":[0,0,0,0,0,0,0,0,0,0,0,0,0,0,0,0,0,0,0,0,0,0,0,0,0,0,0,0,0,0,0,0,0,0,0,0,0,0,0,0,0,0,0,0,0,0,0,0,0,0,0,0,0,0,0,0,0,0,0,0,0,0,0,0,0,0,0,0,0,0,0],"sum_hessian":[3.04E2,2.66E2,3.8E1,1.5E1,2.51E2,3.6E1,2E0,7E0,8E0,2.43E2,8E0,7E0,2.9E1,1E0,1E0,5E0,2E0,4E0,4E0,1.87E2,5.6E1,6E0,2E0,2E0,5E0,2.2E1,7E0,3E0,2E0,1E0,1E0,2E0,2E0,1E0,3E0,1.59E2,2.8E1,2.2E1,3.4E1,5E0,1E0,1E0,1E0,4E0,1E0,1.5E1,7E0,5E0,2E0,2E0,1E0,1E0,1E0,1E0,1E0,1.26E2,3.3E1,1E0,2.7E1,5E0,1.7E1,2.5E1,9E0,3E0,1E0,1.2E1,3E0,4E0,3E0,3E0,2E0],"tree_param":{"num_deleted":"0","num_feature":"16","num_nodes":"71","size_leaf_vector":"0"}},{"base_weights":[2.1669427E-1,1.2967756E-1,6.916014E-1,5.7563025E-1,9.990329E-2,5.744088E-1,2.2189558E0,-7.674448E-3,1.0301644E0,2.0297587E-1,-3.143514E-3,1.0317334E0,3.563791E-1,2.8784475E0,4.4998622E-1,-1.1851284E-1,2.1656048E-1,4.249667E-1,1.4293293E0,-5.2204105E-4,4.42822E-1,-1.16584286E-1,3.0977327E-1,4.655184E-1,2.3308911E0,6.7361486E-1,-4.8062436E-2,-2.286735E-1,6.787232E-2,2.674024E-1,5.7438314E-2,-3.1749804E-3,7.114528E-1,3.952396E-1,1.5890417E0,4.615228E-2,-7.4718064E-1,6.876296E-1,2.0651307E-3,-1.5260327E-1,7.0497936E-1,3.7491822E-1,-8.874326E-1,7.891091E-1,-2.9804268E-1,1.0556537E0,1.7428112E-1,1.1470261E0,-2.1535634E-1,-2.623853E-1,-6.376904E-2,1.268546E-1,-2.504611E-2,-5.657983E-2,5.1817358E-2,-7.236171E-3,1.7048123E0,-9.292193E-1,-1.0053229E-1,1.7826642E-1,1.3131919E0,1.5575604E0,-2.4364808E-1,-5.1263653E-2,-3.6792874E-1,1.3145204E0,6.3625574E-2,1.5370353E-1,6.483582E-1,6.576061E-2,8.8305026E-1,-1.1273531E-1,-4.269824E-1,1.2436557E0,-3.181818E-1,-1.4111264E-1,4.5481867E-1,2.9668006E-1,-5.327854E-1],"categories":[],"categories_nodes":[],"categories_segments":[],"categories_sizes":[],"default_left":[1,1,1,1,1,1,1,1,1,1,1,1,1,0,0,1,1,1,1,1,1,1,1,1,0,1,1,1,1,0,0,1,0,0,0,1,1,1,1,1,1,1,0,1,1,1,1,0,1,0,0,0,0,0,0,0,0,0,0,0,0,0,0,0,0,0,0,0,0,0,0,0,0,0,0,0,0,0,0],"id":8,"left_children":[1,3,5,7,9,11,13,15,17,19,21,23,25,-1,-1,27,29,31,33,35,37,39,41,43,-1,45,47,49,51,-1,-1,53,-1,-1,-1,55,57,59,61,63,65,67,-1,69,71,73,75,-1,77,-1,-1,-1,-1,-1,-1,-1,-1,-1,-1,-1,-1,-1,-1,-1,-1,-1,-1,-1,-1,-1,-1,-1,-1,-1,-1,-1,-1,-1,-1],"loss_changes":[1.2514396E1,3.3814726E0,7.138157E0,4.250016E0,2.5922353E0,4.119278E0,2.2046022E0,2.244959E-1,1.5667458E0,5.9548306E0,4.4023094E0,9.213364E0,4.1380816E0,0E0,0E0,1.3871449E-1,8.911103E-3,6.15542E-1,1.9773293E-1,2.3694193E0,6.0410156E0,2.8004434E0,2.9064481E0,2.9530823E0,0E0,3.2497873E0,3.2459846E0,5.5048466E-3,1.9618835E-2,0E0,0E0,1.1742389E-2,0E0,0E0,0E0,5.6797466E0,3.774433E-1,1.1236881E1,8.405817E0,1.9013867E0,1.4800886E0,1.8359914E0,0E0,4.8554707E-1,4.7437936E-2,2.9785461E0,8.604988E-1,0E0,2.4335604E0,0E0,0E0,0E0,0E0,0E0,0E0,0E0,0E0,0E0,0E0,0E0,0E0,0E0,0E0,0E0,0E0,0E0,0E0,0E0,0E0,0E0,0E0,0E0,0E0,0E0,0E0,0E0,0E0,0E0,0E0],"parents":[2147483647,0,0,1,1,2,2,3,3,4,4,5,5,6,6,7,7,8,8,9,9,10,10,11,11,12,12,15,15,16,16,17,17,18,18,19,19,20,20,21,21,22,22,23,23,25,25,26,26,27,27,28,28,31,31,35,35,36,36,37,37,38,38,39,39,40,40,41,41,43,43,44,44,45,45,46,46,48,48],"right_children":[2,4,6,8,10,12,14,16,18,20,22,24,26,-1,-1,28,30,32,34,36,38,40,42,44,-1,46,48,50,52,-1,-1,54,-1,-1,-1,56,58,60,62,64,66,68,-1,70,72,74,76,-1,78,-1,-1,-1,-1,-1,-1,-1,-1,-1,-1,-1,-1,-1,-1,-1,-1,-1,-1,-1,-1,-1,-1,-1,-1,-1,-1,-1,-1,-1,-1],"split_conditions":[3.8090909E0,5E-1,9.253968E-1,1.74E0,3.603896E-2,5.958333E0,4.1E0,1.5550001E0,1.6783217E-1,1.846591E-2,1.8458218E3,1.1339286E-1,1.3428571E0,8.635343E-1,1.3499588E-1,5E-1,1.645E0,5E-2,3E-1,2.85E0,1.8129951E3,2.6785713E-1,2.0450645E3,2.8636366E-1,6.992674E-1,2.325E0,2.915E0,5.211111E1,1.46E0,8.022073E-2,1.7231494E-2,2.295E0,2.1343584E-1,1.18571885E-1,4.7671252E-1,2.815E0,5.4783333E1,8.391608E-2,3.7857145E-2,1.761804E3,1.6800001E0,1.9649999E0,-2.6622978E-1,7.872619E1,2.97E0,4.2349997E0,4.1549997E0,3.4410784E-1,6.2539682E0,-7.871559E-2,-1.9130714E-2,3.805638E-2,-7.513833E-3,-1.697395E-2,1.5545208E-2,-2.1708515E-3,5.1144373E-1,-2.787658E-1,-3.015969E-2,5.347993E-2,3.9395759E-1,4.6726814E-1,-7.309443E-2,-1.5379096E-2,-1.1037863E-1,3.9435613E-1,1.9087672E-2,4.611106E-2,1.9450748E-1,1.9728184E-2,2.6491508E-1,-3.3820596E-2,-1.2809473E-1,3.730967E-1,-9.545455E-2,-4.2333793E-2,1.3644561E-1,8.9004025E-2,-1.5983564E-1],"split_indices":[15,3,10,0,11,15,0,0,8,11,2,11,14,0,0,1,0,7,3,0,2,8,2,7,0,3,0,5,0,0,0,0,0,0,0,0,5,8,10,2,0,0,0,5,0,0,0,0,15,0,0,0,0,0,0,0,0,0,0,0,0,0,0,0,0,0,0,0,0,0,0,0,0,0,0,0,0,0,0],"split_type":[0,0,0,0,0,0,0,0,0,0,0,0,0,0,0,0,0,0,0,0,0,0,0,0,0,0,0,0,0,0,0,0,0,0,0,0,0,0,0,0,0,0,0,0,0,0,0,0,0,0,0,0,0,0,0,0,0,0,0,0,0,0,0,0,0,0,0,0,0,0,0,0,0,0,0,0,0,0,0],"sum_hessian":[3.04E2,2.58E2,4.6E1,1.5E1,2.43E2,4.4E1,2E0,7E0,8E0,1.21E2,1.22E2,1.3E1,3.1E1,1E0,1E0,5E0,2E0,4E0,4E0,6.6E1,5.5E1,9E1,3.2E1,1E1,3E0,1.7E1,1.4E1,3E0,2E0,1E0,1E0,2E0,2E0,1E0,3E0,6.3E1,3E0,3.5E1,2E1,8.7E1,3E0,3.1E1,1E0,7E0,3E0,9E0,8E0,1E0,1.3E1,2E0,1E0,1E0,1E0,1E0,1E0,6.2E1,1E0,2E0,1E0,2E1,1.5E1,2E0,1.8E1,6E1,2.7E1,1E0,2E0,1.8E1,1.3E1,1E0,6E0,2E0,1E0,8E0,1E0,4E0,4E0,5E0,8E0],"tree_param":{"num_deleted":"0","num_feature":"16","num_nodes":"79","size_leaf_vector":"0"}},{"base_weights":[1.6679099E-1,1.4921755E-1,1.8861122E0,9.904253E-2,4.3468675E-1,2.44668E0,3.8248825E-1,5.334676E-1,7.762259E-2,1.0479412E0,3.318314E-1,1.0856422E0,1.2167497E-1,4.5528126E-1,5.1355805E-2,1.6395531E0,-9.018823E-2,-6.4603485E-2,4.8443097E-1,1.2070003E0,3.001051E-1,-7.237086E-2,2.5257665E-1,-1.6035438E-3,8.1081426E-1,-6.6483274E-2,1.2464859E-1,2.378491E-1,-4.066976E-1,1.2663552E0,2.687653E-1,-2.6869376E-3,-1.4071131E-1,-9.417627E-2,1.8407643E-1,3.3987817E-1,1.1195875E0,-1.06378095E-2,-5.121832E-1,2.6564282E-1,-8.298112E-2,2.962346E-1,1.20001316E-1,-5.226187E-1,-1.16570234E-1,1.489985E0,5.460637E-1,4.0089533E-2,7.211056E-1],"categories":[],"categories_nodes":[],"categories_segments":[],"categories_sizes":[],"default_left":[1,1,1,1,1,0,0,1,1,1,1,1,1,1,1,0,0,1,1,0,0,1,0,1,1,1,1,1,1,1,1,0,0,0,0,0,0,0,0,0,0,0,0,0,0,0,0,0,0],"id":9,"left_children":[1,3,5,7,9,-1,-1,11,13,15,17,19,21,23,25,-1,-1,27,29,-1,-1,31,-1,33,35,37,39,41,43,45,47,-1,-1,-1,-1,-1,-1,-1,-1,-1,-1,-1,-1,-1,-1,-1,-1,-1,-1],"loss_changes":[8.93395E0,4.296945E0,1.592824E0,2.3686779E0,2.4907026E0,0E0,0E0,2.596482E0,2.436749E0,4.1878533E0,2.451127E0,1.14429E-1,2.2148657E-1,2.6003022E0,2.0206506E0,0E0,0E0,1.3383397E0,4.5500407E0,0E0,0E0,1.8670838E-2,0E0,1.5484685E-1,9.281883E-1,2.2346802E0,4.237584E0,1.2615681E-2,1.4086962E-1,1.5284538E-1,2.4536338E0,0E0,0E0,0E0,0E0,0E0,0E0,0E0,0E0,0E0,0E0,0E0,0E0,0E0,0E0,0E0,0E0,0E0,0E0],"parents":[2147483647,0,0,1,1,2,2,3,3,4,4,7,7,8,8,9,9,10,10,11,11,12,12,13,13,14,14,17,17,18,18,21,21,23,23,24,24,25,25,26,26,27,27,28,28,29,29,30,30],"right_children":[2,4,6,8,10,-1,-1,12,14,16,18,20,22,24,26,-1,-1,28,30,-1,-1,32,-1,34,36,38,40,42,44,46,48,-1,-1,-1,-1,-1,-1,-1,-1,-1,-1,-1,-1,-1,-1,-1,-1,-1,-1],"split_conditions":[9.253968E-1,3.8090909E0,4.1E0,8.090909E-1,2.89E0,7.34004E-1,1.1474648E-1,6.904762E-2,5E-1,3.0952382E-1,1.7083633E3,5E-1,1.225E0,1.74E0,1.449495E0,4.9186593E-1,-2.7056469E-2,8.4246155E1,1.7152007E3,3.621001E-1,9.0031534E-2,1.65E0,7.5773E-2,1.5550001E0,1.6783217E-1,3.1750002E0,1.2928572E0,8.3333336E-2,1.6736758E3,1.7E0,3.0384618E-1,-8.060813E-4,-4.2213395E-2,-2.8252883E-2,5.5222932E-2,1.0196345E-1,3.358763E-1,-3.191343E-3,-1.5365496E-1,7.969285E-2,-2.4894336E-2,8.8870384E-2,3.6000397E-2,-1.5678562E-1,-3.4971073E-2,4.4699553E-1,1.6381912E-1,1.202686E-2,2.1633168E-1],"split_indices":[10,15,0,14,0,0,0,6,3,7,2,1,3,0,14,0,0,5,2,0,0,0,0,0,8,0,13,7,2,4,8,0,0,0,0,0,0,0,0,0,0,0,0,0,0,0,0,0,0],"split_type":[0,0,0,0,0,0,0,0,0,0,0,0,0,0,0,0,0,0,0,0,0,0,0,0,0,0,0,0,0,0,0,0,0,0,0,0,0,0,0,0,0,0,0,0,0,0,0,0,0],"sum_hessian":[3.04E2,3.02E2,2E0,2.58E2,4.4E1,1E0,1E0,1.1E1,2.47E2,5E0,3.9E1,4E0,7E0,1.5E1,2.32E2,3E0,2E0,1.1E1,2.8E1,3E0,1E0,3E0,4E0,7E0,8E0,8.9E1,1.43E2,6E0,5E0,5E0,2.3E1,2E0,1E0,5E0,2E0,4E0,4E0,8E1,9E0,8.5E1,5.8E1,3E0,3E0,3E0,2E0,3E0,2E0,1.6E1,7E0],"tree_param":{"num_deleted":"0","num_feature":"16","num_nodes":"49","size_leaf_vector":"0"}},{"base_weights":[1.2637171E-1,1.11332625E-1,1.6031951E0,-2.221777E-3,1.9108836E-1,2.0796776E0,3.2511497E-1,5.6524295E-1,-3.0342162E-2,1.2939798E0,1.7120335E-1,1.0666345E0,4.7888458E-2,-1.606306E-1,8.820584E-2,2.7564543E-1,1.6653242E0,2.8209054E-1,-6.524698E-2,-8.199334E-3,6.93175E-2,-8.116703E-2,-5.3393906E-1,7.115815E-1,1.14500495E-2,2.4614395E-1,2.2798681E0,9.064684E-1,-1.3601762E-1,-1.2954448E-1,3.7046352E-1,-6.1864626E-1,1.1421299E-1,1.3110055E0,-6.573781E-2,-3.2921907E-1,8.9281514E-2,3.8037947E-1,1.694825E-2,1.2544842E-1,1.6247642E0,-3.3762863E-1,1.9687727E-1],"categories":[],"categories_nodes":[],"categories_segments":[],"categories_sizes":[],"default_left":[1,1,1,1,1,0,0,1,1,1,1,0,1,1,1,0,0,1,1,0,0,1,1,1,1,1,0,1,1,0,0,0,0,0,0,0,0,0,0,0,0,0,0],"id":10,"left_children":[1,3,5,7,9,-1,-1,11,13,15,17,-1,19,21,23,-1,-1,25,27,-1,-1,29,31,33,35,37,-1,39,41,-1,-1,-1,-1,-1,-1,-1,-1,-1,-1,-1,-1,-1,-1],"loss_changes":[6.5955825E0,2.7445786E0,1.150814E0,2.0277736E0,3.6821866E0,0E0,0E0,1.5053036E0,1.883066E0,6.7541933E-1,4.6330056E0,0E0,5.375988E-3,1.6771983E0,3.0541046E0,0E0,0E0,8.056422E0,4.043124E0,0E0,0E0,1.1185796E0,6.19689E-1,3.347789E0,1.5672501E0,3.6547313E0,0E0,2.0401895E0,3.6906965E0,0E0,0E0,0E0,0E0,0E0,0E0,0E0,0E0,0E0,0E0,0E0,0E0,0E0,0E0],"parents":[2147483647,0,0,1,1,2,2,3,3,4,4,7,7,8,8,9,9,10,10,12,12,13,13,14,14,17,17,18,18,21,21,22,22,23,23,24,24,25,25,27,27,28,28],"right_children":[2,4,6,8,10,-1,-1,12,14,16,18,-1,20,22,24,-1,-1,26,28,-1,-1,30,32,34,36,38,-1,40,42,-1,-1,-1,-1,-1,-1,-1,-1,-1,-1,-1,-1,-1,-1],"split_conditions":[9.253968E-1,1.655E0,4.1E0,1.1339285E0,1.7424243E-2,6.239033E-1,9.753449E-2,1.35E0,1.0954546E0,2.38E0,1.8042036E3,3.1999037E-1,1.7363289E3,2.0714286E-1,1.1547619E0,8.269364E-2,4.9959728E-1,1.8011113E3,7.417583E-2,-2.4598003E-3,2.079525E-2,2.215909E-1,2.361111E-1,1.3809524E-1,1.225E0,1.7E0,6.8396044E-1,2.4E0,1.125E-1,-3.8863346E-2,1.1113906E-1,-1.8559389E-1,3.4263898E-2,3.9330167E-1,-1.9721344E-2,-9.876572E-2,2.6784455E-2,1.14113845E-1,5.084475E-3,3.763453E-2,4.874293E-1,-1.01288594E-1,5.9063185E-2],"split_indices":[10,0,0,15,10,0,0,0,13,0,2,0,2,6,13,0,0,2,12,0,0,10,8,10,3,4,0,0,7,0,0,0,0,0,0,0,0,0,0,0,0,0,0],"split_type":[0,0,0,0,0,0,0,0,0,0,0,0,0,0,0,0,0,0,0,0,0,0,0,0,0,0,0,0,0,0,0,0,0,0,0,0,0,0,0,0,0,0,0],"sum_hessian":[3.04E2,3.02E2,2E0,1.25E2,1.77E2,1E0,1E0,5E0,1.2E2,2E0,1.75E2,2E0,3E0,5.7E1,6.3E1,1E0,1E0,1.19E2,5.6E1,1E0,2E0,4.8E1,9E0,6E0,5.7E1,1.18E2,1E0,3E0,5.3E1,4.4E1,4E0,8E0,1E0,3E0,3E0,1E1,4.7E1,7.4E1,4.4E1,2E0,1E0,3.3E1,2E1],"tree_param":{"num_deleted":"0","num_feature":"16","num_nodes":"43","size_leaf_vector":"0"}},{"base_weights":[9.879002E-2,8.594986E-2,1.3627157E0,2.8153306E-2,1.871006E-1,1.767726E0,2.7634764E-1,6.481534E-2,-4.13668E-1,1.4665929E0,1.3752052E-1,4.116573E-2,7.437931E-1,-1.1393295E-1,-8.442818E-1,1.8814849E0,1.10958576E-1,9.761854E-1,8.683905E-2,-6.8615146E-2,1.3015051E-1,1.0123959E0,-2.9961026E-1,7.127091E-2,-2.034876E-1,-9.666978E-1,-1.1610091E-1,1.0657212E0,2.6425314E-1,-1.5931377E-1,2.5489774E-1,-1.766147E-2,-5.186213E-1,4.129467E-2,5.178348E-1,-7.159233E-3,9.9800706E-2,-2.9954046E-1,2.4429718E-2,7.3655146E-1,-2.2252081E-1,1.0390939E0,1.5045644E-1],"categories":[],"categories_nodes":[],"categories_segments":[],"categories_sizes":[],"default_left":[1,1,1,1,1,0,0,1,1,1,1,1,1,1,1,0,0,1,1,1,1,0,0,1,1,0,0,0,0,1,1,0,0,0,0,0,0,0,0,0,0,0,0],"id":11,"left_children":[1,3,5,7,9,-1,-1,11,13,15,17,19,21,23,25,-1,-1,27,29,31,33,-1,-1,35,37,-1,-1,-1,-1,39,41,-1,-1,-1,-1,-1,-1,-1,-1,-1,-1,-1,-1],"loss_changes":[4.8327208E0,1.7661204E0,8.314638E-1,3.1692376E0,6.7764215E0,0E0,0E0,2.8597422E0,1.8398588E0,2.0410013E0,4.4632387E0,1.718475E0,1.9848897E0,1.8036143E-1,4.226117E-1,0E0,0E0,1.0084057E-1,4.2601566E0,1.8022684E0,3.3200731E0,0E0,0E0,9.66488E-3,1.6056246E-1,0E0,0E0,0E0,0E0,2.542148E0,4.8397107E0,0E0,0E0,0E0,0E0,0E0,0E0,0E0,0E0,0E0,0E0,0E0,0E0],"parents":[2147483647,0,0,1,1,2,2,3,3,4,4,7,7,8,8,9,9,10,10,11,11,12,12,13,13,14,14,17,17,18,18,19,19,20,20,23,23,24,24,29,29,30,30],"right_children":[2,4,6,8,10,-1,-1,12,14,16,18,20,22,24,26,-1,-1,28,30,32,34,-1,-1,36,38,-1,-1,-1,-1,40,42,-1,-1,-1,-1,-1,-1,-1,-1,-1,-1,-1,-1],"split_conditions":[9.253968E-1,2.56E0,4.1E0,3.3541665E0,2.6136365E-2,5.303178E-1,8.2904294E-2,9.166667E-2,2.06E0,2.935E0,2.625E0,1.0954546E0,1.8E0,1.8681319E-1,5E-1,5.644455E-1,3.3287574E-2,2.0779222E-1,2.21875E-1,2.0714286E-1,5.2098213E1,3.0371878E-1,-8.988308E-2,1.575E0,2.4000001E-1,-2.9000935E-1,-3.4830272E-2,3.1971636E-1,7.927594E-2,6.619318E-1,2.4920636E-1,-5.2984413E-3,-1.555864E-1,1.2388402E-2,1.5535045E-1,-2.14777E-3,2.9940212E-2,-8.986214E-2,7.328916E-3,2.2096545E-1,-6.675625E-2,3.1172818E-1,4.5136936E-2],"split_indices":[10,0,0,15,10,0,0,11,0,0,0,13,3,12,1,0,0,8,10,8,5,0,0,0,10,0,0,0,0,13,10,0,0,0,0,0,0,0,0,0,0,0,0],"split_type":[0,0,0,0,0,0,0,0,0,0,0,0,0,0,0,0,0,0,0,0,0,0,0,0,0,0,0,0,0,0,0,0,0,0,0,0,0,0,0,0,0,0,0],"sum_hessian":[3.04E2,3.02E2,2E0,1.93E2,1.09E2,1E0,1E0,1.79E2,1.4E1,3E0,1.06E2,1.74E2,5E0,9E0,5E0,2E0,1E0,5E0,1.01E2,7.8E1,9.6E1,4E0,1E0,3E0,6E0,4E0,1E0,4E0,1E0,4.1E1,6E1,7.1E1,7E0,7.9E1,1.7E1,1E0,2E0,4E0,2E0,2E0,3.9E1,6E0,5.4E1],"tree_param":{"num_deleted":"0","num_feature":"16","num_nodes":"43","size_leaf_vector":"0"}},{"base_weights":[7.558623E-2,6.461675E-2,1.1583085E0,4.3725517E-2,3.0565542E-1,1.5025673E0,2.3489547E-1,2.0922838E-2,2.860823E-1,9.995084E-1,1.9714567E-1,2.1082175E-1,-7.99451E-3,4.9418613E-1,-1.9189861E-1,-3.1591896E-2,3.9039296E-1,-1.9725176E-2,4.7141987E-1,-1.9061627E-2,8.13637E-1,1.549122E-1,7.7855045E-1,-4.125732E-1,1.3191926E-1,-3.0435994E-1,2.6120901E-2,5.4637295E-1,1.433508E-1,1.124479E0,-1.4576313E-1,1.6953716E-1,9.463015E-1,4.976362E-3,-4.4014114E-1,-7.70694E-2,1.2975249E0,6.599531E-1,-8.3664216E-2,8.793941E-1,-1.40993595E-2,1.8023746E-1,-6.5176487E-3,1.0196611E-1,-2.0950777E-2,1.5734243E-1,5.8498764E-1,4.105382E-2,3.2741785E-1],"categories":[],"categories_nodes":[],"categories_segments":[],"categories_sizes":[],"default_left":[1,1,1,1,1,0,0,1,1,0,1,1,1,1,1,1,1,1,1,1,1,1,1,0,1,0,1,1,1,0,0,0,0,0,0,0,0,0,0,0,0,0,0,0,0,0,0,0,0],"id":12,"left_children":[1,3,5,7,9,-1,-1,11,13,-1,15,17,19,21,23,25,27,29,31,33,35,37,39,-1,41,-1,43,45,47,-1,-1,-1,-1,-1,-1,-1,-1,-1,-1,-1,-1,-1,-1,-1,-1,-1,-1,-1,-1],"loss_changes":[3.5476096E0,1.5124199E0,6.007328E-1,1.5414017E0,1.6099067E0,0E0,0E0,1.4129683E0,2.4821053E0,0E0,9.847974E-1,2.052022E0,2.0523622E0,1.5195088E0,6.2609327E-1,1.8111444E-1,3.8408077E-1,2.9039578E0,2.1333036E0,2.249253E0,1.3930057E0,1.139632E0,7.3180246E-1,0E0,2.7930804E-2,0E0,3.783788E-2,1.3112545E-2,9.953527E-2,0E0,0E0,0E0,0E0,0E0,0E0,0E0,0E0,0E0,0E0,0E0,0E0,0E0,0E0,0E0,0E0,0E0,0E0,0E0,0E0],"parents":[2147483647,0,0,1,1,2,2,3,3,4,4,7,7,8,8,10,10,11,11,12,12,13,13,14,14,15,15,16,16,17,17,18,18,19,19,20,20,21,21,22,22,24,24,26,26,27,27,28,28],"right_children":[2,4,6,8,10,-1,-1,12,14,-1,16,18,20,22,24,26,28,30,32,34,36,38,40,-1,42,-1,44,46,48,-1,-1,-1,-1,-1,-1,-1,-1,-1,-1,-1,-1,-1,-1,-1,-1,-1,-1,-1,-1],"split_conditions":[9.253968E-1,4.6410257E-1,4.1E0,4.145E0,4.8333335E-1,4.507702E-1,7.046864E-2,1.6611682E3,8.0625E-1,2.9985252E-1,1.865E0,2.2649573E-1,2.2447553E-1,1.03125006E-1,1.0416667E-1,1.2116667E1,5.4375E0,1.2266666E1,1.650731E3,4.0150003E0,4.12E0,1.7171717E-1,2.361111E-1,-1.2377196E-1,5E-1,-9.130798E-2,5E-1,1.3E0,4.225E0,3.3734372E-1,-4.372894E-2,5.086115E-2,2.8389046E-1,1.4929087E-3,-1.3204235E-1,-2.312082E-2,3.892575E-1,1.9798595E-1,-2.5099266E-2,2.6381823E-1,-4.229808E-3,5.407124E-2,-1.9552947E-3,3.0589836E-2,-6.2852334E-3,4.7202732E-2,1.754963E-1,1.2316147E-2,9.822536E-2],"split_indices":[10,12,0,0,12,0,0,2,6,0,0,12,11,11,7,5,15,5,2,0,0,10,7,0,1,0,4,3,0,0,0,0,0,0,0,0,0,0,0,0,0,0,0,0,0,0,0,0,0],"split_type":[0,0,0,0,0,0,0,0,0,0,0,0,0,0,0,0,0,0,0,0,0,0,0,0,0,0,0,0,0,0,0,0,0,0,0,0,0,0,0,0,0,0,0,0,0,0,0,0,0],"sum_hessian":[3.04E2,3.02E2,2E0,2.79E2,2.3E1,1E0,1E0,2.56E2,2.3E1,2E0,2.1E1,3.3E1,2.23E2,1.6E1,7E0,1E1,1.1E1,1.8E1,1.5E1,2.21E2,2E0,8E0,8E0,4E0,3E0,1E0,9E0,6E0,5E0,1E0,1.7E1,1E1,5E0,2.1E2,1.1E1,1E0,1E0,2E0,6E0,7E0,1E0,2E0,1E0,3E0,6E0,1E0,5E0,4E0,1E0],"tree_param":{"num_deleted":"0","num_feature":"16","num_nodes":"49","size_leaf_vector":"0"}},{"base_weights":[6.0491033E-2,5.114217E-2,9.845626E-1,2.541455E-2,1.9808242E-1,1.2771826E0,1.9966125E-1,4.8106145E-2,-1.7134677E-1,4.1584045E-1,7.242377E-3,6.9622084E-2,-2.1275769E-1,-3.322601E-1,2.5235486E-1,1.4314654E-1,7.6352715E-1,2.4886383E-1,-2.0037903E-1,1.7752232E-2,5.5042535E-1,6.328945E-2,-4.3992436E-1,-7.58696E-2,-4.9686462E-1,-2.3844909E-2,5.3451586E-1,-2.6393121E-2,7.170765E-1,1.8646479E-2,9.7368646E-1,-1.1701915E-1,3.8382694E-1,-4.9147436E-1,2.6966047E-1,4.6198796E-3,6.469502E-1,8.582248E-1,-5.7026863E-2,1.8995306E-1,-7.603204E-2,-5.5223954E-1,6.224195E-3,-1.5685531E-1,1.3838692E-1,-1.8709879E-1,-6.9139755E-1,9.280932E-2,-2.4523091E-1,1.1265906E-1,-1.6104645E-1,1.1028962E0,-2.7281523E-2,-1.1886394E-1,1.4683366E-1,1.5457337E-1,1.270417E0,8.5240364E-2,-2.1285243E-1,3.7236053E-2,4.775335E-1,-5.849888E-1,-1.09449245E-1,4.8898983E-1,3.7748337E-2],"categories":[],"categories_nodes":[],"categories_segments":[],"categories_sizes":[],"default_left":[1,1,1,1,1,0,0,1,1,1,1,1,1,1,1,1,1,1,1,1,1,1,1,1,1,1,0,1,1,1,1,1,1,1,1,0,0,0,0,0,0,0,0,0,0,0,0,0,0,0,0,0,0,0,0,0,0,0,0,0,0,0,0,0,0],"id":13,"left_children":[1,3,5,7,9,-1,-1,11,13,15,17,19,21,23,25,27,29,31,33,35,37,39,41,43,45,47,-1,49,51,53,55,57,59,61,63,-1,-1,-1,-1,-1,-1,-1,-1,-1,-1,-1,-1,-1,-1,-1,-1,-1,-1,-1,-1,-1,-1,-1,-1,-1,-1,-1,-1,-1,-1],"loss_changes":[2.584548E0,1.140434E0,4.3402958E-1,1.1646333E0,1.8670514E0,0E0,0E0,1.3225789E0,1.9246869E0,1.8817568E0,1.3040118E0,5.3770943E0,1.1565993E0,8.063638E-1,6.36208E-1,1.2838764E0,1.3907361E0,6.3748366E-1,2.0480995E0,1.6165296E0,3.9753847E0,1.7326519E-1,5.045295E-1,1.7787218E-1,5.937562E-1,1.5188777E-1,0E0,2.2410557E-1,8.9165246E-1,7.033444E-2,1.5050187E0,9.567639E-2,2.7451897E-1,2.5749707E-1,2.8673226E-1,0E0,0E0,0E0,0E0,0E0,0E0,0E0,0E0,0E0,0E0,0E0,0E0,0E0,0E0,0E0,0E0,0E0,0E0,0E0,0E0,0E0,0E0,0E0,0E0,0E0,0E0,0E0,0E0,0E0,0E0],"parents":[2147483647,0,0,1,1,2,2,3,3,4,4,7,7,8,8,9,9,10,10,11,11,12,12,13,13,14,14,15,15,16,16,17,17,18,18,19,19,20,20,21,21,22,22,23,23,24,24,25,25,27,27,28,28,29,29,30,30,31,31,32,32,33,33,34,34],"right_children":[2,4,6,8,10,-1,-1,12,14,16,18,20,22,24,26,28,30,32,34,36,38,40,42,44,46,48,-1,50,52,54,56,58,60,62,64,-1,-1,-1,-1,-1,-1,-1,-1,-1,-1,-1,-1,-1,-1,-1,-1,-1,-1,-1,-1,-1,-1,-1,-1,-1,-1,-1,-1,-1,-1],"split_conditions":[9.253968E-1,3.8090909E0,4.1E0,3.3541665E0,5E-1,3.8315478E-1,5.989838E-2,2.5669643E-1,1.3038462E-1,1.564394E0,1.3616071E0,2.1291667E-1,1.5E0,1.0476191E-1,5E-1,1.1423078E0,2.25E-1,7.958333E1,1.8375E0,1.4318183E-1,7.9472916E1,7.0000005E-1,2.6785713E-1,4.5E-1,2.06E0,3.615E0,1.6035476E-1,8.84375E1,4.17E0,4.175E0,1.1269841E-1,2.96E0,1.6998958E3,8.153409E-1,1.5E0,1.385964E-3,1.9408506E-1,2.5746745E-1,-1.710806E-2,5.698592E-2,-2.2809613E-2,-1.6567187E-1,1.8672586E-3,-4.7056597E-2,4.1516077E-2,-5.6129638E-2,-2.0741928E-1,2.7842797E-2,-7.3569275E-2,3.379772E-2,-4.8313934E-2,3.3086887E-1,-8.184457E-3,-3.5659183E-2,4.4050097E-2,4.637201E-2,3.8112512E-1,2.557211E-2,-6.385573E-2,1.1170817E-2,1.4326005E-1,-1.7549664E-1,-3.2834776E-2,1.4669695E-1,1.1324502E-2],"split_indices":[10,15,0,15,1,0,0,10,11,14,14,10,4,8,1,6,12,5,14,11,5,3,6,12,0,0,0,5,0,0,11,0,2,6,3,0,0,0,0,0,0,0,0,0,0,0,0,0,0,0,0,0,0,0,0,0,0,0,0,0,0,0,0,0,0],"split_type":[0,0,0,0,0,0,0,0,0,0,0,0,0,0,0,0,0,0,0,0,0,0,0,0,0,0,0,0,0,0,0,0,0,0,0,0,0,0,0,0,0,0,0,0,0,0,0,0,0,0,0,0,0,0,0,0,0,0,0,0,0,0,0,0,0],"sum_hessian":[3.04E2,3.02E2,2E0,2.58E2,4.4E1,1E0,1E0,2.32E2,2.6E1,2E1,2.4E1,2.15E2,1.7E1,1.9E1,7E0,1.2E1,8E0,1.1E1,1.3E1,1.95E2,2E1,8E0,9E0,8E0,1.1E1,4E0,3E0,1E1,2E0,2E0,6E0,3E0,8E0,8E0,5E0,1.92E2,3E0,1.3E1,7E0,4E0,4E0,7E0,2E0,6E0,2E0,5E0,6E0,3E0,1E0,5E0,5E0,1E0,1E0,1E0,1E0,2E0,4E0,1E0,2E0,2E0,6E0,6E0,2E0,2E0,3E0],"tree_param":{"num_deleted":"0","num_feature":"16","num_nodes":"65","size_leaf_vector":"0"}},{"base_weights":[4.6949252E-2,3.8973223E-2,8.368785E-1,4.4523057E-1,3.0662764E-2,1.0856056E0,1.6971207E-1,8.490251E-1,3.1077057E-2,1.1060824E-2,1.9913557E-1,-5.759597E-3,4.5275807E-2,-3.382077E-1,2.450339E-2,-2.216914E-1,2.521417E-1,1.6058052E-1,-4.114709E-1,-1.6605753E-2,1.5001728E-1,-3.6451995E-1,1.0339713E-1,6.7251575E-1,1.3151626E-1,1.2722713E-1,-4.9471152E-1,3.9829212E-1,-3.1804066E-2,5.460502E-1,5.7518933E-2,2.714771E-1,9.8306197E-1,4.46102E-3,2.4761182E-1],"categories":[],"categories_nodes":[],"categories_segments":[],"categories_sizes":[],"default_left":[1,1,1,1,1,0,0,0,1,1,1,0,0,1,1,1,1,0,1,1,1,0,0,1,1,0,0,0,0,0,0,0,0,0,0],"id":14,"left_children":[1,3,5,7,9,-1,-1,-1,11,13,15,-1,-1,17,19,21,23,-1,25,27,29,-1,-1,31,33,-1,-1,-1,-1,-1,-1,-1,-1,-1,-1],"loss_changes":[1.8890362E0,1.0093324E0,3.135867E-1,9.7701216E-1,9.8191077E-1,0E0,0E0,0E0,2.3529083E-3,1.2665647E0,7.473966E-1,0E0,0E0,4.3150234E-1,1.3388711E0,2.2341803E-1,1.3313719E0,0E0,4.6651483E-1,1.2485939E0,2.3130643E0,0E0,0E0,4.8036766E-1,3.381581E-1,0E0,0E0,0E0,0E0,0E0,0E0,0E0,0E0,0E0,0E0],"parents":[2147483647,0,0,1,1,2,2,3,3,4,4,8,8,9,9,10,10,13,13,14,14,15,15,16,16,18,18,19,19,20,20,23,23,24,24],"right_children":[2,4,6,8,10,-1,-1,-1,12,14,16,-1,-1,18,20,22,24,-1,26,28,30,-1,-1,32,34,-1,-1,-1,-1,-1,-1,-1,-1,-1,-1],"split_conditions":[9.253968E-1,1.1339285E0,4.1E0,1.35E0,4.4949496E-1,3.256817E-1,5.091362E-2,2.5470755E-1,1.7363289E3,9.583334E-1,1.5192308E0,-1.7278792E-3,1.3582743E-2,1.365E0,3.0349998E0,1.67E0,2.045E1,4.8174158E-2,5E-1,1.7424243E-2,3.145E0,-1.0935599E-1,3.101914E-2,1.7133333E1,1.9399999E0,3.816814E-2,-1.4841346E-1,1.1948764E-1,-9.54122E-3,1.6381507E-1,1.725568E-2,8.144313E-2,2.949186E-1,1.3383061E-3,7.428355E-2],"split_indices":[10,15,0,0,12,0,0,0,2,14,15,0,0,0,0,0,5,0,4,10,0,0,0,5,0,0,0,0,0,0,0,0,0,0,0],"split_type":[0,0,0,0,0,0,0,0,0,0,0,0,0,0,0,0,0,0,0,0,0,0,0,0,0,0,0,0,0,0,0,0,0,0,0],"sum_hessian":[3.04E2,3.02E2,2E0,5E0,2.97E2,1E0,1E0,2E0,3E0,2.67E2,3E1,1E0,2E0,9E0,2.58E2,3E0,2.7E1,1E0,8E0,1.95E2,6.3E1,2E0,1E0,5E0,2.2E1,1E0,7E0,6E0,1.89E2,1.1E1,5.2E1,3E0,2E0,1.1E1,1.1E1],"tree_param":{"num_deleted":"0","num_feature":"16","num_nodes":"35","size_leaf_vector":"0"}},{"base_weights":[3.6948897E-2,3.014975E-2,7.113466E-1,4.097694E-2,-2.6098815E-1,9.227648E-1,1.4425516E-1,2.1832982E-2,3.3224118E-1,-5.0892913E-1,3.0450841E-2,2.5402862E-1,7.515115E-3,9.975071E-1,1.326875E-1,-1.0988692E-1,1.2809145E-1,8.827412E-2,5.1557374E-1,-2.7084175E-2,9.5314465E-2,2.3962241E-1,1.1702613E0,9.2883396E-1,9.47461E-3,-6.0331106E-2,2.1100934E-1,-5.570045E-2,3.5415474E-1,1.639663E-1,8.1252575E-1,-5.3898925E-3,-5.1453185E-1,5.3592514E-2,6.6035885E-1,2.5131992E-1,-1.5280834E-1],"categories":[],"categories_nodes":[],"categories_segments":[],"categories_sizes":[],"default_left":[1,1,1,1,1,0,0,1,1,0,1,1,1,1,1,0,1,1,1,1,1,0,0,0,1,0,0,0,0,0,0,0,0,0,0,0,0],"id":15,"left_children":[1,3,5,7,9,-1,-1,11,13,-1,15,17,19,21,23,-1,25,27,29,31,33,-1,-1,-1,35,-1,-1,-1,-1,-1,-1,-1,-1,-1,-1,-1,-1],"loss_changes":[1.3770789E0,9.658129E-1,2.2656667E-1,1.6264997E0,8.1035346E-1,0E0,0E0,9.156656E-1,2.2572558E0,0E0,9.629157E-2,6.481247E-1,7.9544604E-1,2.4328971E-1,1.4626322E0,0E0,7.5224824E-2,4.408071E-1,4.932363E-1,1.9852945E0,1.7091415E0,0E0,0E0,0E0,5.8786696E-1,0E0,0E0,0E0,0E0,0E0,0E0,0E0,0E0,0E0,0E0,0E0,0E0],"parents":[2147483647,0,0,1,1,2,2,3,3,4,4,7,7,8,8,10,10,11,11,12,12,13,13,14,14,16,16,17,17,18,18,19,19,20,20,24,24],"right_children":[2,4,6,8,10,-1,-1,12,14,-1,16,18,20,22,24,-1,26,28,30,32,34,-1,-1,-1,36,-1,-1,-1,-1,-1,-1,-1,-1,-1,-1,-1,-1],"split_conditions":[9.253968E-1,2.9285717E-1,4.1E0,2.2649573E-1,3.2051283E-1,2.7682945E-1,4.327655E-2,5E-1,1.3818182E-1,-1.5267874E-1,1.9000001E0,1.7424244E-1,1.9E0,1.94E0,2.4038461E-1,-3.2966077E-2,5E-1,5.9166666E-2,1.3E0,2.1483517E0,1.9960261E3,7.1886726E-2,3.510784E-1,2.786502E-1,1.5357144E0,-1.8099332E-2,6.330281E-2,-1.6710136E-2,1.0624643E-1,4.918989E-2,2.4375774E-1,-1.6169678E-3,-1.5435956E-1,1.6077755E-2,1.9810766E-1,7.539598E-2,-4.5842502E-2],"split_indices":[10,7,0,7,12,0,0,3,10,0,3,8,4,0,7,0,1,11,4,14,2,0,0,0,13,0,0,0,0,0,0,0,0,0,0,0,0],"split_type":[0,0,0,0,0,0,0,0,0,0,0,0,0,0,0,0,0,0,0,0,0,0,0,0,0,0,0,0,0,0,0,0,0,0,0,0,0],"sum_hessian":[3.04E2,3.02E2,2E0,2.92E2,1E1,1E0,1E0,2.75E2,1.7E1,5E0,5E0,1.5E1,2.6E2,3E0,1.4E1,2E0,3E0,1E1,5E0,1.87E2,7.3E1,1E0,2E0,1E0,1.3E1,1E0,2E0,7E0,3E0,3E0,2E0,1.8E2,7E0,6.9E1,4E0,5E0,8E0],"tree_param":{"num_deleted":"0","num_feature":"16","num_nodes":"37","size_leaf_vector":"0"}},{"base_weights":[3.029548E-2,1.2004739E-2,2.2610748E-1,8.4806174E-2,-2.8283374E-2,6.743067E-1,1.6066143E-1,1.5245718E-2,5.1101714E-1,-2.909302E-1,6.1505805E-3,5.4193866E-2,4.710318E-1,6.284282E-1,-2.9807221E-2,1.0591636E-2,7.878545E-1,-1.2467238E-1,-7.980208E-1,2.5857675E-1,-2.3486631E-2,-2.0391247E-1,7.9861574E-2,8.025856E-1,1.04608536E-1,8.5674006E-1,1.1453643E-1,-2.5421593E-1,2.013304E-2,1.16296306E-1,-2.5896585E-1,1.0276136E0,3.905244E-1,-4.2403498E-1,3.539829E-2,-3.424625E-1,3.1754562E-1,-3.5981038E-1,-1.2209346E-3,2.0544577E-2,1.3689584E-1,-5.1281452E-2,1.7366569E-1,1.5753749E-1,1.4267147E-2,8.582224E-3,-3.8647324E-1,6.0711652E-2,-3.4215364E-1,-8.480509E-3,2.0230769E-1,1.1632185E0,2.4259734E-1,1.0026026E-1,4.3802536E-1,1.1232734E-2,-5.133351E-1,1.6212688E-1,-3.988298E-1,5.423294E-1,2.239548E-1,-4.0511647E-1,1.3191998E-3,-1.495247E-1,5.9323672E-2,5.465969E-2,-4.4293016E-2,2.2513428E-1,2.1278238E-2],"categories":[],"categories_nodes":[],"categories_segments":[],"categories_sizes":[],"default_left":[1,1,1,1,1,0,1,1,1,1,1,1,1,1,1,1,1,1,0,1,1,0,1,0,1,0,1,1,1,1,0,1,1,1,1,0,1,1,1,1,1,0,0,0,0,0,0,0,0,0,0,0,0,0,0,0,0,0,0,0,0,0,0,0,0,0,0,0,0],"id":16,"left_children":[1,3,5,7,9,-1,11,13,15,17,19,21,23,25,27,29,31,33,-1,35,37,-1,39,-1,41,-1,43,45,47,49,-1,51,53,55,57,-1,59,61,63,65,67,-1,-1,-1,-1,-1,-1,-1,-1,-1,-1,-1,-1,-1,-1,-1,-1,-1,-1,-1,-1,-1,-1,-1,-1,-1,-1,-1,-1],"loss_changes":[1.0896574E0,8.2364774E-1,6.543194E-1,2.956952E0,1.6387477E0,0E0,7.67538E-1,2.4221654E0,1.9311659E0,1.670972E0,1.2105476E0,1.4215975E-1,6.4497674E-1,6.058376E-1,9.240946E-1,2.0107767E-1,4.5606422E-1,8.296361E-1,0E0,7.1127176E-1,1.0853907E0,0E0,5.8083363E-2,0E0,5.1967096E-2,0E0,1.0687448E-2,5.246713E-1,1.0204468E0,5.537679E-2,0E0,2.500658E-1,2.5022626E-2,2.3898292E-1,7.250104E-1,0E0,2.1514606E-1,1.4778674E-1,1.2389925E0,2.454046E-2,8.7026775E-2,0E0,0E0,0E0,0E0,0E0,0E0,0E0,0E0,0E0,0E0,0E0,0E0,0E0,0E0,0E0,0E0,0E0,0E0,0E0,0E0,0E0,0E0,0E0,0E0,0E0,0E0,0E0,0E0],"parents":[2147483647,0,0,1,1,2,2,3,3,4,4,6,6,7,7,8,8,9,9,10,10,11,11,12,12,13,13,14,14,15,15,16,16,17,17,19,19,20,20,22,22,24,24,26,26,27,27,28,28,29,29,31,31,32,32,33,33,34,34,36,36,37,37,38,38,39,39,40,40],"right_children":[2,4,6,8,10,-1,12,14,16,18,20,22,24,26,28,30,32,34,-1,36,38,-1,40,-1,42,-1,44,46,48,50,-1,52,54,56,58,-1,60,62,64,66,68,-1,-1,-1,-1,-1,-1,-1,-1,-1,-1,-1,-1,-1,-1,-1,-1,-1,-1,-1,-1,-1,-1,-1,-1,-1,-1,-1,-1],"split_conditions":[4.6410257E-1,1.7152007E3,4.8333335E-1,1.7070205E3,1.2733334E1,2.0229201E-1,1.2857144E-1,1.2583333E0,4.7200546E1,1.755E0,1.5571428E1,7.0952377E0,4.1E0,2.475E0,1.475E0,2.29E0,8.038461E1,1.3038461E0,-2.3940624E-1,2.4747476E-2,1.8766666E1,-6.117374E-2,1.865E0,2.4077569E-1,5E-1,2.5702202E-1,1.46E0,1.909091E-2,8.4246155E1,1.7E0,-7.768976E-2,1.7119924E3,3.63E0,1.385E0,2.2E0,-1.0273876E-1,1.315E0,2.0145048E3,1.4460227E0,1.51E0,2.795E0,-1.5384437E-2,5.209971E-2,4.726125E-2,4.2801443E-3,2.5746673E-3,-1.1594198E-1,1.8213496E-2,-1.026461E-1,-2.5441528E-3,6.0692307E-2,3.4896556E-1,7.277921E-2,3.0078078E-2,1.3140762E-1,3.3698203E-3,-1.5400054E-1,4.863807E-2,-1.1964894E-1,1.6269882E-1,6.7186445E-2,-1.2153494E-1,3.9575997E-4,-4.4857413E-2,1.7797103E-2,1.6397908E-2,-1.3287906E-2,6.754029E-2,6.3834717E-3],"split_indices":[12,2,12,2,5,0,11,15,5,0,5,5,0,4,0,0,5,15,0,10,5,0,0,0,1,0,0,11,5,3,0,2,0,0,3,0,0,2,14,0,0,0,0,0,0,0,0,0,0,0,0,0,0,0,0,0,0,0,0,0,0,0,0,0,0,0,0,0,0],"split_type":[0,0,0,0,0,0,0,0,0,0,0,0,0,0,0,0,0,0,0,0,0,0,0,0,0,0,0,0,0,0,0,0,0,0,0,0,0,0,0,0,0,0,0,0,0,0,0,0,0,0,0,0,0,0,0,0,0,0,0,0,0,0,0,0,0,0,0,0,0],"sum_hessian":[3.04E2,2.79E2,2.5E1,9.9E1,1.8E2,2E0,2.3E1,8.6E1,1.3E1,2E1,1.6E2,1.8E1,5E0,5E0,8.1E1,5E0,8E0,1.6E1,4E0,1.6E1,1.44E2,1E0,1.7E1,2E0,3E0,3E0,2E0,1.4E1,6.7E1,4E0,1E0,4E0,4E0,5E0,1.1E1,1E0,1.5E1,8E0,1.36E2,9E0,8E0,1E0,2E0,1E0,1E0,5E0,9E0,6.1E1,6E0,2E0,2E0,3E0,1E0,1E0,3E0,1E0,4E0,9E0,2E0,3E0,1.2E1,7E0,1E0,3.9E1,9.7E1,6E0,3E0,4E0,4E0],"tree_param":{"num_deleted":"0","num_feature":"16","num_nodes":"69","size_leaf_vector":"0"}},{"base_weights":[2.3462564E-2,2.564021E-3,1.3812767E-1,3.5851147E-2,-1.215528E-1,1.0507715E-1,5.8784294E-1,-1.0436583E-2,2.0545936E-1,1.5482864E-1,-2.1970326E-1,1.7118649E-1,-1.7838094E-1,4.930013E-2,-1.1015311E-1,8.37145E-2,7.428469E-1,-7.179047E-2,4.240777E-1,3.8871102E-2,-3.411439E-1,7.785883E-2,4.153853E-1,5.0821256E-2,-3.7190694E-1,-5.0872363E-2,2.1242166E-1,-1.8104567E-1,6.925942E-2,-1.1445175E-1,4.1744846E-1,8.4559584E-1,1.1802256E-2,6.4430736E-2,-1.9365358E-1,-3.0954758E-2,6.122816E-1,5.551361E-1,-4.3544367E-2,-3.8477698E-1,1.5072417E-1,2.453042E-1,-6.3056715E-2,5.719344E-1,3.7578017E-2,1.5138085E-1,-6.667876E-2,-1.0744834E-1,-4.1115952E-1,4.2947862E-2,-2.4502559E-1,3.354972E-1,-1.3136129E-1,-2.1605492E-1,3.6943245E-1,1.5025549E-1,-1.7138144E-1,6.626184E-2,-2.2729737E-1,1.5094529E-1,1.3443117E0,2.1953726E-1,9.133494E-1,8.8305265E-2,-1.5533686E-2,1.0643083E-1,-1.5286297E-1,-2.7838805E-1,2.4462493E-2,-4.073473E-1,8.9740515E-2,-1.2490647E-2,4.6805558E-1,-2.1694426E-1,8.0738515E-2,8.2975674E-1,1.7112851E-1,-5.4243267E-2,8.62662E-2],"categories":[],"categories_nodes":[],"categories_segments":[],"categories_sizes":[],"default_left":[1,1,1,1,1,1,0,1,1,1,1,1,1,1,1,1,1,1,1,1,1,1,1,1,1,1,1,1,1,1,1,1,0,1,0,1,0,0,1,1,0,1,1,1,1,0,0,0,0,0,0,0,0,0,0,0,0,0,0,0,0,0,0,0,0,0,0,0,0,0,0,0,0,0,0,0,0,0,0],"id":17,"left_children":[1,3,5,7,9,11,-1,13,15,17,19,21,23,25,27,29,31,33,35,37,39,41,43,45,47,49,51,53,55,57,59,61,-1,63,-1,65,-1,-1,67,69,-1,71,73,75,77,-1,-1,-1,-1,-1,-1,-1,-1,-1,-1,-1,-1,-1,-1,-1,-1,-1,-1,-1,-1,-1,-1,-1,-1,-1,-1,-1,-1,-1,-1,-1,-1,-1,-1],"loss_changes":[7.3052764E-1,1.0744144E0,6.368073E-1,1.6115541E0,1.5259994E0,8.738016E-1,0E0,9.7042197E-1,2.8164763E0,9.4569933E-1,1.3007193E0,8.1090736E-1,4.181101E-1,1.6775159E0,7.883989E-1,2.4947658E0,5.9093237E-1,1.6188031E-1,6.1842525E-1,6.1984813E-1,6.589236E-1,6.761465E-1,5.699618E-1,6.917266E-2,7.7250004E-3,1.1763153E0,1.6942111E0,9.2777824E-1,3.7658834E-1,5.0448686E-1,3.2552505E0,9.64098E-2,0E0,1.0917269E-2,0E0,6.6514626E-2,0E0,0E0,2.1443282E-1,3.1501555E-1,0E0,7.5236034E-1,3.7156847E-1,5.813618E-1,2.2561807E-2,0E0,0E0,0E0,0E0,0E0,0E0,0E0,0E0,0E0,0E0,0E0,0E0,0E0,0E0,0E0,0E0,0E0,0E0,0E0,0E0,0E0,0E0,0E0,0E0,0E0,0E0,0E0,0E0,0E0,0E0,0E0,0E0,0E0,0E0],"parents":[2147483647,0,0,1,1,2,2,3,3,4,4,5,5,7,7,8,8,9,9,10,10,11,11,12,12,13,13,14,14,15,15,16,16,17,17,18,18,19,19,20,20,21,21,22,22,23,23,24,24,25,25,26,26,27,27,28,28,29,29,30,30,31,31,33,33,35,35,38,38,39,39,41,41,42,42,43,43,44,44],"right_children":[2,4,6,8,10,12,-1,14,16,18,20,22,24,26,28,30,32,34,36,38,40,42,44,46,48,50,52,54,56,58,60,62,-1,64,-1,66,-1,-1,68,70,-1,72,74,76,78,-1,-1,-1,-1,-1,-1,-1,-1,-1,-1,-1,-1,-1,-1,-1,-1,-1,-1,-1,-1,-1,-1,-1,-1,-1,-1,-1,-1,-1,-1,-1,-1,-1,-1],"split_conditions":[3.8090909E0,3.1547618E0,1.9903337E3,1.7424244E-1,1.846591E-1,1.8139854E3,1.7635289E-1,3.693182E-2,7.9166666E-2,3.5714287E-2,1.79E0,1.7576001E3,1.1E0,1.9375E-2,1.8327405E3,9.6153843E-1,3.5349998E0,3.105E0,1.915E0,1.3452381E-1,2.6999998E0,8.33125E1,2.361111E-1,2.6999998E0,5E-1,1.61E0,1.7E0,2.6785713E-1,2.1604167E-1,1.605E0,1.8733767E-1,6E-1,3.540677E-3,3.02E0,-5.8096077E-2,1.4100001E0,1.836845E-1,1.6654083E-1,2.9166669E-2,4.205E0,4.5217253E-2,1.0741758E0,1.5692309E-1,1.603896E-1,2.9650002E0,4.5414258E-2,-2.000363E-2,-3.2234505E-2,-1.23347856E-1,1.2884359E-2,-7.350768E-2,1.0064916E-1,-3.940839E-2,-6.4816475E-2,1.1082974E-1,4.5076646E-2,-5.1414434E-2,1.9878553E-2,-6.818921E-2,4.528359E-2,4.0329352E-1,6.586118E-2,2.7400482E-1,2.649158E-2,-4.660106E-3,3.192925E-2,-4.585889E-2,-8.351642E-2,7.3387483E-3,-1.2220419E-1,2.6922155E-2,-3.7471943E-3,1.4041668E-1,-6.508328E-2,2.4221556E-2,2.4892703E-1,5.1338557E-2,-1.627298E-2,2.587986E-2],"split_indices":[15,15,2,6,6,2,0,11,11,8,0,2,4,11,2,13,0,0,0,10,4,5,7,3,1,0,4,8,10,0,10,3,0,0,0,0,0,0,11,0,0,14,11,11,0,0,0,0,0,0,0,0,0,0,0,0,0,0,0,0,0,0,0,0,0,0,0,0,0,0,0,0,0,0,0,0,0,0,0],"split_type":[0,0,0,0,0,0,0,0,0,0,0,0,0,0,0,0,0,0,0,0,0,0,0,0,0,0,0,0,0,0,0,0,0,0,0,0,0,0,0,0,0,0,0,0,0,0,0,0,0,0,0,0,0,0,0,0,0,0,0,0,0,0,0,0,0,0,0,0,0,0,0,0,0,0,0,0,0,0,0],"sum_hessian":[3.04E2,2.58E2,4.6E1,2.04E2,5.4E1,4.4E1,2E0,1.61E2,4.3E1,1.4E1,4E1,3.6E1,8E0,1.01E2,6E1,3.6E1,7E0,8E0,6E0,1.3E1,2.7E1,2.7E1,9E0,4E0,4E0,6.3E1,3.8E1,4.3E1,1.7E1,2.3E1,1.3E1,6E0,1E0,4E0,4E0,2E0,4E0,1E0,1.2E1,2.5E1,2E0,1.2E1,1.5E1,6E0,3E0,2E0,2E0,1E0,3E0,4.3E1,2E1,2.8E1,1E1,4.1E1,2E0,1.3E1,4E0,9E0,1.4E1,1.1E1,2E0,1E0,5E0,3E0,1E0,1E0,1E0,2E0,1E1,2.4E1,1E0,6E0,6E0,7E0,8E0,3E0,3E0,1E0,2E0],"tree_param":{"num_deleted":"0","num_feature":"16","num_nodes":"79","size_leaf_vector":"0"}},{"base_weights":[2.1045497E-2,1.7657638E-2,5.254774E-1,-7.139678E-2,3.717898E-2,-1.8584993E-1,1.5524338E-1,-3.2235567E-2,7.850247E-2,-4.85278E-2,-6.7757666E-1,3.673485E-1,-7.238606E-2,-6.2104844E-2,2.567637E-1,7.666654E-1,6.4676724E-2,2.528692E-2,-4.2265877E-1,-7.939075E-1,6.836963E-2,6.270561E-1,-1.7770398E-2,-3.306714E-1,3.3519194E-2,2.7594546E-2,-1.5244597E-1,3.0331304E-2,6.99518E-1,1.3629282E-1,1.0137053E0,1.25386E-1,-6.921244E-2,9.831058E-2,-2.3451038E-1,-4.8133096E-1,-9.398502E-2,-1.5345427E-1,-8.75074E-1,3.2441655E-1,8.2155687E-1,4.4833288E-2,-1.3409257E-1,-1.5723932E-1,8.323317E-2,9.385266E-2,-2.4050398E-1,-2.6291147E-1,5.0396536E-2,-3.6712456E-2,1.3196047E-1,9.384745E-2,9.1404146E-1,1.7887089E-1,-1.4573316E-1],"categories":[],"categories_nodes":[],"categories_segments":[],"categories_sizes":[],"default_left":[1,1,0,1,1,1,1,1,1,1,1,1,1,1,1,1,1,1,1,1,0,1,1,0,1,1,1,1,0,0,0,1,1,0,0,0,0,0,0,0,0,0,0,0,0,0,0,0,0,0,0,0,0,0,0],"id":18,"left_children":[1,3,-1,5,7,9,11,13,15,17,19,21,23,25,27,29,31,33,35,37,-1,39,41,-1,43,45,47,49,-1,-1,-1,51,53,-1,-1,-1,-1,-1,-1,-1,-1,-1,-1,-1,-1,-1,-1,-1,-1,-1,-1,-1,-1,-1,-1],"loss_changes":[5.1194936E-1,5.3114694E-1,0E0,1.4555342E0,7.196435E-1,2.4655426E0,9.4393677E-1,8.2737297E-1,1.4441704E0,8.391789E-1,7.48492E-1,1.0113264E0,2.8462157E-1,7.0111156E-1,8.8106805E-1,3.2902086E-1,1.2685668E0,5.1631E-1,5.118215E-2,2.2959948E-1,0E0,8.665538E-2,4.2422794E-2,0E0,8.8954434E-2,8.0417484E-1,9.7675514E-1,5.2539803E-2,0E0,0E0,0E0,2.575635E0,9.562596E-1,0E0,0E0,0E0,0E0,0E0,0E0,0E0,0E0,0E0,0E0,0E0,0E0,0E0,0E0,0E0,0E0,0E0,0E0,0E0,0E0,0E0,0E0],"parents":[2147483647,0,0,1,1,3,3,4,4,5,5,6,6,7,7,8,8,9,9,10,10,11,11,12,12,13,13,14,14,15,15,16,16,17,17,18,18,19,19,21,21,22,22,24,24,25,25,26,26,27,27,31,31,32,32],"right_children":[2,4,-1,6,8,10,12,14,16,18,20,22,24,26,28,30,32,34,36,38,-1,40,42,-1,44,46,48,50,-1,-1,-1,52,54,-1,-1,-1,-1,-1,-1,-1,-1,-1,-1,-1,-1,-1,-1,-1,-1,-1,-1,-1,-1,-1,-1],"split_conditions":[3.1547618E0,1.1805555E-1,1.5764323E-1,5.9166666E-2,1.655E0,1.77E0,3.1825397E0,2.1825397E-1,1.7424243E-2,5.6349207E-2,2.915E0,1E0,8.7083334E-1,2.20375E1,5.5555556E-2,2.38E0,1.806126E3,1.0555556E-1,1.47E0,5.4700855E-2,2.051089E-2,7.0000005E-1,2.32E0,-9.9201426E-2,2.361111E-1,1.8914849E3,1.8007615E3,5E-1,2.0985542E-1,4.0887848E-2,3.041116E-1,1.8011113E3,2.05E0,2.9493175E-2,-7.035311E-2,-1.443993E-1,-2.8195508E-2,-4.6036284E-2,-2.6252222E-1,9.732497E-2,2.4646707E-1,1.3449986E-2,-4.022777E-2,-4.7171798E-2,2.4969952E-2,2.81558E-2,-7.21512E-2,-7.887344E-2,1.5118961E-2,-1.1013737E-2,3.9588142E-2,2.8154237E-2,2.7421245E-1,5.366127E-2,-4.371995E-2],"split_indices":[14,12,0,11,0,0,15,8,10,11,0,3,13,5,7,0,2,12,0,10,0,3,0,0,6,2,2,1,0,0,0,2,0,0,0,0,0,0,0,0,0,0,0,0,0,0,0,0,0,0,0,0,0,0,0],"split_type":[0,0,0,0,0,0,0,0,0,0,0,0,0,0,0,0,0,0,0,0,0,0,0,0,0,0,0,0,0,0,0,0,0,0,0,0,0,0,0,0,0,0,0,0,0,0,0,0,0,0,0,0,0,0,0],"sum_hessian":[3.04E2,3.03E2,1E0,5.4E1,2.49E2,3.6E1,1.8E1,9.3E1,1.56E2,2.9E1,7E0,9E0,9E0,8.5E1,8E0,2E0,1.54E2,2.5E1,4E0,6E0,1E0,5E0,4E0,2E0,7E0,4.3E1,4.2E1,6E0,2E0,1E0,1E0,1.06E2,4.8E1,2E1,5E0,3E0,1E0,1E0,5E0,3E0,2E0,3E0,1E0,1E0,6E0,3.5E1,8E0,2.7E1,1.5E1,4E0,2E0,1.03E2,3E0,1.1E1,3.7E1],"tree_param":{"num_deleted":"0","num_feature":"16","num_nodes":"55","size_leaf_vector":"0"}},{"base_weights":[1.6829338E-2,2.4945946E-1,8.913357E-3,8.428731E-2,4.7614586E-1,-1.1744877E-1,2.100377E-2,-2.0641565E-2,1.0521572E-1,6.2571716E-1,2.1771638E-1,-4.575028E-2,-3.055232E-1,-5.881824E-3,1.0986226E-1,1.1394104E-1,-1.8676509E-1,-5.0600767E-3,-4.2469645E-1,9.5819764E-2,-2.5495302E-2,9.6217155E-1,6.614439E-2,-3.5792362E-2,2.7083293E-1,-2.41682E-1,4.0240645E-2,8.290672E-2,-9.049684E-2,2.4667013E-1,-3.6255255E-2,1.7603393E-1,-4.5364697E-2,1.2149453E0,2.2831202E-1,1.628549E-2,7.725624E-1,6.294137E-2,-1.5550655E-1,7.7602625E-2,2.9973984E-1,-2.7216893E-1,1.1067986E-3,8.424401E-3,5.1936567E-2,3.1006572E-1,-1.3139936E-1,-1.00936905E-1,2.3153514E-1,8.548589E-1,7.378834E-2,-3.1747127E-1,-1.3149686E-2,4.8703542E-1,-9.224069E-3,8.860381E-1,2.1606755E-1],"categories":[],"categories_nodes":[],"categories_segments":[],"categories_sizes":[],"default_left":[1,1,1,1,1,1,1,0,0,0,0,1,1,1,1,1,1,1,0,1,1,1,1,1,1,1,1,0,0,1,1,1,1,0,0,1,1,0,0,0,0,0,0,0,0,0,0,0,0,0,0,0,0,0,0,0,0],"id":19,"left_children":[1,3,5,7,9,11,13,-1,-1,-1,-1,15,17,19,21,23,25,27,-1,29,31,33,35,37,39,41,43,-1,-1,45,47,49,51,-1,-1,53,55,-1,-1,-1,-1,-1,-1,-1,-1,-1,-1,-1,-1,-1,-1,-1,-1,-1,-1,-1,-1],"loss_changes":[5.5943274E-1,3.3428973E-1,4.5468688E-1,1.7543774E-2,1.8385649E-2,3.366232E-1,6.480687E-1,0E0,0E0,0E0,0E0,4.7165704E-1,2.4850118E-1,4.1933987E-1,2.2838101E0,2.4461329E-1,1.4685646E-1,3.004959E-2,0E0,6.8634427E-1,7.127361E-1,2.7911448E-1,2.1359134E0,8.0706775E-2,4.667878E-3,6.6918194E-2,6.788266E-4,0E0,0E0,4.2422938E-1,3.5247177E-1,1.047431E0,1.4071378E0,0E0,0E0,7.0099264E-1,6.115055E-2,0E0,0E0,0E0,0E0,0E0,0E0,0E0,0E0,0E0,0E0,0E0,0E0,0E0,0E0,0E0,0E0,0E0,0E0,0E0,0E0],"parents":[2147483647,0,0,1,1,2,2,3,3,4,4,5,5,6,6,11,11,12,12,13,13,14,14,15,15,16,16,17,17,19,19,20,20,21,21,22,22,23,23,24,24,25,25,26,26,29,29,30,30,31,31,32,32,35,35,36,36],"right_children":[2,4,6,8,10,12,14,-1,-1,-1,-1,16,18,20,22,24,26,28,-1,30,32,34,36,38,40,42,44,-1,-1,46,48,50,52,-1,-1,54,56,-1,-1,-1,-1,-1,-1,-1,-1,-1,-1,-1,-1,-1,-1,-1,-1,-1,-1,-1,-1],"split_conditions":[7.7350426E-1,7.2380954E-1,7.0000005E-1,1.2E0,1.745E0,3.10989E0,3.0749998E0,-6.19247E-3,3.1564716E-2,1.8771516E-1,6.531492E-2,5E-1,1.565E0,1.365E0,2.2252748E-2,1.895E0,1.8586409E3,1.4100001E0,-1.2740894E-1,2.038889E1,1.6524824E3,3.245E0,1.9947195E3,4.083333E-2,2.165E0,8.012821E-2,2.3E0,2.4872018E-2,-2.7149053E-2,1.8892128E3,1.305E0,4.027778E-2,3.5714286E-3,3.644836E-1,6.8493605E-2,1.4545456E-1,4.08E0,1.8882412E-2,-4.6651967E-2,2.3280788E-2,8.992195E-2,-8.165068E-2,3.320396E-4,2.5273205E-3,1.5580971E-2,9.301972E-2,-3.941981E-2,-3.0281072E-2,6.946054E-2,2.564577E-1,2.2136502E-2,-9.524138E-2,-3.944906E-3,1.4611064E-1,-2.7672208E-3,2.6581144E-1,6.482027E-2],"split_indices":[14,14,4,0,0,15,0,0,0,0,0,4,0,0,11,0,2,0,0,5,2,0,2,11,0,7,0,0,0,2,0,10,11,0,0,10,0,0,0,0,0,0,0,0,0,0,0,0,0,0,0,0,0,0,0,0,0],"split_type":[0,0,0,0,0,0,0,0,0,0,0,0,0,0,0,0,0,0,0,0,0,0,0,0,0,0,0,0,0,0,0,0,0,0,0,0,0,0,0,0,0,0,0,0,0,0,0,0,0,0,0,0,0,0,0,0,0],"sum_hessian":[3.04E2,9E0,2.95E2,6E0,3E0,2.5E1,2.7E2,1E0,5E0,1E0,2E0,1.9E1,6E0,2.08E2,6.2E1,9E0,1E1,2E0,4E0,3.3E1,1.75E2,2E0,6E1,5E0,4E0,8E0,2E0,1E0,1E0,1.5E1,1.8E1,1.5E1,1.6E2,1E0,1E0,5.7E1,3E0,3E0,2E0,1E0,3E0,7E0,1E0,1E0,1E0,1.3E1,2E0,1.5E1,3E0,1E0,1.4E1,1.6E1,1.44E2,2E0,5.5E1,2E0,1E0],"tree_param":{"num_deleted":"0","num_feature":"16","num_nodes":"57","size_leaf_vector":"0"}},{"base_weights":[1.6207034E-2,2.0246184E-1,9.859887E-3,6.262572E-2,3.965596E-1,-1.4748713E-3,1.0341773E-1,-1.7545342E-2,7.891179E-2,5.3185964E-1,1.7417304E-1,1.2663213E-2,-1.5078267E-1,-8.9679524E-2,1.8287663E-1,3.7023763E-3,5.471476E-1,-4.569531E-1,-1.5842926E-2,2.3042281E-1,-1.9850796E-1,2.747858E-1,-2.3801237E-2,1.3828868E-2,-1.741855E-1,-1.8742597E-1,8.5448074E-1,6.997168E-3,-6.4393264E-1,4.8061576E-1,-1.1407847E-1,-2.745605E-1,1.6692996E-1,1.0427492E-2,4.3235803E-1,6.419661E-2,-1.9186318E-1,-2.0617472E-2,7.905826E-2,-3.7609974E-1,-9.76637E-4,2.4901772E-1,1.0327034E0,-2.928704E-2,3.9782792E-2,-3.213495E-1,-9.493589E-3,-6.4258546E-2,-4.1622233E-1,8.8798776E-2,-7.0550665E-2,5.472674E-1,1.2317714E-1,1.0842724E-1,-7.847828E-2,-2.3234701E-1,-5.5447757E-2],"categories":[],"categories_nodes":[],"categories_segments":[],"categories_sizes":[],"default_left":[1,1,1,1,1,1,1,0,0,0,0,1,1,1,1,1,1,1,1,0,1,1,1,1,1,0,1,1,0,0,1,1,0,1,1,1,1,0,0,0,0,0,0,0,0,0,0,0,0,0,0,0,0,0,0,0,0],"id":20,"left_children":[1,3,5,7,9,11,13,-1,-1,-1,-1,15,17,19,21,23,25,27,29,-1,31,33,35,37,39,-1,41,43,-1,-1,45,47,-1,49,51,53,55,-1,-1,-1,-1,-1,-1,-1,-1,-1,-1,-1,-1,-1,-1,-1,-1,-1,-1,-1,-1],"loss_changes":[3.5857064E-1,2.4658388E-1,3.1404737E-1,1.0524234E-2,2.7720034E-2,5.613048E-1,5.0738585E-1,0E0,0E0,0E0,0E0,1.1618049E0,9.429954E-1,3.9410314E-1,4.4343877E-1,4.3474E-1,1.0631871E0,6.1175036E-1,8.83916E-1,0E0,2.681723E-1,6.6198003E-1,1.3062967E-1,5.139263E-1,4.5428604E-1,0E0,6.656027E-2,4.7339215E-3,0E0,0E0,3.221105E-1,1.8179649E-1,0E0,5.0689347E-2,2.8786695E-1,4.6372786E-2,3.6847293E-3,0E0,0E0,0E0,0E0,0E0,0E0,0E0,0E0,0E0,0E0,0E0,0E0,0E0,0E0,0E0,0E0,0E0,0E0,0E0,0E0],"parents":[2147483647,0,0,1,1,2,2,3,3,4,4,5,5,6,6,11,11,12,12,13,13,14,14,15,15,16,16,17,17,18,18,20,20,21,21,22,22,23,23,24,24,26,26,27,27,30,30,31,31,33,33,34,34,35,35,36,36],"right_children":[2,4,6,8,10,12,14,-1,-1,-1,-1,16,18,20,22,24,26,28,30,-1,32,34,36,38,40,-1,42,44,-1,-1,46,48,-1,50,52,54,56,-1,-1,-1,-1,-1,-1,-1,-1,-1,-1,-1,-1,-1,-1,-1,-1,-1,-1,-1,-1],"split_conditions":[7.7350426E-1,7.2380954E-1,2.5833333E-1,1.2E0,1.745E0,2.1825397E-1,1.3E0,-5.263603E-3,2.3673538E-2,1.595579E-1,5.2251916E-2,2.0714286E-1,2.048611E-1,2.9285717E-1,7.9285717E-1,1.846591E-1,1.935E0,1.7E0,1.3541667E-1,6.9126844E-2,4.1800003E0,1.7077114E3,8.935715E1,2.17E0,1.7124553E3,-5.6227792E-2,2.725E0,1.51E0,-1.931798E-1,1.4418474E-1,1.713296E3,5E-1,5.007899E-2,7.1428575E-2,2.1E0,4.225E0,4.15E0,-6.185242E-3,2.371748E-2,-1.1282992E-1,-2.929911E-4,7.470532E-2,3.0981103E-1,-8.786112E-3,1.1934838E-2,-9.640486E-2,-2.8480769E-3,-1.9277565E-2,-1.248667E-1,2.6639635E-2,-2.11652E-2,1.6418022E-1,3.6953144E-2,3.2528173E-2,-2.3543485E-2,-6.970411E-2,-1.6634328E-2],"split_indices":[14,14,8,0,0,8,4,0,0,0,0,8,6,8,6,8,0,0,10,0,0,2,5,0,2,0,0,0,0,0,2,1,0,7,4,0,0,0,0,0,0,0,0,0,0,0,0,0,0,0,0,0,0,0,0,0,0],"split_type":[0,0,0,0,0,0,0,0,0,0,0,0,0,0,0,0,0,0,0,0,0,0,0,0,0,0,0,0,0,0,0,0,0,0,0,0,0,0,0,0,0,0,0,0,0,0,0,0,0,0,0,0,0,0,0,0,0],"sum_hessian":[3.04E2,9E0,2.95E2,6E0,3E0,2.64E2,3.1E1,1E0,5E0,1E0,2E0,2.42E2,2.2E1,9E0,2.2E1,2.39E2,3E0,6E0,1.6E1,2E0,7E0,1.5E1,7E0,2.27E2,1.2E1,1E0,2E0,2E0,4E0,2E0,1.4E1,6E0,1E0,6E0,9E0,5E0,2E0,1.49E2,7.8E1,5E0,7E0,1E0,1E0,1E0,1E0,4E0,1E1,3E0,3E0,3E0,3E0,6E0,3E0,4E0,1E0,1E0,1E0],"tree_param":{"num_deleted":"0","num_feature":"16","num_nodes":"57","size_leaf_vector":"0"}},{"base_weights":[1.2728981E-2,1.938137E-2,-1.5131533E-1,9.499403E-3,1.7037715E-1,-2.5884962E-1,5.10026E-2,6.611802E-3,4.0323853E-1,6.79801E-1,2.3172323E-2,-3.277608E-1,-1.0799825E-1,9.860182E-2,-1.3597488E-2,3.7855308E-3,3.9191818E-1,1.4196151E-1,8.1176025E-1,5.202651E-1,-4.9496096E-2,1.8062592E-3,-2.2202492E-2,1.8052453E-1,-2.1861412E-3,3.0129993E-2,-1.9884905E-1,-9.8507255E-3,8.5176325E-1,-1.0829953E-1,9.711152E-3,-1.6685162E-2,1.0452402E-1,-2.7893326E-1,-5.248185E-2],"categories":[],"categories_nodes":[],"categories_segments":[],"categories_sizes":[],"default_left":[1,1,1,1,1,1,1,1,0,1,1,0,0,0,1,1,0,0,0,0,1,0,0,1,1,1,1,0,0,0,0,0,0,0,0],"id":21,"left_children":[1,3,5,7,9,11,13,15,-1,17,19,-1,-1,-1,21,23,-1,-1,-1,-1,25,-1,-1,27,29,31,33,-1,-1,-1,-1,-1,-1,-1,-1],"loss_changes":[3.3577517E-1,4.370694E-1,2.7427536E-1,3.1227213E-1,1.3340611E0,4.7765195E-2,1.6715307E-2,2.9907495E-1,0E0,1.6865301E-1,5.6759524E-1,0E0,0E0,0E0,4.3775147E-4,2.9063717E-1,0E0,0E0,0E0,0E0,1.7248482E-1,0E0,0E0,1.1584756E0,3.3812913E-1,3.6571678E-2,4.3969557E-2,0E0,0E0,0E0,0E0,0E0,0E0,0E0,0E0],"parents":[2147483647,0,0,1,1,2,2,3,3,4,4,5,5,6,6,7,7,9,9,10,10,14,14,15,15,20,20,23,23,24,24,25,25,26,26],"right_children":[2,4,6,8,10,12,14,16,-1,18,20,-1,-1,-1,22,24,-1,-1,-1,-1,26,-1,-1,28,30,32,34,-1,-1,-1,-1,-1,-1,-1,-1],"split_conditions":[2.9285717E-1,2.2649573E-1,2E0,3.1547618E0,1.3818182E-1,3.0384618E-1,3.4E0,1.5E0,1.2097157E-1,1.94E0,2.4038461E-1,-9.832824E-2,-3.2399476E-2,2.9580547E-2,4.165E0,1.7424243E-2,1.1757546E-1,4.2588457E-2,2.4352808E-1,1.5607953E-1,6.904762E-2,5.4187776E-4,-6.660748E-3,2.38E0,3.2051284E-2,1.7E0,3.58E0,-2.9552178E-3,2.55529E-1,-3.2489862E-2,2.9133456E-3,-5.0055487E-3,3.1357206E-2,-8.367998E-2,-1.5744556E-2],"split_indices":[7,7,3,14,10,12,3,6,0,0,7,0,0,0,0,10,0,0,0,0,8,0,0,0,10,4,0,0,0,0,0,0,0,0,0],"split_type":[0,0,0,0,0,0,0,0,0,0,0,0,0,0,0,0,0,0,0,0,0,0,0,0,0,0,0,0,0,0,0,0,0,0,0],"sum_hessian":[3.04E2,2.93E2,1.1E1,2.76E2,1.7E1,7E0,4E0,2.75E2,1E0,3E0,1.4E1,4E0,3E0,2E0,2E0,2.74E2,1E0,1E0,2E0,1E0,1.3E1,1E0,1E0,8E0,2.66E2,9E0,4E0,7E0,1E0,2.6E1,2.4E2,6E0,3E0,2E0,2E0],"tree_param":{"num_deleted":"0","num_feature":"16","num_nodes":"35","size_leaf_vector":"0"}},{"base_weights":[1.1282084E-2,5.574496E-2,-1.2681786E-2,3.25394E-3,2.839182E-1,-1.7708983E-2,3.2166472E-1,-1.7465511E-2,4.427288E-1,6.0268366E-1,1.04255594E-1,-1.325454E-1,-1.0117617E-3,4.4575683E-3,-3.691263E-1,7.047272E-1,-1.7163318E-1,9.478315E-1,1.06864944E-1,3.1047243E-1,-1.4631446E-1,-5.510886E-2,-6.820437E-1,-4.441133E-2,4.4442043E-2,-1.801928E-2,5.9486204E-1,-5.3632486E-1,-7.888564E-2,8.7634134E-1,1.8074942E-1,1.2948085E-1,1.95086E-2,4.3316445E-1,7.948929E-2,-2.7305812E-1,1.7007828E-2,1.92133E-1,-1.5367264E-1,3.0539805E-1,-6.4465865E-2,2.1320951E-1,-1.0766555E-2,-1.0282068E-1,7.159294E-2,7.3101616E-1,1.6127694E-1,-1.0582578E-1,-1.250267E-2,5.707662E-1,1.5117455E-1,2.1020842E-1,-3.4153223E-2,-7.598513E-2,7.333386E-2,8.3848044E-2,3.085636E-1,-2.1789351E-2,-2.9931766E-1,5.621702E-1,-5.3173464E-2,3.226646E-1,-7.768183E-2,9.537069E-2,4.3526277E-1,-1.0259372E-1,8.713627E-2],"categories":[],"categories_nodes":[],"categories_segments":[],"categories_sizes":[],"default_left":[1,1,1,1,1,1,0,1,1,1,1,1,1,1,1,1,0,0,1,1,1,1,0,1,1,1,1,0,1,0,0,0,0,1,1,0,1,1,1,1,1,1,1,0,0,0,0,0,0,0,0,0,0,0,0,0,0,0,0,0,0,0,0,0,0,0,0],"id":22,"left_children":[1,3,5,7,9,11,-1,13,15,17,19,21,23,25,27,29,-1,-1,31,33,35,37,-1,39,41,43,45,-1,47,-1,-1,-1,-1,49,51,-1,53,55,57,59,61,63,65,-1,-1,-1,-1,-1,-1,-1,-1,-1,-1,-1,-1,-1,-1,-1,-1,-1,-1,-1,-1,-1,-1,-1,-1],"loss_changes":[3.2568523E-1,1.2806201E0,3.4018067E-1,8.0903214E-1,1.0825715E0,3.776033E-1,0E0,6.5695184E-1,7.648018E-1,1.0966256E0,7.6883125E-1,1.0261945E0,3.4324658E-1,1.0856241E0,2.003308E-1,1.1136794E-1,0E0,0E0,5.376585E-3,1.9228637E-1,1.4954458E-1,5.900147E-1,0E0,6.440463E-1,7.942758E-1,6.077013E-1,5.920708E-2,0E0,4.041996E-3,0E0,0E0,0E0,0E0,1.0772622E-1,6.66003E-2,0E0,2.6523981E-2,6.2381297E-2,3.2001653E-1,4.902485E-1,4.59951E-1,5.07985E-1,5.932986E-1,0E0,0E0,0E0,0E0,0E0,0E0,0E0,0E0,0E0,0E0,0E0,0E0,0E0,0E0,0E0,0E0,0E0,0E0,0E0,0E0,0E0,0E0,0E0,0E0],"parents":[2147483647,0,0,1,1,2,2,3,3,4,4,5,5,7,7,8,8,9,9,10,10,11,11,12,12,13,13,14,14,15,15,18,18,19,19,20,20,21,21,23,23,24,24,25,25,26,26,28,28,33,33,34,34,36,36,37,37,38,38,39,39,40,40,41,41,42,42],"right_children":[2,4,6,8,10,12,-1,14,16,18,20,22,24,26,28,30,-1,-1,32,34,36,38,-1,40,42,44,46,-1,48,-1,-1,-1,-1,50,52,-1,54,56,58,60,62,64,66,-1,-1,-1,-1,-1,-1,-1,-1,-1,-1,-1,-1,-1,-1,-1,-1,-1,-1,-1,-1,-1,-1,-1,-1],"split_conditions":[2.9285714E-2,2.4038462E-2,3.5E0,3.105E0,1.0795455E-1,7.207792E-2,9.649942E-2,2.865E0,1.830801E3,1.7E0,1.2321429E0,6.2835167E1,9.5454544E-2,2.815E0,1.6025642E-2,3.245E0,-5.1489957E-2,2.8434947E-1,2.295E0,1.9805196E-1,1.9375E-1,1.7094165E3,-2.046131E-1,7.417583E-2,1.3693182E-1,1.3E0,2.835E0,-1.6089746E-1,3.0349998E0,2.629024E-1,5.4224826E-2,3.8844258E-2,5.85258E-3,1.95E0,1.6743671E3,-8.1917435E-2,1.6E0,1.675E0,5E-1,1.5999999E0,1.622112E3,1.3E0,3.0454546E-1,-3.0846205E-2,2.1477884E-2,2.1930486E-1,4.8383083E-2,-3.1747736E-2,-3.7508013E-3,1.7122987E-1,4.5352366E-2,6.306253E-2,-1.0245968E-2,-2.2795541E-2,2.2000158E-2,2.5154414E-2,9.256908E-2,-6.5368055E-3,-8.97953E-2,1.6865107E-1,-1.595204E-2,9.679938E-2,-2.330455E-2,2.8611207E-2,1.3057883E-1,-3.0778117E-2,2.6140882E-2],"split_indices":[11,11,4,0,6,10,0,0,2,4,14,5,7,0,11,0,0,0,0,6,8,2,0,12,10,3,0,0,0,0,0,0,0,0,2,0,0,0,1,4,2,3,10,0,0,0,0,0,0,0,0,0,0,0,0,0,0,0,0,0,0,0,0,0,0,0,0],"split_type":[0,0,0,0,0,0,0,0,0,0,0,0,0,0,0,0,0,0,0,0,0,0,0,0,0,0,0,0,0,0,0,0,0,0,0,0,0,0,0,0,0,0,0,0,0,0,0,0,0,0,0,0,0,0,0,0,0,0,0,0,0,0,0,0,0,0,0],"sum_hessian":[3.04E2,1.06E2,1.98E2,8.7E1,1.9E1,1.96E2,2E0,8.4E1,3E0,6E0,1.3E1,2.4E1,1.72E2,8E1,4E0,2E0,1E0,3E0,3E0,7E0,6E0,2.2E1,2E0,8.8E1,8.4E1,7.8E1,2E0,2E0,2E0,1E0,1E0,2E0,1E0,4E0,3E0,3E0,3E0,6E0,1.6E1,4E0,8.4E1,2E1,6.4E1,4E1,3.8E1,1E0,1E0,1E0,1E0,2E0,2E0,1E0,2E0,1E0,2E0,4E0,2E0,9E0,7E0,2E0,2E0,2E0,8.2E1,1.4E1,6E0,3.3E1,3.1E1],"tree_param":{"num_deleted":"0","num_feature":"16","num_nodes":"67","size_leaf_vector":"0"}},{"base_weights":[1.1626374E-2,1.2769327E-1,3.9019934E-3,3.9368257E-1,-2.5354309E-2,-2.7134025E-1,1.0744676E-2,5.645096E-1,1.2443495E-1,-2.253719E-1,1.7828533E-1,9.153515E-2,-4.3479747E-1,3.0089945E-1,4.398034E-3,1.4092453E-1,3.7483096E-2,-7.075059E-2,-3.2365024E-1,4.9064606E-2,2.629347E-1,-1.3220376E-1,-4.7739494E-1,1.283498E-1,5.818238E-1,1.4699635E-1,-3.782778E-3,-5.982876E-3,-9.034553E-2,-3.6604753E-1,-9.82292E-2,5.1137626E-2,3.1648788E-1,2.80225E-1,-1.75506E-1,-2.516786E-1,3.0103994E-3,-2.1271603E-2,3.4958777E-1,-2.8576085E-1,1.3275671E-1,1.7753977E-1,-3.5280493E-1,-2.1895382E-1,1.1053414E-2],"categories":[],"categories_nodes":[],"categories_segments":[],"categories_sizes":[],"default_left":[1,1,1,1,1,1,1,0,1,1,1,0,1,1,1,0,0,1,1,0,1,0,0,0,0,1,1,0,0,0,0,0,0,1,1,1,1,0,0,0,0,0,0,0,0],"id":23,"left_children":[1,3,5,7,9,11,13,-1,15,17,19,-1,21,23,25,-1,-1,27,29,-1,31,-1,-1,-1,-1,33,35,-1,-1,-1,-1,-1,-1,37,39,41,43,-1,-1,-1,-1,-1,-1,-1,-1],"loss_changes":[2.729479E-1,7.834529E-1,5.4344994E-1,2.5171864E-1,5.696901E-1,4.550014E-1,5.161405E-1,0E0,4.5291334E-4,8.347303E-2,6.36684E-2,0E0,1.3352633E-3,2.1616352E-1,3.225294E-1,0E0,0E0,4.5359507E-3,2.272427E-3,0E0,2.9185146E-2,0E0,0E0,0E0,0E0,6.936795E-1,4.4196567E-1,0E0,0E0,0E0,0E0,0E0,0E0,2.3747528E-1,2.0787399E-1,3.6647388E-1,4.5944712E-1,0E0,0E0,0E0,0E0,0E0,0E0,0E0,0E0],"parents":[2147483647,0,0,1,1,2,2,3,3,4,4,5,5,6,6,8,8,9,9,10,10,12,12,13,13,14,14,17,17,18,18,20,20,25,25,26,26,33,33,34,34,35,35,36,36],"right_children":[2,4,6,8,10,12,14,-1,16,18,20,-1,22,24,26,-1,-1,28,30,-1,32,-1,-1,-1,-1,34,36,-1,-1,-1,-1,-1,-1,38,40,42,44,-1,-1,-1,-1,-1,-1,-1,-1],"split_conditions":[1.269697E0,1.709479E3,1.3038461E0,2.3000002E0,1.4694445E1,1.375E0,1.7424243E-2,1.6935287E-1,5E-1,1.5550001E0,5E-1,2.7460547E-2,1.5E0,2.38E0,6.547619E-1,4.227736E-2,1.1244929E-2,5E-1,1.6800001E0,1.4719383E-2,1.7219532E3,-3.9661128E-2,-1.4321849E-1,3.850494E-2,1.7454715E-1,6.236607E1,2.6136365E-2,-1.7948628E-3,-2.710366E-2,-1.09814264E-1,-2.9468762E-2,1.5341288E-2,9.494637E-2,2.0714287E-2,2.68E0,7.375E0,3.3333334E-3,-6.3814814E-3,1.0487633E-1,-8.572826E-2,3.9827015E-2,5.3261932E-2,-1.0584148E-1,-6.568615E-2,3.3160243E-3],"split_indices":[15,2,15,4,5,0,10,0,1,0,1,0,4,0,13,0,0,1,0,0,2,0,0,0,0,5,10,0,0,0,0,0,0,10,0,5,11,0,0,0,0,0,0,0,0],"split_type":[0,0,0,0,0,0,0,0,0,0,0,0,0,0,0,0,0,0,0,0,0,0,0,0,0,0,0,0,0,0,0,0,0,0,0,0,0,0,0,0,0,0,0,0,0],"sum_hessian":[3.04E2,1.8E1,2.86E2,6E0,1.2E1,6E0,2.8E2,3E0,3E0,6E0,6E0,2E0,4E0,5E0,2.75E2,2E0,1E0,3E0,3E0,3E0,3E0,1E0,3E0,4E0,1E0,1.4E1,2.61E2,1E0,2E0,2E0,1E0,1E0,2E0,1E1,4E0,6E0,2.55E2,2E0,8E0,3E0,1E0,1E0,5E0,8E0,2.47E2],"tree_param":{"num_deleted":"0","num_feature":"16","num_nodes":"45","size_leaf_vector":"0"}},{"base_weights":[8.712172E-3,1.5678923E-1,3.680135E-3,4.764274E-2,3.0859828E-1,3.1380605E-2,-1.880671E-2,8.419172E-2,1.6184807E-2,4.3822718E-1,1.1931292E-1,6.735079E-2,-6.3767724E-2,-3.7504736E-2,1.035853E-1,-6.3759685E-3,2.3418993E-2,1.7350959E-2,2.1065626E-1,-2.0345923E-1,4.0724635E-2,-1.4080426E-1,-8.834027E-3,-2.0105428E-1,1.622681E-1,2.6674708E-2,6.825924E-3,8.390018E-2,-8.0832936E-2,8.2761794E-1,1.2102402E-1,-6.409887E-3,-2.686082E-1,-1.9715428E-1,1.0453963E-1,-1.9194889E-1,1.6353753E-1,8.241539E-2,-6.1940156E-2,2.3688793E-2,-2.838649E-1,2.5502092E-1,-8.119985E-2,1.0185047E-2,1.8035772E-1,-3.376502E-1,-1.596347E-2,4.7045088E-1,2.2699898E-2,-4.943629E-2,8.284786E-2,7.81368E-2,-3.072338E-1,1.4101326E-2,-2.5349352E-1,2.2847384E-1,3.9297722E-2,-1.364887E-1,-4.7672272E-1,2.3966172E-1,-7.047963E-2,1.423924E-1,-6.2332757E-2,-2.1744764E-3,-2.285405E-1,-2.7825038E-3,2.9822004E-1,1.0223309E-1,-1.9847459E-1],"categories":[],"categories_nodes":[],"categories_segments":[],"categories_sizes":[],"default_left":[1,1,1,1,1,1,1,0,1,0,0,1,1,1,1,0,1,1,1,1,1,1,1,1,1,0,0,1,1,0,1,1,1,1,1,1,1,1,1,0,0,1,1,0,0,0,0,0,0,0,0,0,0,0,0,0,0,0,0,0,0,0,0,0,0,0,0,0,0],"id":24,"left_children":[1,3,5,7,9,11,13,-1,15,-1,-1,17,19,21,23,-1,25,27,29,31,33,35,37,39,41,-1,-1,43,45,-1,47,49,51,53,55,57,59,61,63,-1,-1,65,67,-1,-1,-1,-1,-1,-1,-1,-1,-1,-1,-1,-1,-1,-1,-1,-1,-1,-1,-1,-1,-1,-1,-1,-1,-1,-1],"loss_changes":[2.2668739E-1,1.5099177E-1,1.8496744E-1,6.685661E-3,4.5861244E-2,4.5948768E-1,3.7919715E-1,0E0,9.653629E-4,0E0,0E0,6.9137406E-1,5.4836357E-1,4.2227504E-1,4.2592093E-1,0E0,3.4009572E-5,4.8376846E-1,1.2823298E0,2.0367926E-1,3.5457578E-1,5.1391965E-1,5.526919E-1,8.116886E-2,4.4977212E-1,0E0,0E0,3.1101978E-1,4.9439785E-1,0E0,7.795338E-1,2.3297893E-2,1.847251E-1,6.308448E-2,1.365642E-1,3.6136013E-1,1.05963096E-1,3.7350136E-1,7.164058E-1,0E0,0E0,1.5674609E-1,1.4936298E-1,0E0,0E0,0E0,0E0,0E0,0E0,0E0,0E0,0E0,0E0,0E0,0E0,0E0,0E0,0E0,0E0,0E0,0E0,0E0,0E0,0E0,0E0,0E0,0E0,0E0,0E0],"parents":[2147483647,0,0,1,1,2,2,3,3,4,4,5,5,6,6,8,8,11,11,12,12,13,13,14,14,16,16,17,17,18,18,19,19,20,20,21,21,22,22,23,23,24,24,27,27,28,28,30,30,31,31,32,32,33,33,34,34,35,35,36,36,37,37,38,38,41,41,42,42],"right_children":[2,4,6,8,10,12,14,-1,16,-1,-1,18,20,22,24,-1,26,28,30,32,34,36,38,40,42,-1,-1,44,46,-1,48,50,52,54,56,58,60,62,64,-1,-1,66,68,-1,-1,-1,-1,-1,-1,-1,-1,-1,-1,-1,-1,-1,-1,-1,-1,-1,-1,-1,-1,-1,-1,-1,-1,-1,-1],"split_conditions":[7.7350426E-1,7.2380954E-1,3.693182E-2,1.2916667E0,1.745E0,1.8648893E3,2.792208E-1,2.5257517E-2,1.28E0,1.3146816E-1,3.579388E-2,2.17E0,1.2E0,4.6410255E-2,1.6736758E3,-1.9127906E-3,2.7649999E0,1.56E0,2.28E0,1.8972231E3,3.452381E-2,2.0111111E-1,1.9090909E-1,3.846154E-2,6.487013E0,8.0024125E-3,2.0477772E-3,1.5E0,1.3809524E-1,2.482854E-1,3.974359E-2,5E-1,1.1468253E0,7.0000005E-1,1.4083333E0,5.93125E1,2.32E0,6.997253E1,1.6025642E-1,7.106638E-3,-8.5159466E-2,1.4000001E0,8.847222E1,3.0555143E-3,5.410732E-2,-1.0129507E-1,-4.7890414E-3,1.4113528E-1,6.80997E-3,-1.4830887E-2,2.485436E-2,2.344104E-2,-9.217015E-2,4.230398E-3,-7.604806E-2,6.854215E-2,1.1789317E-2,-4.0946614E-2,-1.4301682E-1,7.189852E-2,-2.114389E-2,4.271772E-2,-1.8699829E-2,-6.523429E-4,-6.856215E-2,-8.347512E-4,8.946601E-2,3.0669928E-2,-5.9542377E-2],"split_indices":[14,14,11,13,0,2,8,0,0,0,0,0,3,11,2,0,0,0,0,2,10,10,12,7,15,0,0,4,12,0,10,1,14,4,15,5,0,5,8,0,0,4,5,0,0,0,0,0,0,0,0,0,0,0,0,0,0,0,0,0,0,0,0,0,0,0,0,0,0],"split_type":[0,0,0,0,0,0,0,0,0,0,0,0,0,0,0,0,0,0,0,0,0,0,0,0,0,0,0,0,0,0,0,0,0,0,0,0,0,0,0,0,0,0,0,0,0,0,0,0,0,0,0,0,0,0,0,0,0,0,0,0,0,0,0,0,0,0,0,0,0],"sum_hessian":[3.04E2,9E0,2.95E2,6E0,3E0,1.32E2,1.63E2,2E0,4E0,1E0,2E0,9.6E1,3.6E1,1.42E2,2.1E1,1E0,3E0,7.2E1,2.4E1,1.5E1,2.1E1,3E1,1.12E2,3E0,1.8E1,2E0,1E0,4.3E1,2.9E1,2E0,2.2E1,4E0,1.1E1,4E0,1.7E1,2.6E1,4E0,4.1E1,7.1E1,1E0,2E0,1.3E1,5E0,2.5E1,1.8E1,5E0,2.4E1,4E0,1.8E1,3E0,1E0,1E0,1E1,1E0,3E0,5E0,1.2E1,2.3E1,3E0,3E0,1E0,2.9E1,1.2E1,5.3E1,1.8E1,2E0,1.1E1,2E0,3E0],"tree_param":{"num_deleted":"0","num_feature":"16","num_nodes":"69","size_leaf_vector":"0"}},{"base_weights":[7.085631E-3,-2.1530503E-2,2.5509559E-2,9.394084E-2,-4.01986E-2,2.572845E-1,1.364729E-2,3.0002484E-1,-1.6929563E-2,-1.0335883E-1,3.008162E-2,-1.6129836E-1,6.2441045E-1,2.5244254E-1,6.706924E-3,3.558291E-1,1.0501772E-2,-1.9847018E-1,9.864952E-2,-1.7939206E-2,-2.519462E-1,9.478255E-2,-4.999263E-2,-2.930781E-1,2.4247488E-2,1.9885571E-1,8.4182835E-1,5.3495288E-2,3.672423E-1,1.3332483E-1,-7.8524975E-3,-2.3201816E-1,-3.2139122E-2,2.1611666E-2,1.7028445E-1,-4.595047E-2,2.1763851E-1,-3.7174147E-1,-2.5785662E-2,-7.3594525E-2,2.4561566E-1,2.4575071E-1,-8.986107E-2,-3.0045033E-2,6.641626E-2,1.7985058E-1,-7.447794E-2,-6.1258573E-2,3.364044E-2,-1.6209165E-2,5.222861E-2,2.2108138E-2,2.1230717E-1,2.2649404E-2,-1.2025342E-1,2.5654605E-1,5.0457954E-2,-4.2430872E-1,1.2953281E-1,-1.2868029E-1,6.168717E-2,-1.8376231E-1,6.282502E-2,-8.9304924E-2,2.7591747E-1,-1.51139E-1,8.636057E-3,1.4688671E-2,2.8832644E-1,2.0387769E-2,-1.12895764E-1,-1.0169219E-1,1.0485153E-1,5.6329425E-2,-2.031267E-1],"categories":[],"categories_nodes":[],"categories_segments":[],"categories_sizes":[],"default_left":[1,1,1,1,1,1,1,1,1,1,1,1,1,1,1,0,0,1,1,1,1,1,1,0,1,0,0,0,0,1,1,0,0,1,1,1,1,1,1,1,1,0,1,0,0,1,1,1,1,0,0,0,0,0,0,0,0,0,0,0,0,0,0,0,0,0,0,0,0,0,0,0,0,0,0],"id":25,"left_children":[1,3,5,7,9,11,13,15,17,19,21,23,25,27,29,-1,-1,31,33,35,37,39,41,-1,43,-1,-1,-1,-1,45,47,-1,-1,49,51,53,55,57,59,61,63,-1,65,-1,-1,67,69,71,73,-1,-1,-1,-1,-1,-1,-1,-1,-1,-1,-1,-1,-1,-1,-1,-1,-1,-1,-1,-1,-1,-1,-1,-1,-1,-1],"loss_changes":[1.6135183E-1,2.6245195E-1,5.0787276E-1,3.935057E-1,4.647563E-1,1.4837699E0,2.93311E-1,9.320289E-2,2.7136657E-1,6.9355565E-1,2.6378235E-1,1.2936231E-1,2.9521394E-1,9.4549745E-2,3.2181308E-1,0E0,0E0,2.04435E-2,4.0468678E-2,2.4755843E-1,5.3227353E-1,7.2918737E-1,2.9327247E-1,0E0,8.863826E-3,0E0,0E0,0E0,0E0,1.8742213E-1,3.4996885E-1,0E0,0E0,6.6363732E-3,2.0213388E-2,1.7093037E-1,1.3073549E-2,3.975197E-1,7.99418E-2,2.219514E-1,1.7687136E-1,0E0,1.2805495E-1,0E0,0E0,2.6450613E-1,1.6879827E-2,4.7409645E-1,4.8955053E-1,0E0,0E0,0E0,0E0,0E0,0E0,0E0,0E0,0E0,0E0,0E0,0E0,0E0,0E0,0E0,0E0,0E0,0E0,0E0,0E0,0E0,0E0,0E0,0E0,0E0,0E0],"parents":[2147483647,0,0,1,1,2,2,3,3,4,4,5,5,6,6,7,7,8,8,9,9,10,10,11,11,12,12,13,13,14,14,17,17,18,18,19,19,20,20,21,21,22,22,24,24,29,29,30,30,33,33,34,34,35,35,36,36,37,37,38,38,39,39,40,40,42,42,45,45,46,46,47,47,48,48],"right_children":[2,4,6,8,10,12,14,16,18,20,22,24,26,28,30,-1,-1,32,34,36,38,40,42,-1,44,-1,