{"learner":{"attributes":{"best_iteration":"99","best_ntree_limit":"100","scikit_learn":"{\"n_estimators\": 100, \"objective\": \"reg:squarederror\", \"max_depth\": null, \"max_leaves\": null, \"max_bin\": null, \"grow_policy\": null, \"learning_rate\": null, \"verbosity\": null, \"booster\": null, \"tree_method\": null, \"gamma\": null, \"min_child_weight\": null, \"max_delta_step\": null, \"subsample\": null, \"sampling_method\": null, \"colsample_bytree\": null, \"colsample_bylevel\": null, \"colsample_bynode\": null, \"reg_alpha\": null, \"reg_lambda\": null, \"scale_pos_weight\": null, \"base_score\": null, \"missing\": NaN, \"num_parallel_tree\": null, \"random_state\": 42, \"n_jobs\": null, \"monotone_constraints\": null, \"interaction_constraints\": null, \"importance_type\": null, \"gpu_id\": null, \"validate_parameters\": null, \"predictor\": null, \"enable_categorical\": false, \"feature_types\": null, \"max_cat_to_onehot\": null, \"max_cat_threshold\": null, \"eval_metric\": null, \"early_stopping_rounds\": null, \"callbacks\": null, \"_estimator_type\": \"regressor\"}"},"feature_names":["Points","Was Home","Opp rating","ScoreForLast5","ScoreAgainstLast5","MinAvgOverall","GlsAvgOverall","AstAvgOverall","CrdYAvgOverall","CrdRAvgOverall","xGAvgOverall","xAGAvgOverall","CSAvgOverall","Team ScoreAvgOverall","Opp ScoreAvgOverall","FPLAvgOverall"],"feature_types":["float","float","float","float","float","float","float","float","float","float","float","float","float","float","float","float"],"gradient_booster":{"model":{"gbtree_model_param":{"num_parallel_tree":"1","num_trees":"100","size_leaf_vector":"0"},"tree_info":[0,0,0,0,0,0,0,0,0,0,0,0,0,0,0,0,0,0,0,0,0,0,0,0,0,0,0,0,0,0,0,0,0,0,0,0,0,0,0,0,0,0,0,0,0,0,0,0,0,0,0,0,0,0,0,0,0,0,0,0,0,0,0,0,0,0,0,0,0,0,0,0,0,0,0,0,0,0,0,0,0,0,0,0,0,0,0,0,0,0,0,0,0,0,0,0,0,0,0,0],"trees":[{"base_weights":[1.6565547E0,2.8755364E-1,2.1157742E0,-3.05E-1,7.2761196E-1,2.6244292E0,1.230315E0,2.857143E-1,-3.4574467E-1,5.5508476E-1,1.882353E0,2.210443E0,3.6666667E0,7.921687E-1,2.0337079E0,6.666667E-1,-0E0,-3.7790698E-1,-0E0,1.4791666E0,3.1578946E-1,2.7916667E0,-2.5E-1,2.8915095E0,1.8578199E0,4.275641E0,2.5543478E0,5.68E-1,1.4404762E0,2.4652777E0,1.9444445E-1,-3.3333334E-1,3.3333334E-1,-4.868421E-1,-2.857143E-1,-3.75E-1,2.5E-1,2.1176472E0,-6.25E-2,2.4731183E-1,2.3333333E0,3.7777777E0,-1.25E-1,2.5E-1,-4E-1,5.3636365E0,2.578125E0,1.0706521E0,2.4458334E0,5.142857E0,2.7166667E0,1.875E0,4.5454545E0,4.330357E-1,1.6071428E0,6.3461536E-1,2.5882354E0,6.4705884E-1,2.9732144E0,-1.3333334E-1,1.375E0,-5.1428574E-1,-1.25E-1,-3.3333334E-1,2E-1,-2.5E-1,4E-1,2.7916667E0,4.1666666E-1,3.75E-1,-4E-1,9.615385E-2,9.6875E-1,-2.5E-1,3.75E0,4.3125E0,-2.5E-1,-3.3333334E-1,2.5E-1,8E0,2.7142856E0,2.5E-1,2.816092E0,4.142857E0,8.0813956E-1,3.1076922E0,1.6339285E0,5.3020835E0,-1.25E0,1.6842105E0,4.125E0,2.3703704E0,3.5E-1,6.666667E-1,5.3333335E0,1.5254237E-1,7.314815E-1,3.375E0,8.181818E-1,3.9583334E-1,2.3333333E0,1E0,4.714286E0,2E0,7.692308E-2,1.125E0,3.4E0,-4.4444445E-1,2.857143E-1],"categories":[],"categories_nodes":[],"categories_segments":[],"categories_sizes":[],"default_left":[1,1,1,1,1,1,1,1,1,1,1,1,1,1,1,0,1,1,1,1,1,1,1,1,1,1,1,1,1,1,1,0,0,1,1,0,1,1,1,1,1,1,1,0,0,1,1,1,1,1,1,1,1,1,1,1,1,1,1,1,0,0,0,0,0,0,0,0,0,0,0,0,0,0,0,0,0,0,0,0,0,0,0,0,0,0,0,0,0,0,0,0,0,0,0,0,0,0,0,0,0,0,0,0,0,0,0,0,0],"id":0,"left_children":[1,3,5,7,9,11,13,15,17,19,21,23,25,27,29,-1,31,33,35,37,39,41,43,45,47,49,51,53,55,57,59,-1,-1,61,63,-1,65,67,69,71,73,75,77,-1,-1,79,81,83,85,87,89,91,93,95,97,99,101,103,105,107,-1,-1,-1,-1,-1,-1,-1,-1,-1,-1,-1,-1,-1,-1,-1,-1,-1,-1,-1,-1,-1,-1,-1,-1,-1,-1,-1,-1,-1,-1,-1,-1,-1,-1,-1,-1,-1,-1,-1,-1,-1,-1,-1,-1,-1,-1,-1,-1,-1],"loss_changes":[5.79656E2,6.0978565E1,3.0799292E2,2.5056305E0,2.5651184E1,1.8087964E2,8.779788E1,7.619048E-1,1.0452747E0,2.5626049E1,3.366054E1,7.051843E1,7.239551E1,2.3306625E1,7.01662E1,0E0,6.666667E-1,7.246027E-1,9.375E-1,2.3756123E1,1.2547821E1,3.4986107E1,5.5E-1,6.829291E1,9.504596E1,9.1482056E1,5.369934E1,1.6834946E1,3.7204697E1,6.4571045E1,7.148611E0,0E0,0E0,3.1306362E-1,1.1999998E0,0E0,5.5E-1,1.832721E1,1.33125E0,1.0048607E1,1.1916666E1,2.0461807E1,3.9583334E-1,0E0,0E0,5.5116882E1,5.2481567E1,7.084933E1,5.940619E1,5.650525E1,3.6673904E1,2.636621E1,3.0060623E1,9.264168E0,1.6765423E1,9.622596E0,5.268907E1,1.2959276E1,4.034732E1,2.0825398E0,0E0,0E0,0E0,0E0,0E0,0E0,0E0,0E0,0E0,0E0,0E0,0E0,0E0,0E0,0E0,0E0,0E0,0E0,0E0,0E0,0E0,0E0,0E0,0E0,0E0,0E0,0E0,0E0,0E0,0E0,0E0,0E0,0E0,0E0,0E0,0E0,0E0,0E0,0E0,0E0,0E0,0E0,0E0,0E0,0E0,0E0,0E0,0E0,0E0],"parents":[2147483647,0,0,1,1,2,2,3,3,4,4,5,5,6,6,7,7,8,8,9,9,10,10,11,11,12,12,13,13,14,14,16,16,17,17,18,18,19,19,20,20,21,21,22,22,23,23,24,24,25,25,26,26,27,27,28,28,29,29,30,30,33,33,34,34,36,36,37,37,38,38,39,39,40,40,41,41,42,42,45,45,46,46,47,47,48,48,49,49,50,50,51,51,52,52,53,53,54,54,55,55,56,56,57,57,58,58,59,59],"right_children":[2,4,6,8,10,12,14,16,18,20,22,24,26,28,30,-1,32,34,36,38,40,42,44,46,48,50,52,54,56,58,60,-1,-1,62,64,-1,66,68,70,72,74,76,78,-1,-1,80,82,84,86,88,90,92,94,96,98,100,102,104,106,108,-1,-1,-1,-1,-1,-1,-1,-1,-1,-1,-1,-1,-1,-1,-1,-1,-1,-1,-1,-1,-1,-1,-1,-1,-1,-1,-1,-1,-1,-1,-1,-1,-1,-1,-1,-1,-1,-1,-1,-1,-1,-1,-1,-1,-1,-1,-1,-1,-1],"split_conditions":[1.905E0,1.4641025E0,1.7910894E3,4.2222223E-1,5.590278E-2,2.4772727E0,1.9E0,1.7237783E3,2.4642859E0,1.6761123E3,1.4835165E0,2.1825397E-1,1.7262163E3,1.6961539E0,2.5227273E0,2.0000002E-1,1.7607456E3,1.2474747E0,1.8230063E3,1.4423077E0,2.037535E3,7.6388896E-2,1.6622863E3,1.225E0,1.1E0,8.9125E1,1.7803706E3,1.0555556E-1,1.9008578E3,4.33125E1,3.3666668E0,-1.0000001E-1,1.0000001E-1,2.034061E3,1.9E0,-1.12500004E-1,5.3571427E-1,1.74E0,1.775E0,1.835E0,1.5350001E0,1.8854379E3,1.73E0,7.5E-2,-1.20000005E-1,2.8636362E-2,1.6565149E3,1.6070657E3,1.7207792E0,3.5729165E0,1.5E0,1.7686879E3,1.1E0,8.0690475E1,1.5138888E-1,1.7E0,5E-1,1.7981648E3,1.8232523E3,1.1688312E-1,4.1250002E-1,-1.5428573E-1,-3.75E-2,-1.0000001E-1,6.0000002E-2,-7.5E-2,1.20000005E-1,8.3750004E-1,1.25E-1,1.12500004E-1,-1.20000005E-1,2.8846156E-2,2.90625E-1,-7.5E-2,1.125E0,1.29375E0,-7.5E-2,-1.0000001E-1,7.5E-2,2.4E0,8.142857E-1,7.5E-2,8.4482765E-1,1.2428572E0,2.4244188E-1,9.323077E-1,4.9017859E-1,1.5906252E0,-3.75E-1,5.052632E-1,1.2375001E0,7.111111E-1,1.05000004E-1,2.0000002E-1,1.6000001E0,4.576271E-2,2.1944445E-1,1.0125E0,2.4545455E-1,1.18750006E-1,7E-1,3E-1,1.4142858E0,6E-1,2.3076925E-2,3.375E-1,1.0200001E0,-1.3333334E-1,8.5714296E-2],"split_indices":[0,15,2,5,11,15,3,2,13,2,14,12,2,14,13,0,2,14,2,14,2,11,2,14,3,5,2,11,2,5,13,0,0,2,3,0,5,0,4,0,0,2,0,0,0,11,2,2,13,15,3,2,3,5,11,3,1,2,2,8,0,0,0,0,0,0,0,0,0,0,0,0,0,0,0,0,0,0,0,0,0,0,0,0,0,0,0,0,0,0,0,0,0,0,0,0,0,0,0,0,0,0,0,0,0,0,0,0,0],"split_type":[0,0,0,0,0,0,0,0,0,0,0,0,0,0,0,0,0,0,0,0,0,0,0,0,0,0,0,0,0,0,0,0,0,0,0,0,0,0,0,0,0,0,0,0,0,0,0,0,0,0,0,0,0,0,0,0,0,0,0,0,0,0,0,0,0,0,0,0,0,0,0,0,0,0,0,0,0,0,0,0,0,0,0,0,0,0,0,0,0,0,0,0,0,0,0,0,0,0,0,0,0,0,0,0,0,0,0,0,0],"sum_hessian":[9.22E2,2.32E2,6.9E2,9.9E1,1.33E2,4.37E2,2.53E2,6E0,9.3E1,1.17E2,1.6E1,3.15E2,1.22E2,1.65E2,8.8E1,2E0,4E0,8.5E1,8E0,2.3E1,9.4E1,1.1E1,5E0,1.05E2,2.1E2,7.7E1,4.5E1,1.24E2,4.1E1,7.1E1,1.7E1,2E0,2E0,3.7E1,4.8E1,3E0,5E0,1.6E1,7E0,9.2E1,2E0,8E0,3E0,1E0,4E0,1E1,9.5E1,9.1E1,1.19E2,4.8E1,2.9E1,3.5E1,1E1,1.11E2,1.3E1,2.5E1,1.6E1,1.6E1,5.5E1,1.4E1,3E0,3.4E1,3E0,4.4E1,4E0,1E0,4E0,1.1E1,5E0,3E0,4E0,7.7E1,1.5E1,1E0,1E0,7E0,1E0,2E0,1E0,4E0,6E0,9E0,8.6E1,6E0,8.5E1,6.4E1,5.5E1,4.7E1,1E0,1.8E1,1.1E1,2.6E1,9E0,2E0,8E0,5.8E1,5.3E1,3E0,1E1,2.3E1,2E0,1E1,6E0,4E0,1.2E1,1.1E1,4.4E1,8E0,6E0],"tree_param":{"num_deleted":"0","num_feature":"16","num_nodes":"109","size_leaf_vector":"0"}},{"base_weights":[1.1838483E0,2.1576796E-1,1.5085645E0,-2.1449284E-1,5.352479E-1,2.1474414E0,1.129984E0,3.3999997E-1,-2.4113838E-1,4.0825823E-1,1.3852206E0,3.1927984E0,1.7210366E0,3.7012408E0,1.0484833E0,-1.9999999E-1,5.25E-1,-2.4999246E-1,3E-1,1.5820454E0,2.8492567E-1,5.0864583E-1,2.9075E0,2.72343E0,6.2279263E0,1.574514E0,4.7477164E0,6.752976E-1,4.9710712E0,7.062551E-1,1.4004785E0,-2.7220443E-1,-7.4999994E-3,2.8304167E0,6.9999985E-2,1.8758261E-1,1.9084935E0,-1.5275E-1,2.54375E0,-1.9E-1,3.565E0,2.4778373E0,6.9730654E0,2.189326E0,1.1518396E0,5.5081043E0,-2.875E-1,1.1763225E0,3.3745304E-1,1.0187752E0,2.8000364E0,-3.6908162E-1,-2.2245832E-1,2.85E-1,-2.0125E-1,3.3166668E-1,3.9968748E0,-2.3916669E-1,2.84375E-1,3.1732646E-1,-3.0453452E-1,1.0336539E-1,3.6791666E0,-4.148611E-1,1.103125E0,3.603125E0,2.125E-1,-1.0065476E-2,2.6924853E0,-1.9741382E-1,2.3731308E0,3.3466933E0,8.9106405E-1,2.3317704E0,6.0716534E-1,-1.6869588E0,4.3752944E-1,-1.6026022E-1,1.1825061E0,5.0816727E0,1.9795061E0],"categories":[],"categories_nodes":[],"categories_segments":[],"categories_sizes":[],"default_left":[1,1,1,1,1,1,1,1,1,1,1,1,1,1,1,0,0,1,0,1,1,1,1,1,0,1,1,0,0,1,1,1,1,1,1,1,1,1,1,0,0,1,0,1,1,0,0,1,1,1,1,0,0,0,0,0,0,0,0,0,0,0,0,0,0,0,0,0,0,0,0,0,0,0,0,0,0,0,0,0,0],"id":1,"left_children":[1,3,5,7,9,11,13,15,17,19,21,23,25,27,29,-1,-1,31,-1,33,35,37,39,41,-1,43,45,-1,-1,47,49,51,53,55,57,59,61,63,65,-1,-1,67,-1,69,71,-1,-1,73,75,77,79,-1,-1,-1,-1,-1,-1,-1,-1,-1,-1,-1,-1,-1,-1,-1,-1,-1,-1,-1,-1,-1,-1,-1,-1,-1,-1,-1,-1,-1,-1],"loss_changes":[2.898208E2,3.214292E1,1.64703E2,1.5594625E0,1.3898136E1,1.0861597E2,8.748718E1,6.0449994E-1,5.349617E-1,1.6631643E1,2.1205776E1,8.7034E1,7.412433E1,4.659471E1,5.0087067E1,0E0,0E0,5.0965023E-1,0E0,2.0565407E1,1.6710648E1,1.6540672E1,1.2896988E1,5.0561005E1,0E0,4.3474396E1,3.2213333E1,0E0,0E0,3.722254E1,1.0826431E2,3.371706E-1,5.6740314E-1,1.616249E1,4.656787E-1,6.6731005E0,1.879745E1,3.7494314E0,6.643341E0,0E0,0E0,3.3670593E1,0E0,3.1615784E1,5.8260864E1,0E0,0E0,6.105922E1,2.565739E1,3.2041855E1,7.231549E1,0E0,0E0,0E0,0E0,0E0,0E0,0E0,0E0,0E0,0E0,0E0,0E0,0E0,0E0,0E0,0E0,0E0,0E0,0E0,0E0,0E0,0E0,0E0,0E0,0E0,0E0,0E0,0E0,0E0,0E0],"parents":[2147483647,0,0,1,1,2,2,3,3,4,4,5,5,6,6,7,7,8,8,9,9,10,10,11,11,12,12,13,13,14,14,17,17,19,19,20,20,21,21,22,22,23,23,25,25,26,26,29,29,30,30,31,31,32,32,33,33,34,34,35,35,36,36,37,37,38,38,41,41,43,43,44,44,47,47,48,48,49,49,50,50],"right_children":[2,4,6,8,10,12,14,16,18,20,22,24,26,28,30,-1,-1,32,-1,34,36,38,40,42,-1,44,46,-1,-1,48,50,52,54,56,58,60,62,64,66,-1,-1,68,-1,70,72,-1,-1,74,76,78,80,-1,-1,-1,-1,-1,-1,-1,-1,-1,-1,-1,-1,-1,-1,-1,-1,-1,-1,-1,-1,-1,-1,-1,-1,-1,-1,-1,-1,-1,-1],"split_conditions":[1.905E0,1.4641025E0,1.7193707E3,3.0952382E-1,5.590278E-2,1.1291666E0,7.9285717E-1,1.535E0,1.5476191E-2,1.6549346E3,7.134375E1,1.4652778E-1,2.5277777E0,1.7770371E3,1.4226191E0,-6E-2,1.575E-1,2.4642859E0,9E-2,9.090909E-3,3E0,3.541667E-2,1.2E0,3.4E0,1.8683779E0,2.1825397E-1,3.5E0,2.0258929E-1,1.4913214E0,8.397436E-1,1.6770833E0,1.0954546E0,3.541667E-1,5E-1,1.77E0,1.9090909E-1,5E-1,1.8199999E0,1.74E0,-5.7E-2,1.0695001E0,7.75E-1,2.0919197E0,9E-1,1.5979658E3,1.6524314E0,-8.625E-2,2.0714286E-1,1.7312788E3,9.083333E-1,1.766575E3,-1.1072449E-1,-6.6737495E-2,8.55E-2,-6.0375E-2,9.950001E-2,1.1990625E0,-7.175001E-2,8.531251E-2,9.519794E-2,-9.136036E-2,3.1009618E-2,1.10375E0,-1.24458335E-1,3.309375E-1,1.0809376E0,6.3750006E-2,-3.019643E-3,8.0774564E-1,-5.9224147E-2,7.119393E-1,1.004008E0,2.6731923E-1,6.9953114E-1,1.821496E-1,-5.0608766E-1,1.3125885E-1,-4.8078068E-2,3.5475183E-1,1.5245019E0,5.9385186E-1],"split_indices":[0,15,2,5,11,14,14,0,10,2,5,11,14,2,13,0,0,13,0,10,3,10,3,3,0,12,4,0,0,13,14,14,12,1,0,8,1,0,0,0,0,3,0,4,2,0,0,12,2,14,2,0,0,0,0,0,0,0,0,0,0,0,0,0,0,0,0,0,0,0,0,0,0,0,0,0,0,0,0,0,0],"split_type":[0,0,0,0,0,0,0,0,0,0,0,0,0,0,0,0,0,0,0,0,0,0,0,0,0,0,0,0,0,0,0,0,0,0,0,0,0,0,0,0,0,0,0,0,0,0,0,0,0,0,0,0,0,0,0,0,0,0,0,0,0,0,0,0,0,0,0,0,0,0,0,0,0,0,0,0,0,0,0,0,0],"sum_hessian":[9.22E2,2.32E2,6.9E2,9.9E1,1.33E2,2.55E2,4.35E2,4E0,9.5E1,1.17E2,1.6E1,7.2E1,1.83E2,1.2E1,4.23E2,1E0,3E0,9.4E1,1E0,1E1,1.07E2,1.1E1,5E0,6.4E1,8E0,1.76E2,7E0,4E0,8E0,2.16E2,2.07E2,8.6E1,8E0,5E0,5E0,1.02E2,5E0,9E0,2E0,1E0,4E0,6.2E1,2E0,7E1,1.06E2,6E0,1E0,9.4E1,1.22E2,1.64E2,4.3E1,2.7E1,5.9E1,3E0,5E0,2E0,3E0,2E0,3E0,8.1E1,2.1E1,3E0,2E0,8E0,1E0,1E0,1E0,5E0,5.7E1,5E0,6.5E1,1E1,9.6E1,3E1,6.4E1,5E0,1.17E2,2E1,1.44E2,1E1,3.3E1],"tree_param":{"num_deleted":"0","num_feature":"16","num_nodes":"81","size_leaf_vector":"0"}},{"base_weights":[8.4790355E-1,6.5283275E-1,1.7602246E0,9.432521E-2,8.5684925E-1,1.0732576E0,2.8800676E0,-1.4843664E-1,4.061702E-1,1.1204015E0,3.526164E-1,1.2666734E0,-6.419713E-1,1.2936914E0,3.4635835E0,2.2317188E0,-1.8853989E-1,2.1896714E-1,1.4981446E0,1.0107197E0,2.2730691E0,4.691952E-1,-4.142241E-1,-7.559791E-1,1.4421387E0,-9.11031E-3,-1.3995825E0,2.078425E0,-2.363792E-1,2.9145713E0,5.949138E0,-1.2316206E-1,-3.78172E-1,1.8005677E0,1.0914323E-1,7.718067E-1,2.9394531E0,1.5680962E0,7.398215E-1,6.616556E-1,4.1825247E0,2.0906362E-1,9.339476E-1,-7.1994916E-2,-1.0526576E0,-1.7441528E-1,-1.2939392E0,9.566757E-1,2.1421955E0,-3.296045E-1,3.1366146E-1,-1.5691235E0,-3.6070925E-1,3.0783186E0,5.654782E-1,2.5383058E-1,-9.7460246E-1,3.6406436E0,1.5585505E0,2.1440036E0,8.266988E0,-1.5615994E-1,1.801707E-1,-1.640239E-1,-5.6710863E-1,2.8375685E0,1.6337769E-1,2.687978E0,3.69951E-2,2.099536E0,-9.7153716E-2,3.798854E0,1.8062499E-1,1.1985353E0,3.255567E0,1.0578239E0,1.4964658E-1,1.2865138E-1,2.0217361E0,2.0334206E-3,1.0276815E0,7.45136E-2,1.4295539E0,-6.677964E-1,2.815555E-1,-1.2075205E0,-5.5719876E-1,-2.4976557E-1,-1.5587419E0,1.466428E0,-1.7907481E-1,3.1199558E0,1.2060714E0,2.9766947E-2,-4.593173E-1,2.9766947E-2,3.9837065E-1,4.018679E0,4.8494506E-1,-4.265579E-2,1.8030741E0,5.146437E-1,-3.9471096E-1,-2.0928152E-1,4.0001497E0,2.0634249E-1,2.4370956E0,2.5119221E0,5.201241E-1],"categories":[],"categories_nodes":[],"categories_segments":[],"categories_sizes":[],"default_left":[1,1,1,1,1,1,1,1,1,1,1,1,1,1,1,0,1,1,1,1,1,1,1,1,1,1,1,1,1,1,1,1,1,1,1,1,1,1,1,1,0,1,1,1,1,0,1,1,1,1,1,0,0,1,1,1,0,1,1,1,0,0,0,0,0,0,0,0,0,0,0,0,0,0,0,0,0,0,0,0,0,0,0,0,0,0,0,0,0,0,0,0,0,0,0,0,0,0,0,0,0,0,0,0,0,0,0,0,0],"id":2,"left_children":[1,3,5,7,9,11,13,15,17,19,21,23,25,27,29,-1,31,33,35,37,39,41,43,45,47,49,51,53,55,57,59,61,63,65,67,69,71,73,75,77,-1,79,81,83,85,-1,87,89,91,93,95,-1,-1,97,99,101,-1,103,105,107,-1,-1,-1,-1,-1,-1,-1,-1,-1,-1,-1,-1,-1,-1,-1,-1,-1,-1,-1,-1,-1,-1,-1,-1,-1,-1,-1,-1,-1,-1,-1,-1,-1,-1,-1,-1,-1,-1,-1,-1,-1,-1,-1,-1,-1,-1,-1,-1,-1],"loss_changes":[1.631145E2,8.674509E1,1.2153479E2,1.5579621E1,7.3758484E1,3.4651924E1,5.1985413E1,1.1493198E1,1.806984E1,4.397473E1,1.7448038E1,3.37415E1,5.2613373E0,2.2103857E1,4.2703247E1,0E0,1.3791633E0,1.3351892E1,1.1340708E1,4.9573273E1,9.261719E1,2.0115406E1,5.604968E0,2.277182E0,2.6838013E1,8.275096E-1,3.1466103E-1,1.6412708E1,2.7805738E0,3.1739502E1,4.401364E1,8.9894783E-1,1.0803323E0,8.025242E0,1.3668857E1,1.174142E1,8.797588E0,6.407303E1,4.263205E1,1.2788618E1,0E0,1.8471083E1,2.5449924E1,3.9796467E0,1.7725945E-2,0E0,7.1668005E-1,3.0368076E1,2.7357483E1,2.0013276E-1,8.4335595E-2,0E0,0E0,1.5122101E1,4.592656E0,1.0488763E0,0E0,3.405487E1,1.7316757E1,1.0833092E0,0E0,0E0,0E0,0E0,0E0,0E0,0E0,0E0,0E0,0E0,0E0,0E0,0E0,0E0,0E0,0E0,0E0,0E0,0E0,0E0,0E0,0E0,0E0,0E0,0E0,0E0,0E0,0E0,0E0,0E0,0E0,0E0,0E0,0E0,0E0,0E0,0E0,0E0,0E0,0E0,0E0,0E0,0E0,0E0,0E0,0E0,0E0,0E0,0E0],"parents":[2147483647,0,0,1,1,2,2,3,3,4,4,5,5,6,6,7,7,8,8,9,9,10,10,11,11,12,12,13,13,14,14,16,16,17,17,18,18,19,19,20,20,21,21,22,22,23,23,24,24,25,25,26,26,27,27,28,28,29,29,30,30,31,31,32,32,33,33,34,34,35,35,36,36,37,37,38,38,39,39,41,41,42,42,43,43,44,44,46,46,47,47,48,48,49,49,50,50,53,53,54,54,55,55,57,57,58,58,59,59],"right_children":[2,4,6,8,10,12,14,16,18,20,22,24,26,28,30,-1,32,34,36,38,40,42,44,46,48,50,52,54,56,58,60,62,64,66,68,70,72,74,76,78,-1,80,82,84,86,-1,88,90,92,94,96,-1,-1,98,100,102,-1,104,106,108,-1,-1,-1,-1,-1,-1,-1,-1,-1,-1,-1,-1,-1,-1,-1,-1,-1,-1,-1,-1,-1,-1,-1,-1,-1,-1,-1,-1,-1,-1,-1,-1,-1,-1,-1,-1,-1,-1,-1,-1,-1,-1,-1,-1,-1,-1,-1,-1,-1],"split_conditions":[2.6396103E0,1.855E0,2.4450002E0,2.9428572E1,1.7937228E3,2.563492E0,1.4835165E-2,3E-1,2.275E0,1.7807507E3,2.0023542E3,6.65641E1,2.3600001E0,2.525E0,2.5E0,6.6951567E-1,1.8090909E0,7.0000005E-1,1.6346155E-2,2.1825397E-1,1.5E0,1.5166667E0,1.4583334E-1,5.032468E-2,5.669643E-2,8.160318E1,1.7979187E3,1.7638374E3,2.585E0,1.7887336E3,8.334375E1,3.4848487E-1,1.4580419E0,1.7797485E3,3.0012987E1,1.7046638E3,1.74E0,8.973863E1,1.7195509E3,9.7222224E-2,1.2547574E0,6.3961044E-2,1.0555556E-1,1.3E0,1.8333334E-2,-5.2324586E-2,2.37E0,2.8944445E0,1.7310336E3,9E-1,2.2649999E0,-4.7073707E-1,-1.0821278E-1,2.967033E-1,2.505E0,2.2E0,-2.9238075E-1,1.3333334E-1,6.904762E-2,2.51E0,2.4800963E0,-4.6847984E-2,5.4051213E-2,-4.9207173E-2,-1.7013259E-1,8.512706E-1,4.901331E-2,8.0639344E-1,1.1098531E-2,6.298608E-1,-2.9146116E-2,1.1396563E0,5.41875E-2,3.595606E-1,9.7667015E-1,3.1734717E-1,4.4893976E-2,3.8595416E-2,6.065209E-1,6.100262E-4,3.0830446E-1,2.2354081E-2,4.2886618E-1,-2.0033891E-1,8.446665E-2,-3.6225617E-1,-1.6715963E-1,-7.492968E-2,-4.676226E-1,4.3992844E-1,-5.3722445E-2,9.3598676E-1,3.618214E-1,8.930084E-3,-1.377952E-1,8.930084E-3,1.195112E-1,1.2056038E0,1.4548352E-1,-1.2796737E-2,5.409223E-1,1.5439312E-1,-1.1841329E-1,-6.2784456E-2,1.200045E0,6.190275E-2,7.311287E-1,7.535767E-1,1.5603723E-1],"split_indices":[15,0,0,5,2,13,11,3,13,2,2,5,0,0,3,0,13,4,11,12,3,14,8,10,11,5,2,2,0,2,5,12,15,2,5,2,0,5,2,7,0,11,8,4,10,0,0,15,2,4,0,0,0,12,0,3,0,12,6,0,0,0,0,0,0,0,0,0,0,0,0,0,0,0,0,0,0,0,0,0,0,0,0,0,0,0,0,0,0,0,0,0,0,0,0,0,0,0,0,0,0,0,0,0,0,0,0,0,0],"split_type":[0,0,0,0,0,0,0,0,0,0,0,0,0,0,0,0,0,0,0,0,0,0,0,0,0,0,0,0,0,0,0,0,0,0,0,0,0,0,0,0,0,0,0,0,0,0,0,0,0,0,0,0,0,0,0,0,0,0,0,0,0,0,0,0,0,0,0,0,0,0,0,0,0,0,0,0,0,0,0,0,0,0,0,0,0,0,0,0,0,0,0,0,0,0,0,0,0,0,0,0,0,0,0,0,0,0,0,0,0],"sum_hessian":[9.22E2,7.61E2,1.61E2,2.04E2,5.57E2,1.01E2,6E1,1.15E2,8.9E1,3.65E2,1.92E2,9.1E1,1E1,1.7E1,4.3E1,1E0,1.14E2,7.7E1,1.2E1,3.35E2,3E1,1.67E2,2.5E1,7E0,8.4E1,6E0,4E0,1.1E1,6E0,3.7E1,6E0,8.6E1,2.8E1,4E0,7.3E1,9E0,3E0,1.08E2,2.27E2,1.7E1,1.3E1,1.08E2,5.9E1,1.7E1,8E0,4E0,3E0,5.1E1,3.3E1,3E0,3E0,3E0,1E0,6E0,5E0,4E0,2E0,2.3E1,1.4E1,3E0,3E0,7.8E1,8E0,1.4E1,1.4E1,2E0,2E0,1E0,7.2E1,3E0,6E0,2E0,1E0,9E1,1.8E1,1.47E2,8E1,1.3E1,4E0,8.7E1,2.1E1,2.2E1,3.7E1,6E0,1.1E1,5E0,3E0,1E0,2E0,3.5E1,1.6E1,1.5E1,1.8E1,1E0,2E0,1E0,2E0,4E0,2E0,4E0,1E0,3E0,1E0,2E0,2.1E1,6E0,8E0,2E0,1E0],"tree_param":{"num_deleted":"0","num_feature":"16","num_nodes":"109","size_leaf_vector":"0"}},{"base_weights":[6.099306E-1,1.9571957E-1,8.4119433E-1,1.2879546E-1,2.8900466E0,6.660615E-1,1.3966471E0,-1.0029955E-2,5.612142E-1,3.472358E0,-5.9306663E-1,8.6201185E-1,2.6179993E-1,8.27229E-1,2.1298637E0,1.04106195E-1,-5.389787E-1,1.9863784E-1,1.6208826E0,4.074911E-1,3.9152539E0,5.7417864E-1,1.1655196E0,1.4062175E-2,6.3946664E-1,1.124443E0,-2.018083E-1,1.8023734E0,4.074191E0,-9.391076E-2,6.422596E-1,1.2910088E-3,-7.911476E-1,4.203795E-1,-5.5996895E-1,3.2794285E0,8.4940547E-1,1.0236593E-1,1.0567768E0,2.1336205E0,7.174985E-1,1.1825778E-1,-1.0817494E0,-2.7617586E-1,1.0813012E0,1.3258655E0,-7.5682506E-2,7.662097E-1,-9.7547686E-1,1.530284E0,4.8209195E0,6.0826406E0,1.6525936E0,1.896961E0,-1.20003596E-1,1.0352979E0,-2.9719645E-1,8.158329E-1,-3.6907268E-1,-5.1989365E-1,-1.2124141E0,1.5470664E-1,1.27579E0,-8.203095E-1,1.4122293E0,3.9812672E0,-1.1488289E-1,1.6889116E0,-6.9133896E-1,3.7404084E-1,-1.1179397E0,2.0135112E0,5.9427416E-1,1.7823049E0,4.1786733E0,-2.3748569E-1,1.0820531E0,4.929178E-1,-9.901478E-2,-1.9108531E0,-2.0211664E-1,-4.4418555E-1,5.069094E-1,6.5404665E-1,2.1482408E0,5.86924E-1,1.8974545E0,-5.675327E-1,1.2611456E0,1.6164709E0,-2.372934E-1,-1.4189037E0,-1.595839E-1,2.3249462E0,8.4726626E-1,1.1740261E0,7.327503E0,2.441904E0,3.124186E-1],"categories":[],"categories_nodes":[],"categories_segments":[],"categories_sizes":[],"default_left":[1,1,1,1,1,1,1,1,1,1,0,1,1,1,1,1,1,1,1,0,0,1,1,1,1,1,1,1,1,1,1,1,1,1,1,1,1,1,1,1,1,1,1,1,1,1,1,1,1,1,0,1,1,0,0,0,0,0,0,0,0,0,0,0,0,0,0,0,0,0,0,0,0,0,0,0,0,0,0,0,0,0,0,0,0,0,0,0,0,0,0,0,0,0,0,0,0,0,0],"id":3,"left_children":[1,3,5,7,9,11,13,15,17,19,-1,21,23,25,27,29,31,33,35,-1,-1,37,39,41,43,45,47,49,51,53,55,57,59,61,63,65,67,69,71,73,75,77,79,81,83,85,87,89,91,93,-1,95,97,-1,-1,-1,-1,-1,-1,-1,-1,-1,-1,-1,-1,-1,-1,-1,-1,-1,-1,-1,-1,-1,-1,-1,-1,-1,-1,-1,-1,-1,-1,-1,-1,-1,-1,-1,-1,-1,-1,-1,-1,-1,-1,-1,-1,-1,-1],"loss_changes":[8.825137E1,5.9492504E1,5.6658325E1,1.9515612E1,1.8285385E1,3.5579605E1,5.7106598E1,1.49680395E1,3.0030678E1,7.906494E0,0E0,2.5888107E1,1.3931791E1,2.5000305E1,3.1498444E1,2.1799273E1,5.9955473E0,1.0328282E1,2.2805035E1,0E0,0E0,3.5867767E1,6.2227386E1,1.0518192E1,2.4167818E1,1.5329483E1,1.4976995E1,3.6973602E1,2.8857117E1,8.019766E0,2.0616009E1,4.826253E0,2.797779E0,1.0483815E1,8.34667E0,1.4750946E1,2.0569576E1,2.7271793E1,3.3317802E1,2.5601456E1,3.5767643E1,6.886687E0,5.4482403E0,2.85648E0,1.6829147E1,2.1694359E1,7.2909336E0,8.0627365E0,3.7532425E0,2.5711334E1,0E0,1.5839523E1,4.5261745E0,0E0,0E0,0E0,0E0,0E0,0E0,0E0,0E0,0E0,0E0,0E0,0E0,0E0,0E0,0E0,0E0,0E0,0E0,0E0,0E0,0E0,0E0,0E0,0E0,0E0,0E0,0E0,0E0,0E0,0E0,0E0,0E0,0E0,0E0,0E0,0E0,0E0,0E0,0E0,0E0,0E0,0E0,0E0,0E0,0E0,0E0],"parents":[2147483647,0,0,1,1,2,2,3,3,4,4,5,5,6,6,7,7,8,8,9,9,11,11,12,12,13,13,14,14,15,15,16,16,17,17,18,18,21,21,22,22,23,23,24,24,25,25,26,26,27,27,28,28,29,29,30,30,31,31,32,32,33,33,34,34,35,35,36,36,37,37,38,38,39,39,40,40,41,41,42,42,43,43,44,44,45,45,46,46,47,47,48,48,49,49,51,51,52,52],"right_children":[2,4,6,8,10,12,14,16,18,20,-1,22,24,26,28,30,32,34,36,-1,-1,38,40,42,44,46,48,50,52,54,56,58,60,62,64,66,68,70,72,74,76,78,80,82,84,86,88,90,92,94,-1,96,98,-1,-1,-1,-1,-1,-1,-1,-1,-1,-1,-1,-1,-1,-1,-1,-1,-1,-1,-1,-1,-1,-1,-1,-1,-1,-1,-1,-1,-1,-1,-1,-1,-1,-1,-1,-1,-1,-1,-1,-1,-1,-1,-1,-1,-1,-1],"split_conditions":[2.2150002E0,8.730159E-2,2.6396103E0,2.1825397E-2,1.9440835E3,1.7937228E3,2.4450002E0,6.2555557E1,4.1428573E-2,7.0000005E-1,-1.7792E-1,5E-1,1.5166667E0,1.4835165E-1,2.5E0,3.2875E1,3.125E-3,3.3333335E-2,2.267857E0,1.2224733E-1,1.1745762E0,1.1805556E-2,3.5714286E-3,4.1666668E-2,1.5E0,2.1825397E-1,2.365E0,2.1333334E-1,1.4583334E-1,2.6785713E-1,4.2261906E-2,1.2678571E0,2.0749998E0,1.3392857E-2,9.4017096E-2,2.115E0,6.201923E-2,1.8090909E0,5.5516666E1,5.5E-2,5.1190475E1,1.0357143E0,3.0952383E-2,2.0450645E3,1.7E0,7.7380955E-2,2.3616073E-1,1.8070797E3,2.41E0,1.7479033E3,1.446276E0,6E-1,5E-1,5.6908834E-1,-3.600108E-2,3.1058937E-1,-8.915894E-2,2.4474989E-1,-1.10721804E-1,-1.559681E-1,-3.6372426E-1,4.6411995E-2,3.82737E-1,-2.4609287E-1,4.236688E-1,1.1943802E0,-3.4464866E-2,5.066735E-1,-2.074017E-1,1.12212256E-1,-3.3538193E-1,6.040534E-1,1.7828226E-1,5.346915E-1,1.253602E0,-7.124571E-2,3.2461593E-1,1.4787535E-1,-2.9704435E-2,-5.7325596E-1,-6.0634993E-2,-1.3325568E-1,1.5207282E-1,1.96214E-1,6.4447224E-1,1.7607722E-1,5.692364E-1,-1.7025982E-1,3.783437E-1,4.849413E-1,-7.1188025E-2,-4.2567113E-1,-4.787517E-2,6.974839E-1,2.541799E-1,3.5220784E-1,2.198251E0,7.3257124E-1,9.3725584E-2],"split_indices":[0,11,15,10,2,2,0,5,11,4,0,1,14,6,3,5,10,7,15,0,0,11,11,7,4,7,0,11,6,13,11,14,0,11,6,0,11,14,5,10,5,14,11,2,3,7,11,2,0,2,0,4,1,0,0,0,0,0,0,0,0,0,0,0,0,0,0,0,0,0,0,0,0,0,0,0,0,0,0,0,0,0,0,0,0,0,0,0,0,0,0,0,0,0,0,0,0,0,0],"split_type":[0,0,0,0,0,0,0,0,0,0,0,0,0,0,0,0,0,0,0,0,0,0,0,0,0,0,0,0,0,0,0,0,0,0,0,0,0,0,0,0,0,0,0,0,0,0,0,0,0,0,0,0,0,0,0,0,0,0,0,0,0,0,0,0,0,0,0,0,0,0,0,0,0,0,0,0,0,0,0,0,0,0,0,0,0,0,0,0,0,0,0,0,0,0,0,0,0,0,0],"sum_hessian":[9.22E2,3.31E2,5.91E2,3.24E2,7E0,4.51E2,1.4E2,2.46E2,7.8E1,6E0,1E0,3.03E2,1.48E2,8E1,6E1,2.03E2,4.3E1,5.9E1,1.9E1,1E0,5E0,1.57E2,1.46E2,9E1,5.8E1,6.2E1,1.8E1,5.3E1,7E0,1.49E2,5.4E1,1.4E1,2.9E1,4.6E1,1.3E1,5E0,1.4E1,8E1,7.7E1,4.5E1,1.01E2,8.3E1,7E0,1.9E1,3.9E1,5.3E1,9E0,8E0,1E1,5E1,3E0,3E0,4E0,1E0,1.48E2,3.8E1,1.6E1,4E0,1E1,1.9E1,1E1,3.6E1,1E1,1.2E1,1E0,4E0,1E0,9E0,5E0,6.6E1,1.4E1,2.4E1,5.3E1,4E1,5E0,2.8E1,7.3E1,3E1,5.3E1,3E0,4E0,1.6E1,3E0,2.9E1,1E1,2.4E1,2.9E1,7E0,2E0,4E0,4E0,6E0,4E0,2.2E1,2.8E1,1E0,2E0,2E0,2E0],"tree_param":{"num_deleted":"0","num_feature":"16","num_nodes":"99","size_leaf_vector":"0"}},{"base_weights":[4.4121638E-1,3.371139E-1,9.281602E-1,2.9981978E-2,4.4934493E-1,5.2590275E-1,1.5855718E0,5.7190517E-3,2.4898095E0,8.413658E-1,3.2589862E-1,4.4938645E-1,2.9011443E0,2.04983E0,6.0365945E-1,1.3449359E-1,-3.370153E-1,7.339819E-1,4.1210017E0,4.5545357E-1,-1.9159137E-1,3.4439155E-1,2.0369081E0,1.5782112E0,4.5379043E0,-1.0969707E0,1.0683354E0,2.2403408E-2,1.305406E0,-2.5908682E-1,-7.722004E-1,1.6206344E0,4.7469848E-1,1.5698735E-1,6.862582E-1,-8.532267E-1,1.2565239E-1,-6.3330394E-1,5.9714836E-1,2.6172678E0,8.77124E-1,-7.094884E-2,-1.3357389E0,-3.0548203E-1,1.6662163E0,7.083467E-1,-6.143036E-2,2.6173902E-1,1.9249804E0,-3.9054182E-1,1.1330938E-2,-1.1577789E0,-3.092976E-1,2.9716907E0,-5.410025E-1,3.493742E-1,2.4216578E0,-2.406457E-1,7.574477E-1,9.055549E-1,-7.195695E-2,-7.7037394E-2,-1.2801632E0,-1.638029E-1,1.7519376E0,-9.1586566E-1,7.259096E-1,-1.8780342E-1,8.808419E-1,1.5357362E0,4.937163E0,1.5529349E0,1.2821943E-1,-6.4196104E-1,2.4498399E-1,1.9779675E0,-8.8152385E-1],"categories":[],"categories_nodes":[],"categories_segments":[],"categories_sizes":[],"default_left":[1,1,1,1,1,1,1,1,0,1,1,1,0,1,1,1,1,1,0,1,1,1,0,1,0,1,1,1,1,1,1,1,1,1,1,1,1,1,1,1,1,0,0,1,1,0,0,0,0,0,0,0,0,0,0,0,0,0,0,0,0,0,0,0,0,0,0,0,0,0,0,0,0,0,0,0,0],"id":4,"left_children":[1,3,5,7,9,11,13,15,-1,17,19,21,-1,23,25,27,29,31,-1,33,35,37,-1,39,-1,41,43,45,47,49,51,53,55,57,59,61,63,65,67,69,71,-1,-1,73,75,-1,-1,-1,-1,-1,-1,-1,-1,-1,-1,-1,-1,-1,-1,-1,-1,-1,-1,-1,-1,-1,-1,-1,-1,-1,-1,-1,-1,-1,-1,-1,-1],"loss_changes":[4.6475876E1,2.6252464E1,4.2006836E1,1.2220696E1,2.67294E1,1.7234217E1,2.6570099E1,9.04896E0,0E0,4.3815224E1,2.864774E1,1.5966681E1,0E0,4.0948563E1,1.7767014E1,1.952667E1,1.6990786E0,2.9116943E1,0E0,2.3382866E1,1.8158583E1,2.38545E1,0E0,2.3929214E1,0E0,1.1301379E0,1.4472446E1,7.921729E0,7.90234E0,1.7462654E0,1.0697846E0,8.630198E1,2.4042068E1,3.599671E1,3.1989784E1,9.18012E0,2.806045E1,8.346071E0,1.7089546E1,2.7544388E1,1.1441593E1,0E0,0E0,1.2685916E0,1.1274757E1,0E0,0E0,0E0,0E0,0E0,0E0,0E0,0E0,0E0,0E0,0E0,0E0,0E0,0E0,0E0,0E0,0E0,0E0,0E0,0E0,0E0,0E0,0E0,0E0,0E0,0E0,0E0,0E0,0E0,0E0,0E0,0E0],"parents":[2147483647,0,0,1,1,2,2,3,3,4,4,5,5,6,6,7,7,9,9,10,10,11,11,13,13,14,14,15,15,16,16,17,17,19,19,20,20,21,21,23,23,25,25,26,26,27,27,28,28,29,29,30,30,31,31,32,32,33,33,34,34,35,35,36,36,37,37,38,38,39,39,40,40,43,43,44,44],"right_children":[2,4,6,8,10,12,14,16,-1,18,20,22,-1,24,26,28,30,32,-1,34,36,38,-1,40,-1,42,44,46,48,50,52,54,56,58,60,62,64,66,68,70,72,-1,-1,74,76,-1,-1,-1,-1,-1,-1,-1,-1,-1,-1,-1,-1,-1,-1,-1,-1,-1,-1,-1,-1,-1,-1,-1,-1,-1,-1,-1,-1,-1,-1,-1,-1],"split_conditions":[2.6396103E0,2.9428572E1,2.4450002E0,2.4285716E-1,1.692815E3,2.0365776E3,1.2916666E-1,6.4583337E-3,7.469429E-1,1.6897848E3,4.5804195E-2,2.5E0,8.703433E-1,3.0625E0,6.904762E-2,9.545455E-3,4.4949494E-2,2.0714286E-1,1.2363006E0,1.4226191E0,1.7421157E3,8.012821E-2,6.110725E-1,9.5454544E-2,1.3613713E0,2.4650002E0,7.0000005E-1,6.333333E-1,2.792208E-1,1.5476191E-2,2E0,1.0954546E0,7.735043E-2,1.6306818E0,2.2071428E0,1.0416667E-2,8.01948E-2,1.6025642E-1,8.063095E1,1.7E0,8.012821E-2,-2.1284653E-2,-4.007217E-1,1.5190476E-1,2.57E0,2.1250403E-1,-1.842911E-2,7.8521706E-2,5.7749414E-1,-1.1716255E-1,3.3992815E-3,-3.4733367E-1,-9.278928E-2,8.915072E-1,-1.6230077E-1,1.04812264E-1,7.2649735E-1,-7.219371E-2,2.2723432E-1,2.7166647E-1,-2.1587085E-2,-2.3111219E-2,-3.8404897E-1,-4.9140874E-2,5.255813E-1,-2.747597E-1,2.1777289E-1,-5.6341026E-2,2.6425257E-1,4.6072087E-1,1.481149E0,4.6588048E-1,3.8465828E-2,-1.9258831E-1,7.34952E-2,5.933903E-1,-2.6445717E-1],"split_indices":[15,5,0,8,2,2,6,11,0,2,10,4,0,15,8,10,11,12,0,14,2,8,0,8,0,0,4,3,12,11,3,13,10,13,15,11,11,7,5,3,7,0,0,10,0,0,0,0,0,0,0,0,0,0,0,0,0,0,0,0,0,0,0,0,0,0,0,0,0,0,0,0,0,0,0,0,0],"split_type":[0,0,0,0,0,0,0,0,0,0,0,0,0,0,0,0,0,0,0,0,0,0,0,0,0,0,0,0,0,0,0,0,0,0,0,0,0,0,0,0,0,0,0,0,0,0,0,0,0,0,0,0,0,0,0,0,0,0,0,0,0,0,0,0,0,0,0,0,0,0,0,0,0,0,0,0,0],"sum_hessian":[9.22E2,7.61E2,1.61E2,2.04E2,5.57E2,1.01E2,6E1,2.03E2,1E0,1.32E2,4.25E2,9.9E1,2E0,4E1,2E1,1.48E2,5.5E1,1.29E2,3E0,3.4E2,8.5E1,9.4E1,5E0,3.5E1,5E0,4E0,1.6E1,1.36E2,1.2E1,4.8E1,7E0,2.8E1,1.01E2,1.49E2,1.91E2,2.7E1,5.8E1,1.9E1,7.5E1,1.3E1,2.2E1,1E0,3E0,5E0,1.1E1,1.4E1,1.22E2,5E0,7E0,3.2E1,1.6E1,3E0,4E0,1.7E1,1.1E1,9.6E1,5E0,9E1,5.9E1,1.48E2,4.3E1,1E1,1.7E1,5E1,8E0,1.6E1,3E0,2E1,5.5E1,1E1,3E0,1.1E1,1.1E1,3E0,2E0,1E1,1E0],"tree_param":{"num_deleted":"0","num_feature":"16","num_nodes":"77","size_leaf_vector":"0"}},{"base_weights":[3.1918964E-1,8.248633E-2,4.5139623E-1,1.8995307E-2,1.1889967E0,4.255245E-1,2.0800302E0,-5.9123587E-2,3.387244E-1,1.7876873E0,-3.0633253E-1,4.026352E-1,2.0232248E0,2.349037E0,-3.6011934E-2,2.5188219E-2,-4.620933E-1,1.1389351E-1,1.2660286E0,2.522531E0,5.0994784E-1,2.3364523E-1,-9.24192E-1,1.6767265E-1,5.73079E-1,2.727722E0,-6.0177326E-2,4.11551E-2,2.6728551E0,7.842118E-2,-5.499442E-1,4.1847017E-1,-6.12142E-1,-2.85576E-1,5.407648E-1,2.0019555E0,1.9644253E-1,2.806314E0,2.6802564E-1,-2.137344E-1,9.252225E-1,-5.984226E-3,4.762668E-1,6.456888E-1,-7.3830396E-2,1.6628917E0,4.600616E-1,8.1835294E-1,2.945925E0,4.1504693E-1,-5.053129E-1,-3.9606474E-2,5.4852104E-1,1.1280501E-1,-6.900144E-1,-6.2666726E-1,6.971043E-1,-6.7082655E-1,2.9612E-1,8.313338E-1,-6.442804E-1,-2.0572882E-2,1.3848287E0,2.428475E-1,2.2546656E0,-6.2127316E-1,1.2212492E0,8.281996E-1,2.9979663E0,2.7213466E-1,1.0522069E0,-2.9239178E-2,2.026284E-2,2.712375E0,4.4684023E-1,-1.0009773E0,7.792995E-2,3.5070518E-1,2.7228863E0,-1.6289079E-1,6.301654E-1],"categories":[],"categories_nodes":[],"categories_segments":[],"categories_sizes":[],"default_left":[1,1,1,1,1,1,1,1,1,1,1,1,1,1,0,1,1,1,1,1,1,1,0,1,1,1,1,0,0,1,1,1,1,1,1,1,1,1,0,0,1,1,0,1,1,1,1,0,0,0,0,0,0,0,0,0,0,0,0,0,0,0,0,0,0,0,0,0,0,0,0,0,0,0,0,0,0,0,0,0,0],"id":5,"left_children":[1,3,5,7,9,11,13,15,17,19,21,23,25,27,-1,29,31,33,35,37,39,41,-1,43,45,47,49,-1,-1,51,53,55,57,59,61,63,65,67,-1,-1,69,71,-1,73,75,77,79,-1,-1,-1,-1,-1,-1,-1,-1,-1,-1,-1,-1,-1,-1,-1,-1,-1,-1,-1,-1,-1,-1,-1,-1,-1,-1,-1,-1,-1,-1,-1,-1,-1,-1],"loss_changes":[2.8846886E1,2.3301569E1,2.4059181E1,7.887745E0,1.666194E1,2.0542404E1,5.207657E0,8.641315E0,1.27819805E1,1.0919846E1,2.2177155E0,2.3011559E1,1.1906147E1,5.8686676E0,0E0,6.503104E0,6.06977E0,8.851055E0,9.052378E0,4.3661575E0,2.0009136E0,2.3540719E-1,0E0,2.8215607E1,4.0372986E1,8.897781E-2,8.443462E-1,0E0,0E0,1.0785773E1,1.7488027E0,2.4753294E0,2.224081E0,1.1352905E1,1.187361E1,2.564272E0,5.7867327E0,1.7086029E-1,0E0,0E0,4.53856E-2,2.4235914E-3,0E0,3.2486526E1,2.3012781E1,4.21633E1,3.2316475E1,0E0,0E0,0E0,0E0,0E0,0E0,0E0,0E0,0E0,0E0,0E0,0E0,0E0,0E0,0E0,0E0,0E0,0E0,0E0,0E0,0E0,0E0,0E0,0E0,0E0,0E0,0E0,0E0,0E0,0E0,0E0,0E0,0E0,0E0],"parents":[2147483647,0,0,1,1,2,2,3,3,4,4,5,5,6,6,7,7,8,8,9,9,10,10,11,11,12,12,13,13,15,15,16,16,17,17,18,18,19,19,20,20,21,21,23,23,24,24,25,25,26,26,29,29,30,30,31,31,32,32,33,33,34,34,35,35,36,36,37,37,40,40,41,41,43,43,44,44,45,45,46,46],"right_children":[2,4,6,8,10,12,14,16,18,20,22,24,26,28,-1,30,32,34,36,38,40,42,-1,44,46,48,50,-1,-1,52,54,56,58,60,62,64,66,68,-1,-1,70,72,-1,74,76,78,80,-1,-1,-1,-1,-1,-1,-1,-1,-1,-1,-1,-1,-1,-1,-1,-1,-1,-1,-1,-1,-1,-1,-1,-1,-1,-1,-1,-1,-1,-1,-1,-1,-1,-1],"split_conditions":[2.2150002E0,7.386364E-2,2.3616073E-1,3.0384615E-2,3.875E-1,2.669643E0,1.8986456E3,6.2555557E1,4.0659342E-2,6.940972E1,1.2698413E-1,1.1E0,1.3392857E-2,8.064835E1,-1.080358E-2,4.4949494E-2,1.05E0,5E-1,4.6060607E-2,1.9738616E3,1.1E0,1.8299999E0,-2.7725762E-1,2.355E0,1.6632634E3,5E-1,2.35E0,1.234653E-2,8.018566E-1,1.0555556E-2,1.9090909E-1,6.817708E1,2.0318745E3,1.6989026E3,1.8074365E3,1.72E0,7.5961545E-2,1.6439844E3,8.0407694E-2,-6.412032E-2,1.8399999E0,1.5450001E0,1.4288005E-1,1.6458333E0,1.656293E3,5E-1,2.315E0,2.4550588E-1,8.8377756E-1,1.2451408E-1,-1.5159388E-1,-1.1881943E-2,1.6455632E-1,3.3841506E-2,-2.0700434E-1,-1.8800019E-1,2.0913129E-1,-2.0124798E-1,8.8836E-2,2.4940015E-1,-1.9328412E-1,-6.171865E-3,4.1544864E-1,7.285425E-2,6.763997E-1,-1.8638195E-1,3.663748E-1,2.4845989E-1,8.993899E-1,8.16404E-2,3.156621E-1,-8.771754E-3,6.078852E-3,8.1371254E-1,1.3405207E-1,-3.002932E-1,2.3378987E-2,1.05211556E-1,8.168659E-1,-4.886724E-2,1.8904963E-1],"split_indices":[0,11,11,10,12,14,2,5,11,5,8,3,11,5,0,11,14,1,10,2,3,0,0,0,2,1,0,0,0,11,12,5,2,2,2,0,10,2,0,0,0,0,0,15,2,1,0,0,0,0,0,0,0,0,0,0,0,0,0,0,0,0,0,0,0,0,0,0,0,0,0,0,0,0,0,0,0,0,0,0,0],"split_type":[0,0,0,0,0,0,0,0,0,0,0,0,0,0,0,0,0,0,0,0,0,0,0,0,0,0,0,0,0,0,0,0,0,0,0,0,0,0,0,0,0,0,0,0,0,0,0,0,0,0,0,0,0,0,0,0,0,0,0,0,0,0,0,0,0,0,0,0,0,0,0,0,0,0,0,0,0,0,0,0,0],"sum_hessian":[9.22E2,3.31E2,5.91E2,3.14E2,1.7E1,5.83E2,8E0,2.53E2,6.1E1,1.2E1,5E0,5.76E2,7E0,7E0,1E0,2.1E2,4.3E1,5E1,1.1E1,7E0,5E0,3E0,2E0,2.43E2,3.33E2,5E0,2E0,1E0,6E0,1.93E2,1.7E1,6E0,3.7E1,2.6E1,2.4E1,6E0,5E0,6E0,1E0,2E0,3E0,2E0,1E0,8.1E1,1.62E2,3E1,3.03E2,1E0,4E0,1E0,1E0,1.55E2,3.8E1,3E0,1.4E1,1E0,5E0,3.5E1,2E0,6E0,2E1,1.5E1,9E0,1E0,5E0,3E0,2E0,1E0,5E0,1E0,2E0,1E0,1E0,6E0,7.5E1,2.2E1,1.4E2,1.4E1,1.6E1,6.5E1,2.38E2],"tree_param":{"num_deleted":"0","num_feature":"16","num_nodes":"81","size_leaf_vector":"0"}},{"base_weights":[2.3030809E-1,-1.140716E-2,3.2159966E-1,-4.8553567E-2,2.3223817E0,1.6624616E-1,4.9826086E-1,8.7401524E-2,-3.0584133E-1,3.277391E0,-2.7132308E-1,5.229122E-1,-4.945097E-2,4.3921742E-1,1.9426662E0,1.3084523E-1,-1.3289664E0,-6.300153E-1,2.5283575E-2,1.3995689E0,-1.7606562E-1,-3.400037E-1,2.0977625E-1,5.5501056E-1,-2.1726209E-1,3.7628025E-1,2.6788242E0,2.146935E-2,9.0087175E-1,-1.5616819E0,-1.9905221E-1,-7.9171175E-1,7.89559E-1,-1.0847558E-1,6.407592E-1,2.036745E0,5.9862655E-1,1.2324971E0,-6.0281247E-1,-5.116565E-1,6.5752184E-1,1.3603538E-1,2.2958174E0,9.346663E-2,8.0318713E-1,-3.4656924E-1,1.2271054E0,-4.2090905E-1,1.0480428E0,1.3020837E0,3.2444515E0,7.3907055E-2,-6.7809904E-1,1.9292772E0,1.9870903E-1,-5.442505E-1,-1.4796703E0,1.5796286E0,-2.6369694E-1,4.0942177E-1,-2.4296568E-1,1.5242188E0,-1.9416027E-1,2.3715665E0,1.347873E-1,2.7434802E0,-1.11037135E-1,2.3130765E0,-7.959958E-1,1.5619481E0,-7.466737E-1,-5.782061E-1,2.738904E0,1.7935001E0,-2.1877386E-2,5.2061237E-2,1.2631788E0,2.8964126E0,2.470156E-1,-3.1144375E-1,1.0647892E0,1.4430453E0,4.846439E-1,-7.17034E-1,3.927672E-1],"categories":[],"categories_nodes":[],"categories_segments":[],"categories_sizes":[],"default_left":[1,1,1,1,1,1,1,1,1,0,0,1,1,1,1,1,1,1,1,1,1,1,1,1,1,1,1,1,1,0,0,1,1,1,1,1,1,1,1,1,1,1,1,1,1,1,0,0,0,0,0,0,0,0,0,0,0,0,0,0,0,0,0,0,0,0,0,0,0,0,0,0,0,0,0,0,0,0,0,0,0,0,0,0,0],"id":6,"left_children":[1,3,5,7,9,11,13,15,17,-1,-1,19,21,23,25,27,29,31,33,35,37,39,41,43,45,47,49,51,53,-1,-1,55,57,59,61,63,65,67,69,71,73,75,77,79,81,83,-1,-1,-1,-1,-1,-1,-1,-1,-1,-1,-1,-1,-1,-1,-1,-1,-1,-1,-1,-1,-1,-1,-1,-1,-1,-1,-1,-1,-1,-1,-1,-1,-1,-1,-1,-1,-1,-1,-1],"loss_changes":[2.0371109E1,2.2132496E1,1.8305275E1,8.806606E0,1.0797279E1,2.7567455E1,2.5840225E1,1.0326715E1,9.35469E0,0E0,0E0,8.29695E1,1.694282E1,2.3077358E1,1.28293E1,1.3540454E1,1.0038862E0,1.0724867E1,3.6918287E0,2.9401237E1,4.642654E1,1.8486597E1,1.7993038E1,2.9362839E1,9.0165615E0,3.11874E0,2.00523E0,5.2592106E0,1.4058796E1,0E0,0E0,6.0044117E0,4.5772705E0,2.6766021E0,6.196883E0,2.0695282E1,4.2924126E1,4.1296257E1,1.9540346E1,2.1269093E1,1.238776E1,1.0913742E1,4.206545E0,3.612179E1,3.333898E1,1.2059246E1,0E0,0E0,0E0,0E0,0E0,0E0,0E0,0E0,0E0,0E0,0E0,0E0,0E0,0E0,0E0,0E0,0E0,0E0,0E0,0E0,0E0,0E0,0E0,0E0,0E0,0E0,0E0,0E0,0E0,0E0,0E0,0E0,0E0,0E0,0E0,0E0,0E0,0E0,0E0],"parents":[2147483647,0,0,1,1,2,2,3,3,4,4,5,5,6,6,7,7,8,8,11,11,12,12,13,13,14,14,15,15,16,16,17,17,18,18,19,19,20,20,21,21,22,22,23,23,24,24,25,25,26,26,27,27,28,28,31,31,32,32,33,33,34,34,35,35,36,36,37,37,38,38,39,39,40,40,41,41,42,42,43,43,44,44,45,45],"right_children":[2,4,6,8,10,12,14,16,18,-1,-1,20,22,24,26,28,30,32,34,36,38,40,42,44,46,48,50,52,54,-1,-1,56,58,60,62,64,66,68,70,72,74,76,78,80,82,84,-1,-1,-1,-1,-1,-1,-1,-1,-1,-1,-1,-1,-1,-1,-1,-1,-1,-1,-1,-1,-1,-1,-1,-1,-1,-1,-1,-1,-1,-1,-1,-1,-1,-1,-1,-1,-1,-1,-1],"split_conditions":[3.832967E1,2.361111E-1,1.4226191E0,3.125E-3,2.3249998E0,2.0714286E-1,2.116883E0,2.545E0,1.7591279E3,9.832173E-1,-8.139693E-2,1.5669643E0,1.1805556E-2,1.2916666E-1,1.6742175E3,9.545455E-3,2.5949998E0,2.4650002E0,1.6770833E0,1.846591E-1,7.136364E-1,2.1E0,2.2539682E0,2.9285717E-1,1.7032967E0,6.460715E1,2.3449998E0,6.9047622E-3,1.741509E3,-4.6850458E-1,-5.9715666E-2,3.0577274E1,1.7108779E3,1.7862908E3,1.7207792E0,1.8383687E3,8.333333E-3,1.4835165E-1,5E-1,2.5357141E0,5.611282E1,4.2261904E-1,2.475E0,8.9683334E1,3.6038962E-1,3.436508E0,3.6813164E-1,-1.2627272E-1,3.1441283E-1,3.9062515E-1,9.733355E-1,2.2172118E-2,-2.0342971E-1,5.7878315E-1,5.961271E-2,-1.6327515E-1,-4.439011E-1,4.738886E-1,-7.910909E-2,1.2282654E-1,-7.288971E-2,4.5726565E-1,-5.8248084E-2,7.1147E-1,4.0436193E-2,8.230441E-1,-3.3311144E-2,6.93923E-1,-2.3879874E-1,4.6858445E-1,-2.2400212E-1,-1.7346184E-1,8.2167125E-1,5.3805006E-1,-6.563216E-3,1.5618372E-2,3.7895367E-1,8.6892384E-1,7.410468E-2,-9.343313E-2,3.1943676E-1,4.329136E-1,1.4539318E-1,-2.151102E-1,1.17830165E-1],"split_indices":[5,8,13,11,0,12,14,0,2,0,0,14,10,6,2,10,0,0,14,12,13,4,14,12,14,5,0,10,2,0,0,5,2,2,14,2,11,7,3,15,5,12,0,5,12,15,0,0,0,0,0,0,0,0,0,0,0,0,0,0,0,0,0,0,0,0,0,0,0,0,0,0,0,0,0,0,0,0,0,0,0,0,0,0,0],"split_type":[0,0,0,0,0,0,0,0,0,0,0,0,0,0,0,0,0,0,0,0,0,0,0,0,0,0,0,0,0,0,0,0,0,0,0,0,0,0,0,0,0,0,0,0,0,0,0,0,0,0,0,0,0,0,0,0,0,0,0,0,0,0,0,0,0,0,0,0,0,0,0,0,0,0,0,0,0,0,0,0,0,0,0,0,0],"sum_hessian":[9.22E2,2.53E2,6.69E2,2.5E2,3E0,3.57E2,3.12E2,1.64E2,8.6E1,2E0,1E0,1.34E2,2.23E2,3.01E2,1.1E1,1.6E2,4E0,4.3E1,4.3E1,5.9E1,7.5E1,1.05E2,1.18E2,2.56E2,4.5E1,4E0,7E0,1.41E2,1.9E1,3E0,1E0,3.9E1,4E0,3.6E1,7E0,3.2E1,2.7E1,1.7E1,5.8E1,9E1,1.5E1,1.15E2,3E0,9E1,1.66E2,4.2E1,3E0,2E0,2E0,3E0,4E0,1.32E2,9E0,7E0,1.2E1,3E1,9E0,2E0,2E0,7E0,2.9E1,3E0,4E0,2.7E1,5E0,6E0,2.1E1,1.1E1,6E0,3E0,5.5E1,8.9E1,1E0,5E0,1E1,1.08E2,7E0,2E0,1E0,6.4E1,2.6E1,5.4E1,1.12E2,2.8E1,1.4E1],"tree_param":{"num_deleted":"0","num_feature":"16","num_nodes":"85","size_leaf_vector":"0"}},{"base_weights":[1.7037405E-1,1.5172789E0,1.5693961E-1,1.6876725E0,7.706499E-2,5.347866E-2,2.7198508E-1,-4.895744E-2,3.854776E-1,2.3889416E-1,1.8043916E0,-7.182271E-2,1.1470305E0,2.9426324E-1,1.9782922E0,6.6486603E-1,1.6976275E-1,3.6655054E0,2.6291713E-1,-1.420489E-1,3.4293935E-1,1.3986939E0,-1.8147492E-1,1.02432236E-1,1.1427896E0,3.320752E0,-4.7108486E-1,1.8892485E-1,2.048365E0,3.868578E-3,4.4502288E-1,8.655985E-1,-2.5482318E-1,-2.8493864E-2,-4.3539816E-1,2.169867E0,1.0742881E-1,1.785239E-1,1.6070231E0,-8.9706147E-1,3.6476484E-1,1.8865558E0,-5.079985E-1,1.3404577E0,4.6308174E0,8.778883E-1,-3.9736146E-1,2.5607316E0,8.5302675E-1,4.223195E-1,-1.2074809E-1,5.843433E-1,-5.80984E-1,-5.3058434E-1,1.39586525E-2],"categories":[],"categories_nodes":[],"categories_segments":[],"categories_sizes":[],"default_left":[1,1,1,0,0,1,1,1,1,1,1,1,1,1,1,1,1,0,1,1,1,1,0,1,1,1,0,1,1,1,1,0,1,0,0,0,0,0,0,0,0,0,0,0,0,0,0,0,0,0,0,0,0,0,0],"id":7,"left_children":[1,3,5,-1,-1,7,9,11,13,15,17,19,21,23,25,27,29,-1,31,33,35,37,-1,39,41,43,-1,45,47,49,51,-1,53,-1,-1,-1,-1,-1,-1,-1,-1,-1,-1,-1,-1,-1,-1,-1,-1,-1,-1,-1,-1,-1,-1],"loss_changes":[1.6463486E1,2.0785713E0,1.087644E1,0E0,0E0,1.6445063E1,2.1525833E1,1.0200621E1,1.5980642E1,1.2402548E1,2.485601E1,1.0650998E1,2.594181E0,1.762527E1,2.1293497E1,3.84624E1,1.6756985E1,0E0,2.0927691E0,1.0380713E1,2.2570715E1,1.2382917E0,0E0,2.3925198E1,2.551438E1,4.1698456E0,0E0,1.852568E1,7.0023994E0,1.2044565E1,2.006573E1,0E0,3.0388463E-1,0E0,0E0,0E0,0E0,0E0,0E0,0E0,0E0,0E0,0E0,0E0,0E0,0E0,0E0,0E0,0E0,0E0,0E0,0E0,0E0,0E0,0E0],"parents":[2147483647,0,0,1,1,2,2,5,5,6,6,7,7,8,8,9,9,10,10,11,11,12,12,13,13,14,14,15,15,16,16,18,18,19,19,20,20,21,21,23,23,24,24,25,25,27,27,28,28,29,29,30,30,32,32],"right_children":[2,4,6,-1,-1,8,10,12,14,16,18,20,22,24,26,28,30,-1,32,34,36,38,-1,40,42,44,-1,46,48,50,52,-1,54,-1,-1,-1,-1,-1,-1,-1,-1,-1,-1,-1,-1,-1,-1,-1,-1,-1,-1,-1,-1,-1,-1],"split_conditions":[7.416667E-1,2.53E0,1.0555556E-1,5.0630176E-1,2.3119498E-2,1.6961539E0,3.1E0,1.4920636E-1,8.979286E1,1.6655621E3,5.357143E-2,8.99375E1,1.1E0,2.4772727E0,5.5555556E-2,1.6565149E3,1.5E0,1.0996517E0,2.020202E-1,2.1055555E0,1.6549346E3,7.0000005E-1,-5.444248E-2,1.7008003E3,2.90625E0,2.3449998E0,-1.4132546E-1,2.33E0,2.5E-2,7.3030305E-1,1.9019617E3,2.5967956E-1,2.31E0,-8.54816E-3,-1.3061945E-1,6.5096015E-1,3.2228645E-2,5.3557172E-2,4.8210695E-1,-2.6911846E-1,1.0942946E-1,5.659668E-1,-1.5239957E-1,4.021373E-1,1.3892453E0,2.6336652E-1,-1.1920844E-1,7.6821953E-1,2.5590804E-1,1.2669586E-1,-3.622443E-2,1.75303E-1,-1.742952E-1,-1.591753E-1,4.187596E-3],"split_indices":[14,0,8,0,0,14,3,11,5,2,11,5,4,15,6,2,3,0,8,15,2,3,0,2,15,0,0,0,11,13,2,0,0,0,0,0,0,0,0,0,0,0,0,0,0,0,0,0,0,0,0,0,0,0,0],"split_type":[0,0,0,0,0,0,0,0,0,0,0,0,0,0,0,0,0,0,0,0,0,0,0,0,0,0,0,0,0,0,0,0,0,0,0,0,0,0,0,0,0,0,0,0,0,0,0,0,0,0,0,0,0,0,0],"sum_hessian":[9.22E2,8E0,9.14E2,7E0,1E0,4.82E2,4.32E2,3.69E2,1.13E2,4.24E2,8E0,3.63E2,6E0,1.08E2,5E0,5.8E1,3.66E2,3E0,5E0,3.11E2,5.2E1,5E0,1E0,8.9E1,1.9E1,3E0,2E0,4.4E1,1.4E1,2.29E2,1.37E2,2E0,3E0,2.25E2,8.6E1,5E0,4.7E1,1E0,4E0,1.8E1,7.1E1,1.3E1,6E0,2E0,1E0,2E1,2.4E1,9E0,5E0,5.2E1,1.77E2,1.21E2,1.6E1,1E0,2E0],"tree_param":{"num_deleted":"0","num_feature":"16","num_nodes":"55","size_leaf_vector":"0"}},{"base_weights":[1.2567864E-1,1.149447E-1,1.2029986E0,4.462207E-2,2.4369508E-1,2.002986E0,4.6917406E-1,8.9380085E-2,-4.432376E-1,2.1768206E-1,1.8545865E0,3.384185E-2,8.9322567E-1,5.6025065E-2,6.3954467E-1,1.0404518E0,-5.948726E-1,2.614725E-1,-5.291177E-1,5.89689E-1,2.5012884E0,2.4224448E-1,-1.1637386E-1,2.952468E-1,-1.6791735E-2,1.0075569E0,-1.0617661E0,-1.6933665E-1,2.9398026E0,-7.4474543E-1,1.1649786E0,1.1700875E0,2.0654967E-1,7.767633E-2,-1.1445425E0,-2.0307064E-2,-1.5425372E-1,2.1162258E-1,2.667444E0,-1.9516602E-1,1.2453085E-1,1.6787744E0,-2.3426822E-1,-3.1187567E-1,-1.3587425E0,2.8449118E-1,-7.6541007E-1,-1.088493E0,-2.0684631E-1,1.8167554E0,-3.95176E-1,1.7885641E0,-1.2871027E0,4.845429E-1,8.0549955E-2,-3.8368258E-1,8.656354E-1,-1.2878444E0,-4.286571E-1],"categories":[],"categories_nodes":[],"categories_segments":[],"categories_sizes":[],"default_left":[1,1,1,1,1,0,1,1,1,1,1,1,0,1,1,1,1,1,1,0,0,0,1,1,1,1,1,1,0,1,1,1,1,1,1,0,0,0,0,0,0,0,0,0,0,0,0,0,0,0,0,0,0,0,0,0,0,0,0],"id":8,"left_children":[1,3,5,7,9,-1,11,13,15,17,19,21,-1,23,25,27,29,31,33,-1,-1,-1,35,37,39,41,43,45,-1,47,49,51,53,55,57,-1,-1,-1,-1,-1,-1,-1,-1,-1,-1,-1,-1,-1,-1,-1,-1,-1,-1,-1,-1,-1,-1,-1,-1],"loss_changes":[1.0535193E1,8.273597E0,4.3437023E0,1.2988146E1,1.3131329E1,0E0,1.0773915E0,9.946979E0,1.1867896E1,1.0570506E1,2.615076E0,1.5341233E-1,0E0,8.958509E0,2.0478992E1,1.1986881E1,1.300029E1,1.4829235E1,6.810753E0,0E0,0E0,0E0,7.784549E-3,2.324029E1,9.981589E0,2.2065182E1,9.124398E-1,1.2998112E0,0E0,7.7256165E0,4.785429E0,2.8137217E1,9.978713E0,3.9674482E0,3.7124634E-1,0E0,0E0,0E0,0E0,0E0,0E0,0E0,0E0,0E0,0E0,0E0,0E0,0E0,0E0,0E0,0E0,0E0,0E0,0E0,0E0,0E0,0E0,0E0,0E0],"parents":[2147483647,0,0,1,1,2,2,3,3,4,4,6,6,7,7,8,8,9,9,10,10,11,11,13,13,14,14,15,15,16,16,17,17,18,18,22,22,23,23,24,24,25,25,26,26,27,27,29,29,30,30,31,31,32,32,33,33,34,34],"right_children":[2,4,6,8,10,-1,12,14,16,18,20,22,-1,24,26,28,30,32,34,-1,-1,-1,36,38,40,42,44,46,-1,48,50,52,54,56,58,-1,-1,-1,-1,-1,-1,-1,-1,-1,-1,-1,-1,-1,-1,-1,-1,-1,-1,-1,-1,-1,-1,-1,-1],"split_conditions":[2.3616073E-1,2.395E0,5E-1,2.3649998E0,3E0,6.008958E-1,2E0,2.3449998E0,1.6591165E3,6.904762E-2,7.902525E1,1.7443645E3,2.679677E-1,1.692815E3,2.361111E-1,5E-1,2.1E0,2.4050002E0,1.0555556E-2,1.769067E-1,7.5038654E-1,7.267335E-2,2.38E0,1.6897848E3,1.7743073E3,1.8291113E3,2.0357141E0,2.38E0,8.8194084E-1,1.7805603E3,1.7851107E3,3.2142859E0,1.1180556E0,8.712122E-2,1.0555556E-1,-6.0921195E-3,-4.627612E-2,6.348678E-2,8.0023324E-1,-5.854981E-2,3.7359256E-2,5.036323E-1,-7.028047E-2,-9.356271E-2,-4.0762275E-1,8.5347354E-2,-2.2962303E-1,-3.2654792E-1,-6.2053896E-2,5.4502666E-1,-1.18552804E-1,5.3656924E-1,-3.8613084E-1,1.4536288E-1,2.4164988E-2,-1.1510478E-1,2.5969064E-1,-3.8635334E-1,-1.2859714E-1],"split_indices":[11,0,1,0,3,0,3,0,2,9,5,2,0,2,8,1,4,0,11,0,0,0,0,2,2,2,15,0,0,2,2,15,14,6,7,0,0,0,0,0,0,0,0,0,0,0,0,0,0,0,0,0,0,0,0,0,0,0,0],"split_type":[0,0,0,0,0,0,0,0,0,0,0,0,0,0,0,0,0,0,0,0,0,0,0,0,0,0,0,0,0,0,0,0,0,0,0,0,0,0,0,0,0,0,0,0,0,0,0,0,0,0,0,0,0,0,0,0,0,0,0],"sum_hessian":[9.22E2,9.14E2,8E0,5.92E2,3.22E2,3E0,5E0,5.43E2,4.9E1,3.18E2,4E0,3E0,2E0,5.13E2,3E1,4E0,4.5E1,3.01E2,1.7E1,2E0,2E0,1E0,2E0,1.19E2,3.94E2,2.5E1,5E0,3E0,1E0,4.2E1,3E0,1.6E1,2.85E2,9E0,8E0,1E0,1E0,1.16E2,3E0,1.74E2,2.2E2,1.6E1,9E0,2E0,3E0,2E0,1E0,2.5E1,1.7E1,2E0,1E0,1.3E1,3E0,8.8E1,1.97E2,6E0,3E0,6E0,2E0],"tree_param":{"num_deleted":"0","num_feature":"16","num_nodes":"59","size_leaf_vector":"0"}},{"base_weights":[9.156801E-2,9.621281E-1,8.290505E-2,1.1613785E0,1.7650127E-1,1.0645942E-1,-2.2675146E-1,5.9057677E-1,1.4418355E0,2.7192807E-1,-7.176161E-3,1.0215025E0,8.7702304E-2,-3.740575E-1,1.6157326E0,-1.1078587E-1,2.0402906E0,1.313818E-1,-8.3934404E-2,-4.6509314E-1,1.0394735E0,-1.8719713E-1,2.1132643E0,4.353936E-1,-3.2903624E-1,2.2849379E0,4.1555405E-2,1.1777598E-1,1.9065152E0,-2.3840342E-1,4.7776243E-1,-2.3932903E-1,-7.535286E-1,-2.1889983E-1,1.5318979E0,2.430159E0,5.8129E-1,5.8927464E-1,6.381574E-2,-3.8451917E-2,-3.710583E-1,-1.5796255E-1,1.7421357E-1,6.0899836E-1,-3.3447963E-1,3.2268586E0,3.1176367E-1,-2.8102838E-2,-4.2552438E-1,-9.423764E-1,1.552095E-3],"categories":[],"categories_nodes":[],"categories_segments":[],"categories_sizes":[],"default_left":[1,1,1,1,1,1,1,0,0,0,0,1,1,1,1,1,1,1,1,1,1,0,1,1,1,0,0,1,0,1,1,1,1,0,0,0,0,0,0,0,0,0,0,0,0,0,0,0,0,0,0],"id":9,"left_children":[1,3,5,7,9,11,13,-1,-1,-1,-1,15,17,19,21,23,25,27,29,31,33,-1,35,37,39,-1,-1,41,-1,43,45,47,49,-1,-1,-1,-1,-1,-1,-1,-1,-1,-1,-1,-1,-1,-1,-1,-1,-1,-1],"loss_changes":[6.8811574E0,1.2038422E0,6.6979327E0,2.6908302E-1,5.453465E-2,1.4516607E1,1.8245964E1,0E0,0E0,0E0,0E0,1.9836588E1,6.2710247E0,8.333035E0,4.8806715E0,1.2160951E0,4.305916E0,1.5860782E1,1.4863909E1,3.5965252E0,2.8139467E0,0E0,5.292721E-1,1.339314E-1,7.1208775E-2,0E0,0E0,1.0329577E1,0E0,1.1113328E1,1.5878804E1,1.3252388E0,3.5663462E0,0E0,0E0,0E0,0E0,0E0,0E0,0E0,0E0,0E0,0E0,0E0,0E0,0E0,0E0,0E0,0E0,0E0,0E0],"parents":[2147483647,0,0,1,1,2,2,3,3,4,4,5,5,6,6,11,11,12,12,13,13,14,14,15,15,16,16,17,17,18,18,19,19,20,20,22,22,23,23,24,24,27,27,29,29,30,30,31,31,32,32],"right_children":[2,4,6,8,10,12,14,-1,-1,-1,-1,16,18,20,22,24,26,28,30,32,34,-1,36,38,40,-1,-1,42,-1,44,46,48,50,-1,-1,-1,-1,-1,-1,-1,-1,-1,-1,-1,-1,-1,-1,-1,-1,-1,-1],"split_conditions":[7.416667E-1,2.25E-1,4.3650794E-1,3.2291666E-2,2.51E0,8.397436E-1,1.1180556E0,1.7717303E-1,4.3255067E-1,8.1578426E-2,-2.1528483E-3,4.9691666E1,1.8989899E0,1.4835165E-1,5E-1,4.1666668E-2,3.0952382E-1,1.8819444E0,6.201923E-2,2.36E0,2.015E0,-5.6159142E-2,2.5149999E0,1.965E0,3.1666666E-1,6.8548137E-1,1.2466622E-2,1.4226191E0,5.719546E-1,1.4083333E0,9.583334E-1,2.225E0,3.1780303E0,-6.5669954E-2,4.595694E-1,7.290478E-1,1.7438701E-1,1.767824E-1,1.9144723E-2,-1.1535576E-2,-1.1131749E-1,-4.7388766E-2,5.2264076E-2,1.8269952E-1,-1.0034389E-1,9.6805763E-1,9.3529105E-2,-8.430852E-3,-1.2765732E-1,-2.8271294E-1,4.6562855E-4],"split_indices":[14,8,12,10,0,14,14,0,0,0,0,5,13,7,1,8,8,13,10,0,0,0,0,0,12,0,0,15,0,15,14,3,13,0,0,0,0,0,0,0,0,0,0,0,0,0,0,0,0,0,0],"split_type":[0,0,0,0,0,0,0,0,0,0,0,0,0,0,0,0,0,0,0,0,0,0,0,0,0,0,0,0,0,0,0,0,0,0,0,0,0,0,0,0,0,0,0,0,0,0,0,0,0,0,0],"sum_hessian":[9.22E2,8E0,9.14E2,6E0,2E0,8.5E2,6.4E1,3E0,3E0,1E0,1E0,1.6E1,8.34E2,6E1,4E0,8E0,8E0,6.65E2,1.69E2,5.7E1,3E0,1E0,3E0,2E0,6E0,7E0,1E0,6.61E2,4E0,1.33E2,3.6E1,3.3E1,2.4E1,1E0,2E0,2E0,1E0,1E0,1E0,1E0,5E0,1.12E2,5.49E2,1.3E1,1.2E2,1E0,3.5E1,1.6E1,1.7E1,1.9E1,5E0],"tree_param":{"num_deleted":"0","num_feature":"16","num_nodes":"51","size_leaf_vector":"0"}},{"base_weights":[6.843539E-2,-1.0190768E-2,1.4657411E-1,-1.9188373E-1,1.5502676E-1,8.5353154E-1,9.0334274E-2,-8.6543274E-1,-1.0885297E-1,6.9726E-1,5.9976406E-2,-1.081342E-1,1.4539977E0,3.534511E-2,6.407296E-1,-7.305858E-2,-1.1254987E0,1.0685358E0,-1.5143342E-1,2.904017E-1,2.3413298E0,-2.0737413E-2,5.368792E-1,3.8378856E-1,-1.4338882E0,1.8089007E0,-4.3472122E-2,-1.4670637E-1,1.7397025E-1,1.3495494E0,-1.7642541E-1,-2.9008967E-1,6.1456394E-1,1.8930408E-1,-1.2139755E0,1.8623725E-1,1.6837003E0,2.9522216E-2,-4.6464992E-1,1.0904905E-1,1.4419316E0,3.1662693E0,1.8598779E-1,8.111421E-2,-7.106555E-1,-2.08851E-1,8.17547E-1,-3.4100944E-1,1.321748E0,-4.024422E-2,-1.8850216E0,9.4410664E-1,2.1947787E0,-2.5337008E-1,3.9805984E-1,-3.40168E-2,-9.032537E-1,2.6740172E0,1.5066366E-1,-3.409368E-1,2.0484731E0,-4.8940122E-1,1.6559125E0,-2.5133616E-1,-1.258432E0,4.1937646E-1,-2.565902E-1,4.4560134E-1,-1.4298779E-1,7.3370034E-1,-6.3110965E-1,-2.6414213E-1,5.9754986E-1,1.9058472E0,2.5092483E-2,9.408581E-1,3.4874074E0,6.5122795E-1,-3.7224627E-1,-7.6323666E-2,4.369395E-1,-9.99078E-1,9.132129E-2,1.061073E0,-7.232683E-1,9.2195904E-1,-6.875526E-1,-3.905428E-1,-2.19046E-2,1.6211622E0,6.2045753E-2,4.615116E-2,1.2940586E0,1.4974276E0,2.7321146E0,-3.306286E-1,-1.0797262E-2,-6.862696E-2,1.67322E0,-1.6048451E-1,-1.0593977E0,-5.6275773E-1,2.2408538E-1,-4.8794347E-1,-1.0869593E-1,2.370421E0,-2.9458681E-2,5.4582797E-2,-8.7564826E-1],"categories":[],"categories_nodes":[],"categories_segments":[],"categories_sizes":[],"default_left":[1,1,1,1,1,1,1,1,1,1,1,1,1,1,1,1,1,1,1,1,1,1,1,1,1,1,1,1,1,1,1,0,0,0,1,1,0,1,1,1,1,1,1,1,1,1,1,1,1,0,0,1,1,1,0,1,1,0,1,1,1,1,0,0,0,0,0,0,0,0,0,0,0,0,0,0,0,0,0,0,0,0,0,0,0,0,0,0,0,0,0,0,0,0,0,0,0,0,0,0,0,0,0,0,0,0,0,0,0],"id":10,"left_children":[1,3,5,7,9,11,13,15,17,19,21,23,25,27,29,31,33,35,37,39,41,43,45,47,49,51,53,55,57,59,61,-1,-1,-1,63,65,-1,67,69,71,73,75,77,79,81,83,85,87,89,-1,-1,91,93,95,-1,97,99,-1,101,103,105,107,-1,-1,-1,-1,-1,-1,-1,-1,-1,-1,-1,-1,-1,-1,-1,-1,-1,-1,-1,-1,-1,-1,-1,-1,-1,-1,-1,-1,-1,-1,-1,-1,-1,-1,-1,-1,-1,-1,-1,-1,-1,-1,-1,-1,-1,-1,-1],"loss_changes":[5.672172E0,1.3868442E1,1.833139E1,1.220936E1,1.2430731E1,1.979045E1,1.2991638E1,4.8634415E0,1.0038161E1,2.34006E1,7.979111E0,9.68067E0,1.1239227E1,9.918392E0,2.2827505E1,1.2229267E0,2.3237438E0,3.485744E0,1.08392725E1,6.107748E0,1.18573E1,1.2565576E1,6.4498196E0,7.9288707E0,2.4390163E0,3.6008835E0,5.6423974E-1,1.4462624E1,1.2590794E1,2.5510334E1,1.1706476E1,0E0,0E0,0E0,4.112339E-1,5.2056956E-1,0E0,8.820608E0,1.442644E1,5.0800505E0,2.5813522E0,2.9216766E-1,1.0215558E0,8.772528E0,5.4113235E0,6.6468782E0,4.0912066E0,1.0208964E-1,1.7852774E0,0E0,0E0,2.1399665E0,3.0685425E-2,7.13934E-2,0E0,8.918902E0,2.3815193E0,0E0,1.1754604E1,1.8594927E-1,1.0104614E1,3.6197038E0,0E0,0E0,0E0,0E0,0E0,0E0,0E0,0E0,0E0,0E0,0E0,0E0,0E0,0E0,0E0,0E0,0E0,0E0,0E0,0E0,0E0,0E0,0E0,0E0,0E0,0E0,0E0,0E0,0E0,0E0,0E0,0E0,0E0,0E0,0E0,0E0,0E0,0E0,0E0,0E0,0E0,0E0,0E0,0E0,0E0,0E0,0E0],"parents":[2147483647,0,0,1,1,2,2,3,3,4,4,5,5,6,6,7,7,8,8,9,9,10,10,11,11,12,12,13,13,14,14,15,15,16,16,17,17,18,18,19,19,20,20,21,21,22,22,23,23,24,24,25,25,26,26,27,27,28,28,29,29,30,30,34,34,35,35,37,37,38,38,39,39,40,40,41,41,42,42,43,43,44,44,45,45,46,46,47,47,48,48,51,51,52,52,53,53,55,55,56,56,58,58,59,59,60,60,61,61],"right_children":[2,4,6,8,10,12,14,16,18,20,22,24,26,28,30,32,34,36,38,40,42,44,46,48,50,52,54,56,58,60,62,-1,-1,-1,64,66,-1,68,70,72,74,76,78,80,82,84,86,88,90,-1,-1,92,94,96,-1,98,100,-1,102,104,106,108,-1,-1,-1,-1,-1,-1,-1,-1,-1,-1,-1,-1,-1,-1,-1,-1,-1,-1,-1,-1,-1,-1,-1,-1,-1,-1,-1,-1,-1,-1,-1,-1,-1,-1,-1,-1,-1,-1,-1,-1,-1,-1,-1,-1,-1,-1,-1],"split_conditions":[5E-1,1.1805556E-2,1.6549346E3,1.6565149E3,1.909091E-2,5.4678574E1,2.325E0,1.5476191E-1,1.6634414E3,2.475E0,2.9083333E0,4.2375E1,1.5419581E0,8.012821E-2,1.7219532E3,2.2E0,1.62E0,7.233333E1,1.5E0,2.0833334E-1,1.0416667E-1,1.1214286E-1,5.934066E-2,1.4375E0,1.955E0,9E-1,1.1688312E-1,3.125E-2,5.401515E0,1.925E0,1.6794872E0,-8.70269E-2,1.8436919E-1,5.6791227E-2,7.25E-1,9.0000004E-1,5.0511014E-1,1.7466565E3,4.5E-1,1.4835165E-2,2.3899999E0,5.6493507E1,2.5149999E0,1.5E0,1.3392857E-1,1.4642857E0,3.6666667E-1,5.5555557E-3,9.090909E-3,-1.2073267E-2,-5.655065E-1,8.4E1,1.61325E3,2.54E0,1.1941796E-1,2.585E0,2.2150002E0,8.022052E-1,1.6803431E3,1.1805555E-1,8.9190475E1,7.379167E1,4.9677378E-1,-7.540085E-2,-3.7752962E-1,1.2581295E-1,-7.697706E-2,1.336804E-1,-4.2896338E-2,2.201101E-1,-1.893329E-1,-7.924264E-2,1.7926496E-1,5.7175416E-1,7.527745E-3,2.8225744E-1,1.0462223E0,1.953684E-1,-1.11673884E-1,-2.28971E-2,1.3108186E-1,-2.9972342E-1,2.7396388E-2,3.1832188E-1,-2.1698049E-1,2.7658772E-1,-2.0626578E-1,-1.17162846E-1,-6.5713804E-3,4.8634866E-1,1.8613726E-2,1.3845349E-2,3.882176E-1,4.492283E-1,8.196344E-1,-9.918859E-2,-3.2391788E-3,-2.0588089E-2,5.0196606E-1,-4.8145354E-2,-3.1781933E-1,-1.6882733E-1,6.722561E-2,-1.4638305E-1,-3.260878E-2,7.111263E-1,-8.837605E-3,1.637484E-2,-2.6269448E-1],"split_indices":[1,11,2,2,11,5,4,12,2,0,15,5,14,8,2,0,0,5,4,8,6,11,11,15,0,4,6,6,5,0,13,0,0,0,13,3,0,2,3,11,0,5,0,3,7,13,8,11,10,0,0,5,2,0,0,0,0,0,2,12,5,5,0,0,0,0,0,0,0,0,0,0,0,0,0,0,0,0,0,0,0,0,0,0,0,0,0,0,0,0,0,0,0,0,0,0,0,0,0,0,0,0,0,0,0,0,0,0,0],"split_type":[0,0,0,0,0,0,0,0,0,0,0,0,0,0,0,0,0,0,0,0,0,0,0,0,0,0,0,0,0,0,0,0,0,0,0,0,0,0,0,0,0,0,0,0,0,0,0,0,0,0,0,0,0,0,0,0,0,0,0,0,0,0,0,0,0,0,0,0,0,0,0,0,0,0,0,0,0,0,0,0,0,0,0,0,0,0,0,0,0,0,0,0,0,0,0,0,0,0,0,0,0,0,0,0,0,0,0,0,0],"sum_hessian":[9.22E2,4.6E2,4.62E2,2.19E2,2.41E2,3.3E1,4.29E2,2.3E1,1.96E2,3.5E1,2.06E2,1.3E1,2E1,3.91E2,3.8E1,6E0,1.7E1,6E0,1.9E2,2.9E1,6E0,1.77E2,2.9E1,1E1,3E0,1.6E1,4E0,1.69E2,2.22E2,2E1,1.8E1,5E0,1E0,1E0,1.6E1,3E0,3E0,1.21E2,6.9E1,2.6E1,3E0,4E0,2E0,1.55E2,2.2E1,8E0,2.1E1,6E0,4E0,1E0,2E0,6E0,1E1,3E0,1E0,1.48E2,2.1E1,1E0,2.21E2,6E0,1.4E1,1.6E1,2E0,1E0,1.5E1,2E0,1E0,3.5E1,8.6E1,8E0,6.1E1,1.5E1,1.1E1,2E0,1E0,1E0,3E0,1E0,1E0,1.08E2,4.7E1,1.6E1,6E0,2E0,6E0,2E1,1E0,5E0,1E0,3E0,1E0,2E0,4E0,6E0,4E0,2E0,1E0,1.46E2,2E0,4E0,1.7E1,2E1,2.01E2,3E0,3E0,1.2E1,2E0,7E0,9E0],"tree_param":{"num_deleted":"0","num_feature":"16","num_nodes":"109","size_leaf_vector":"0"}},{"base_weights":[5.3925406E-2,-2.530603E-1,6.811848E-2,6.197341E-1,-4.203889E-1,3.4578422E-1,3.2215092E-2,9.9330235E-1,-8.108376E-1,-3.385374E-1,-1.6016701E0,1.2730624E-1,1.281989E0,-9.123994E-2,8.7607615E-2,1.3331766E0,-3.5303468E-1,-5.2651834E-1,6.264599E-1,3.981218E-1,-3.9069936E-1,1.9706545E0,-5.385622E-1,2.024861E-2,-4.3927622E-1,-5.723031E-2,2.3645714E-1,1.4782069E0,3.765278E-1,-6.300434E-1,2.7802426E-1,1.0151565E-2,1.2393844E0,-1.355248E-1,8.8123685E-1,-6.133555E-1,2.7044243E-1,2.4071484E0,-4.322058E-1,-1.1748797E0,7.3316455E-2,-7.931952E-2,5.8137417E-1,1.0040229E-2,-6.0669726E-1,3.189818E-2,-3.9124376E-1,1.2226622E-1,8.124187E-1,-9.3520653E-1,-2.529413E-1,-3.714657E-2,3.9546338E-1,-1.736446E-1,1.292985E-1,1.993114E-1,-4.166812E-1,2.5156708E0,4.3591014E-1,-7.1193814E-1,-1.3578689E-1,1.088882E0,-1.8385108E-1,3.253657E0,5.7130486E-1,-7.243105E-1,7.600182E-2,2.401791E-1,-2.1363574E-1,-3.218358E-2,-1.268066E0,1.2085217E0,1.6581875E-1,-2.9108706E-1,6.1062145E-1,-1.2359699E0,-4.5000616E-1,-2.761804E-2,7.3721457E-1,-1.4076337E0,-6.633925E-2,1.1269795E0,3.4309193E-2,-4.9782783E-1,1.1635629E0],"categories":[],"categories_nodes":[],"categories_segments":[],"categories_sizes":[],"default_left":[1,1,1,1,1,1,1,1,0,1,0,1,1,1,1,1,0,1,1,1,1,1,1,1,1,1,1,0,0,1,1,1,0,1,1,1,1,1,1,0,1,1,1,1,1,1,1,1,1,0,0,0,0,0,0,0,0,0,0,0,0,0,0,0,0,0,0,0,0,0,0,0,0,0,0,0,0,0,0,0,0,0,0,0,0],"id":11,"left_children":[1,3,5,7,9,11,13,15,-1,17,-1,19,21,23,25,27,-1,29,31,33,35,37,39,41,43,45,47,-1,-1,49,51,53,-1,55,57,59,61,63,65,-1,67,69,71,73,75,77,79,81,83,-1,-1,-1,-1,-1,-1,-1,-1,-1,-1,-1,-1,-1,-1,-1,-1,-1,-1,-1,-1,-1,-1,-1,-1,-1,-1,-1,-1,-1,-1,-1,-1,-1,-1,-1,-1],"loss_changes":[4.0388165E0,6.248311E0,8.791613E0,4.54632E0,2.8419132E0,2.0495346E1,5.362528E0,3.2161703E0,0E0,6.4974794E0,0E0,1.1799116E1,2.4882587E1,9.437796E0,1.1676983E1,1.3712883E-1,0E0,2.5905867E0,2.2539208E0,1.4299129E1,4.4348874E0,1.5724049E1,2.4222326E0,1.0382105E1,4.4443674E0,8.19926E0,1.7461143E1,0E0,0E0,2.7554665E0,1.6274366E-1,1.10046975E-1,0E0,2.6248655E0,2.0011251E1,9.390888E-1,3.1746864E0,1.6789856E1,5.0039846E-1,0E0,2.4283722E-1,8.812353E0,7.096814E0,3.2522178E0,3.6836672E0,9.171513E0,1.9059938E1,1.9756569E1,2.0823015E1,0E0,0E0,0E0,0E0,0E0,0E0,0E0,0E0,0E0,0E0,0E0,0E0,0E0,0E0,0E0,0E0,0E0,0E0,0E0,0E0,0E0,0E0,0E0,0E0,0E0,0E0,0E0,0E0,0E0,0E0,0E0,0E0,0E0,0E0,0E0,0E0],"parents":[2147483647,0,0,1,1,2,2,3,3,4,4,5,5,6,6,7,7,9,9,11,11,12,12,13,13,14,14,15,15,17,17,18,18,19,19,20,20,21,21,22,22,23,23,24,24,25,25,26,26,29,29,30,30,31,31,33,33,34,34,35,35,36,36,37,37,38,38,40,40,41,41,42,42,43,43,44,44,45,45,46,46,47,47,48,48],"right_children":[2,4,6,8,10,12,14,16,-1,18,-1,20,22,24,26,28,-1,30,32,34,36,38,40,42,44,46,48,-1,-1,50,52,54,-1,56,58,60,62,64,66,-1,68,70,72,74,76,78,80,82,84,-1,-1,-1,-1,-1,-1,-1,-1,-1,-1,-1,-1,-1,-1,-1,-1,-1,-1,-1,-1,-1,-1,-1,-1,-1,-1,-1,-1,-1,-1,-1,-1,-1,-1,-1,-1],"split_conditions":[4.8076922E-1,1.626204E3,7.596154E-1,1.1805555E-1,4.1666668E-2,2.47E0,1.1E0,2.4850001E0,-2.432513E-1,1.6025642E-1,-4.8050106E-1,2.34E0,1.9090909E-1,8.668939E1,2.315E0,5E-2,-1.05910406E-1,4.3076925E-2,2.13E0,1.85E0,2.1E0,1.9090909E-1,1.3392857E-2,2.400641E0,9.545455E-3,2.245E0,1.6961539E0,4.4346207E-1,1.1295834E-1,1.7557944E3,2.28E0,1.7347789E3,3.7181532E-1,6.9711536E-2,4.5678574E1,7.2077924E-1,6.9047622E-3,1.9E0,2.565E0,-3.524639E-1,2.5349998E0,1.3392857E-1,2.6291208E0,2.48E0,2.2071428E0,7.071429E-2,7.5000003E-3,1.3E0,1.7000105E3,-2.8056198E-1,-7.58824E-2,-1.1143971E-2,1.18639015E-1,-5.2093383E-2,3.8789548E-2,5.9793424E-2,-1.2500437E-1,7.5470126E-1,1.3077305E-1,-2.1358146E-1,-4.0736068E-2,3.266646E-1,-5.5155326E-2,9.7609717E-1,1.7139146E-1,-2.1729316E-1,2.2800548E-2,7.205374E-2,-6.409073E-2,-9.655074E-3,-3.8041982E-1,3.6255652E-1,4.9745627E-2,-8.7326124E-2,1.8318644E-1,-3.70791E-1,-1.3500185E-1,-8.285413E-3,2.2116438E-1,-4.2229012E-1,-1.9901775E-2,3.3809385E-1,1.0292758E-2,-1.4934835E-1,3.4906888E-1],"split_indices":[13,2,13,8,7,0,3,0,0,8,0,0,8,5,0,11,0,10,0,0,4,7,10,15,11,0,14,0,0,2,0,2,0,8,5,13,11,4,0,0,0,7,15,0,15,11,10,3,2,0,0,0,0,0,0,0,0,0,0,0,0,0,0,0,0,0,0,0,0,0,0,0,0,0,0,0,0,0,0,0,0,0,0,0,0],"split_type":[0,0,0,0,0,0,0,0,0,0,0,0,0,0,0,0,0,0,0,0,0,0,0,0,0,0,0,0,0,0,0,0,0,0,0,0,0,0,0,0,0,0,0,0,0,0,0,0,0,0,0,0,0,0,0,0,0,0,0,0,0,0,0,0,0,0,0,0,0,0,0,0,0,0,0,0,0,0,0,0,0,0,0,0,0],"sum_hessian":[9.22E2,4E1,8.82E2,6E0,3.4E1,1E2,7.82E2,5E0,1E0,3.3E1,1E0,8.2E1,1.8E1,2.42E2,5.4E2,4E0,1E0,2.8E1,5E0,5.4E1,2.8E1,1.3E1,5E0,1.84E2,5.8E1,2.74E2,2.66E2,3E0,1E0,2.5E1,3E0,3E0,2E0,2.6E1,2.8E1,2.1E1,7E0,1.1E1,2E0,2E0,3E0,1.57E2,2.7E1,1.6E1,4.2E1,2.17E2,5.7E1,2.23E2,4.3E1,1.3E1,1.2E1,1E0,2E0,1E0,2E0,1.2E1,1.4E1,5E0,2.3E1,1.7E1,4E0,2E0,5E0,7E0,4E0,1E0,1E0,2E0,1E0,1.52E2,5E0,1E1,1.7E1,1.1E1,5E0,7E0,3.5E1,2.01E2,1.6E1,1.3E1,4.4E1,1.7E1,2.06E2,9E0,3.4E1],"tree_param":{"num_deleted":"0","num_feature":"16","num_nodes":"85","size_leaf_vector":"0"}},{"base_weights":[3.906238E-2,6.731803E-1,3.2782465E-2,8.324909E-1,7.706197E-2,2.2563377E-2,4.1122594E-1,4.177407E-1,1.0391184E0,1.9237995E-1,-7.6786995E-2,4.4836745E-2,-3.45608E-1,1.08365014E-1,2.4951308E0,7.0829904E-1,3.112767E-2,-4.1996676E-1,6.330993E-1,7.1151865E-1,-1.6228752E-1,-9.709811E-2,1.4349964E0,5.4135043E-2,-1.8115167E-1,-2.1577653E-1,-8.148612E-1,-2.851985E-1,1.0342647E0,-2.4223614E-2,1.2693813E0,-3.5616976E-1,5.084017E-1,3.3961067E-1,-2.7038786E-1,1.6152301E0,-3.4368038E-3,3.2860283E-2,4.1915566E-1,1.2640831E-1,-3.3727255E-1,-2.4425389E-1,3.4774947E-1,-8.040229E-2,-1.0529807E0,7.2287574E-2,-1.5687859E-1,4.8013866E-1,-4.658737E-1,1.4240587E-1,5.829317E-1],"categories":[],"categories_nodes":[],"categories_segments":[],"categories_sizes":[],"default_left":[1,1,1,1,1,1,1,0,0,0,0,1,1,1,0,1,1,1,1,1,1,1,1,1,1,1,1,0,0,1,0,1,1,0,0,0,0,0,0,0,0,0,0,0,0,0,0,0,0,0,0],"id":12,"left_children":[1,3,5,7,9,11,13,-1,-1,-1,-1,15,17,19,-1,21,23,25,27,29,31,33,35,37,39,41,43,-1,-1,45,-1,47,49,-1,-1,-1,-1,-1,-1,-1,-1,-1,-1,-1,-1,-1,-1,-1,-1,-1,-1],"loss_changes":[3.6535087E0,7.9055834E-1,3.5293436E0,1.6580963E-1,6.799694E-2,7.3302674E0,1.4876813E1,0E0,0E0,0E0,0E0,7.6363254E0,3.9774294E0,3.7068617E0,0E0,1.0089094E1,4.0439825E0,3.6945848E0,1.768528E0,2.9038506E0,2.261633E0,7.72921E-1,2.3388386E0,5.7794576E0,3.9319742E0,6.1451435E-1,2.713561E0,0E0,0E0,6.255113E-2,0E0,1.4163861E0,2.6097655E-2,0E0,0E0,0E0,0E0,0E0,0E0,0E0,0E0,0E0,0E0,0E0,0E0,0E0,0E0,0E0,0E0,0E0,0E0],"parents":[2147483647,0,0,1,1,2,2,3,3,4,4,5,5,6,6,11,11,12,12,13,13,15,15,16,16,17,17,18,18,19,19,20,20,21,21,22,22,23,23,24,24,25,25,26,26,29,29,31,31,32,32],"right_children":[2,4,6,8,10,12,14,-1,-1,-1,-1,16,18,20,-1,22,24,26,28,30,32,34,36,38,40,42,44,-1,-1,46,-1,48,50,-1,-1,-1,-1,-1,-1,-1,-1,-1,-1,-1,-1,-1,-1,-1,-1,-1,-1],"split_conditions":[7.416667E-1,2.25E-1,3.1E0,3.2291666E-2,2.51E0,4.3650794E-1,8.333035E1,1.2532222E-1,3.1173554E-1,5.771399E-2,-2.30361E-2,8.397436E-1,1.4835165E-1,1.71E0,7.4853927E-1,4.9691666E1,1.9237568E3,1.6025642E-1,2.015E0,1.2E0,2.41E0,4.1666668E-2,3.0952382E-1,1.8960874E3,1.1339285E0,1.4027777E-1,2.2849998E0,-8.5559554E-2,3.1027943E-1,1.63E0,3.808144E-1,1.4142857E0,2.455E0,1.018832E-1,-8.111636E-2,4.8456904E-1,-1.0310411E-3,9.858085E-3,1.257467E-1,3.7922494E-2,-1.0118177E-1,-7.327617E-2,1.0432485E-1,-2.4120688E-2,-3.1589422E-1,2.1686273E-2,-4.7063578E-2,1.440416E-1,-1.3976212E-1,4.2721763E-2,1.7487952E-1],"split_indices":[14,8,3,10,0,12,5,0,0,0,0,14,7,0,0,5,2,8,0,4,0,8,8,2,13,11,0,0,0,0,0,15,0,0,0,0,0,0,0,0,0,0,0,0,0,0,0,0,0,0,0],"split_type":[0,0,0,0,0,0,0,0,0,0,0,0,0,0,0,0,0,0,0,0,0,0,0,0,0,0,0,0,0,0,0,0,0,0,0,0,0,0,0,0,0,0,0,0,0,0,0,0,0,0,0],"sum_hessian":[9.22E2,8E0,9.14E2,6E0,2E0,8.91E2,2.3E1,3E0,3E0,1E0,1E0,8.41E2,5E1,2.1E1,2E0,1.6E1,8.25E2,4.7E1,3E0,6E0,1.5E1,8E0,8E0,7.45E2,8E1,3.2E1,1.5E1,1E0,2E0,3E0,3E0,1.2E1,3E0,2E0,6E0,7E0,1E0,7.05E2,4E1,2.7E1,5.3E1,3.1E1,1E0,4E0,1.1E1,2E0,1E0,1E0,1.1E1,1E0,2E0],"tree_param":{"num_deleted":"0","num_feature":"16","num_nodes":"51","size_leaf_vector":"0"}},{"base_weights":[2.9824678E-2,3.5764005E-2,-5.1601243E-1,2.7055118E-2,5.559131E-1,-1.0974806E-1,-1.0979719E0,1.2121441E-2,2.6548347E-1,-2.4057998E-1,9.782176E-1,-2.73377E-1,1.0378918E-2,2.8367372E-2,-6.982072E-1,7.5403565E-1,-1.3420773E-1,-2.9300496E-1,-9.048665E-2,-4.6310067E-2,1.0971996E0,-3.3074636E-2,9.209657E-2,4.031292E-2,-4.8364064E-1,-8.331181E-1,8.650944E-1,1.601477E0,4.467365E-1,-1.3112167E0,2.8102183E-1,2.4217796E-1,1.173805E0,-1.9176632E-2,1.2253801E-1,-1.219388E-1,-8.719828E-1,-1.1045665E0,-3.5573682E-1,-5.0105214E-2,1.9418144E0,-4.4615418E-1,7.974942E-1,-6.7930156E-1,-1.5545055E0,-4.7811747E-1,6.430276E-1],"categories":[],"categories_nodes":[],"categories_segments":[],"categories_sizes":[],"default_left":[1,1,1,1,1,1,0,1,1,1,1,0,1,1,1,1,1,0,0,0,1,0,0,1,1,1,0,1,1,1,1,0,0,0,0,0,0,0,0,0,0,0,0,0,0,0,0],"id":13,"left_children":[1,3,5,7,9,11,-1,13,15,17,19,-1,21,23,25,27,29,-1,-1,-1,31,-1,-1,33,35,37,-1,39,41,43,45,-1,-1,-1,-1,-1,-1,-1,-1,-1,-1,-1,-1,-1,-1,-1,-1],"loss_changes":[3.0107338E0,4.125307E0,2.243794E0,3.2013326E0,5.2807784E0,1.404311E-1,0E0,9.805684E0,1.0450508E1,2.0698816E-2,1.2698145E0,0E0,2.080067E-2,5.095957E0,4.727947E0,5.5345926E0,1.5030348E1,0E0,0E0,0E0,3.0522442E-1,0E0,0E0,3.9742756E0,2.562489E0,1.9395828E0,0E0,3.4698648E0,6.306383E0,1.7392445E-1,6.6281376E0,0E0,0E0,0E0,0E0,0E0,0E0,0E0,0E0,0E0,0E0,0E0,0E0,0E0,0E0,0E0,0E0],"parents":[2147483647,0,0,1,1,2,2,3,3,4,4,5,5,7,7,8,8,9,9,10,10,12,12,13,13,14,14,15,15,16,16,20,20,23,23,24,24,25,25,27,27,28,28,29,29,30,30],"right_children":[2,4,6,8,10,12,-1,14,16,18,20,-1,22,24,26,28,30,-1,-1,-1,32,-1,-1,34,36,38,-1,40,42,44,46,-1,-1,-1,-1,-1,-1,-1,-1,-1,-1,-1,-1,-1,-1,-1,-1],"split_conditions":[3.3000002E0,2.5277777E0,8.116667E1,3.2051283E-1,1.845E0,6.1412697E1,-3.293916E-1,2.9285717E-1,2.335E0,1.3392857E-1,2.5E0,-8.20131E-2,5E-1,6.904762E-2,7.846154E-2,7.2625E1,7.7380957E-3,-8.790149E-2,-2.7145997E-2,-1.389302E-2,5E-1,-9.922391E-3,2.7628971E-2,7.099524E1,3.3566434E-2,1.7172194E3,2.5952834E-1,1.945E0,8.5875E1,1.5E0,2.39E0,7.265339E-2,3.521415E-1,-5.75299E-3,3.6761403E-2,-3.6581643E-2,-2.6159486E-1,-3.3136994E-1,-1.0672105E-1,-1.5031565E-2,5.825443E-1,-1.3384625E-1,2.3924826E-1,-2.0379047E-1,-4.6635166E-1,-1.4343524E-1,1.9290829E-1],"split_indices":[4,14,5,8,0,5,0,8,0,12,4,0,1,9,10,5,10,0,0,0,1,0,0,5,10,2,0,0,5,4,0,0,0,0,0,0,0,0,0,0,0,0,0,0,0,0,0],"split_type":[0,0,0,0,0,0,0,0,0,0,0,0,0,0,0,0,0,0,0,0,0,0,0,0,0,0,0,0,0,0,0,0,0,0,0,0,0,0,0,0,0,0,0,0,0,0,0],"sum_hessian":[9.22E2,9.13E2,9E0,8.99E2,1.4E1,6E0,3E0,8.47E2,5.2E1,5E0,9E0,2E0,4E0,8.29E2,1.8E1,2.3E1,2.9E1,3E0,2E0,1E0,8E0,3E0,1E0,8.11E2,1.8E1,1.7E1,1E0,5E0,1.8E1,7E0,2.2E1,1E0,7E0,4.71E2,3.4E2,1E1,8E0,1E1,7E0,1E0,4E0,5E0,1.3E1,3E0,4E0,7E0,1.5E1],"tree_param":{"num_deleted":"0","num_feature":"16","num_nodes":"47","size_leaf_vector":"0"}},{"base_weights":[2.0344982E-2,2.5910573E-2,-4.9038446E-1,2.047887E-2,8.444951E-1,-2.9853746E-2,-9.4494444E-1,1.13756865E-1,-1.37257995E-2,2.8225008E-1,1.0550551E0,-5.2277756E-1,1.7328653E-1,-1.1238551E0,-1.14650965E-1,4.942001E-2,9.69936E-1,-6.915612E-2,9.82002E-2,1.4075269E-2,2.747356E-1,1.1890349E-1,-5.75059E-1,1.5088682E0,-2.695843E-1,3.4792267E-2,-3.5508814E-1,-6.3495886E-1,1.4707533E-1,8.404606E-2,1.8581924E0,4.0508583E-1,-8.698262E-1,-1.1829778E-1,1.8461312E0,-1.55195E-3,-8.04873E-1,3.6485007E-1,-5.9461687E-2,-9.616928E-2,-7.496837E-1,-8.1854993E-1,8.758626E-1,1.2901922E0,1.1256412E-1],"categories":[],"categories_nodes":[],"categories_segments":[],"categories_sizes":[],"default_left":[1,1,1,1,1,1,1,1,1,0,0,0,1,0,0,1,1,1,1,0,0,1,1,1,1,1,1,1,1,0,0,0,0,0,0,0,0,0,0,0,0,0,0,0,0],"id":14,"left_children":[1,3,5,7,9,11,13,15,17,-1,-1,-1,19,-1,-1,21,23,25,27,-1,-1,29,31,33,35,37,39,41,43,-1,-1,-1,-1,-1,-1,-1,-1,-1,-1,-1,-1,-1,-1,-1,-1],"loss_changes":[2.636344E0,4.046632E0,2.065178E0,2.9017649E0,4.125285E-1,6.913864E-1,6.138902E-1,1.339253E1,4.1387177E0,0E0,0E0,0E0,7.689218E-2,0E0,0E0,9.961518E0,1.1763062E1,1.3268443E1,8.012533E0,0E0,0E0,1.2333019E1,6.99739E0,6.803791E0,8.59599E-1,1.0225531E1,1.2085923E1,4.600164E0,8.060444E0,0E0,0E0,0E0,0E0,0E0,0E0,0E0,0E0,0E0,0E0,0E0,0E0,0E0,0E0,0E0,0E0],"parents":[2147483647,0,0,1,1,2,2,3,3,4,4,5,5,6,6,7,7,8,8,12,12,15,15,16,16,17,17,18,18,21,21,22,22,23,23,24,24,25,25,26,26,27,27,28,28],"right_children":[2,4,6,8,10,12,14,16,18,-1,-1,-1,20,-1,-1,22,24,26,28,-1,-1,30,32,34,36,38,40,42,44,-1,-1,-1,-1,-1,-1,-1,-1,-1,-1,-1,-1,-1,-1,-1,-1],"split_conditions":[3.5729165E0,3.4529915E0,5E-1,1.7033047E3,7.0000005E-1,1.6937819E3,2.475E0,1.7006671E3,1.5916667E0,8.467503E-2,3.1651655E-1,-1.5683328E-1,2.41E0,-3.3715653E-1,-3.4395292E-2,1.692815E3,2.1E0,1.5E0,1.7125413E3,4.2225807E-3,8.2420684E-2,1.6897848E3,5.916667E-1,2.095E0,2.54E0,1.7466565E3,1.4772727E0,2.477778E0,1.7143184E3,2.5213819E-2,5.5745775E-1,1.2152576E-1,-2.6094788E-1,-3.5489336E-2,5.538394E-1,-4.65585E-4,-2.414619E-1,1.0945503E-1,-1.7838506E-2,-2.8850785E-2,-2.2490512E-1,-2.4556498E-1,2.627588E-1,3.870577E-1,3.3769235E-2],"split_indices":[15,15,1,2,4,2,0,2,14,0,0,0,0,0,0,2,4,4,2,0,0,2,13,0,0,2,13,14,2,0,0,0,0,0,0,0,0,0,0,0,0,0,0,0,0],"split_type":[0,0,0,0,0,0,0,0,0,0,0,0,0,0,0,0,0,0,0,0,0,0,0,0,0,0,0,0,0,0,0,0,0,0,0,0,0,0,0,0,0,0,0,0,0],"sum_hessian":[9.22E2,9.13E2,9E0,9.08E2,5E0,5E0,4E0,2.43E2,6.65E2,2E0,3E0,1E0,4E0,3E0,1E0,2.27E2,1.6E1,4.45E2,2.2E2,2E0,2E0,2.05E2,2.2E1,1.1E1,5E0,3.27E2,1.18E2,1.3E1,2.07E2,2.02E2,3E0,5E0,1.7E1,2E0,9E0,4E0,1E0,7.2E1,2.55E2,7.2E1,4.6E1,1.2E1,1E0,5E0,2.02E2],"tree_param":{"num_deleted":"0","num_feature":"16","num_nodes":"45","size_leaf_vector":"0"}},{"base_weights":[1.5276167E-2,-3.79965E-2,7.063191E-2,-5.4108012E-2,1.2196635E0,3.8807565E-1,3.5687373E-3,-4.0485714E-2,-8.2892394E-1,-2.2711408E-1,1.5544419E0,-6.413233E-1,5.13097E-1,-1.1991323E0,2.9704714E-2,1.2729791E-1,-1.0932779E-1,-1.2715784E0,-6.837484E-2,3.6904883E-1,-9.8272234E-1,7.04886E-1,-3.1810722E-1,-6.803367E-1,-1.8370126E0,1.968603E-1,-8.6213626E-2,-2.5543712E-2,9.509477E-1,5.7196516E-1,-1.304748E-1,4.5380633E-2,-2.0482063E-1,-1.5737598E0,-1.4600438E-1,4.5845784E-2,1.0505428E0,-1.931579E0,1.1176965E-1,-7.6748574E-1,-1.22295834E-1,4.4222942E-1,-1.01146914E-1,-8.0252075E-1,-3.3121374E-2,8.3878124E-1,-9.868881E-2,-1.4049014E-1,1.7812337E0,-1.770356E-1,1.7397252E0,-1.5276906E-1,5.035991E-1,-1.8023616E0,-4.4397718E-1,2.0415008E-1,-3.3077255E-1,-4.5058522E-1,1.724542E0,1.6803946E0,6.131128E-1,1.126654E0,-3.5170892E-1,8.284738E-1,2.6357798E-2,2.4491192E-1,-2.683428E-1,-9.8568004E-1,8.8085485E-1,1.7433016E0,-8.651543E-2],"categories":[],"categories_nodes":[],"categories_segments":[],"categories_sizes":[],"default_left":[1,1,1,1,1,1,1,1,1,0,0,1,1,1,1,1,1,0,1,0,1,1,1,1,0,1,1,1,1,1,1,0,0,1,1,1,1,0,1,0,0,1,1,1,1,0,0,0,0,0,0,0,0,0,0,0,0,0,0,0,0,0,0,0,0,0,0,0,0,0,0],"id":15,"left_children":[1,3,5,7,9,11,13,15,17,-1,-1,19,21,23,25,27,29,-1,31,-1,33,35,37,39,-1,41,43,45,47,49,51,-1,-1,53,55,57,59,-1,61,-1,-1,63,65,67,69,-1,-1,-1,-1,-1,-1,-1,-1,-1,-1,-1,-1,-1,-1,-1,-1,-1,-1,-1,-1,-1,-1,-1,-1,-1,-1],"loss_changes":[2.724563E0,9.609774E0,9.642434E0,4.8849654E0,3.2591343E0,1.0496112E1,1.1823281E1,5.3156304E0,2.60634E0,0E0,0E0,3.4671335E0,1.1542753E1,1.3976488E0,7.147486E0,1.689328E1,4.77141E0,0E0,7.138072E-2,0E0,3.2319455E0,1.3164335E1,9.92621E0,1.9793606E-1,0E0,1.1086117E1,8.264039E0,7.2899876E0,1.9280563E1,9.054525E0,4.5581126E0,0E0,0E0,2.3287392E-1,3.2631683E-1,1.8277548E1,9.4393425E0,0E0,6.0407805E0,0E0,0E0,1.3310293E1,4.058033E0,5.493129E0,1.9500309E1,0E0,0E0,0E0,0E0,0E0,0E0,0E0,0E0,0E0,0E0,0E0,0E0,0E0,0E0,0E0,0E0,0E0,0E0,0E0,0E0,0E0,0E0,0E0,0E0,0E0,0E0],"parents":[2147483647,0,0,1,1,2,2,3,3,4,4,5,5,6,6,7,7,8,8,11,11,12,12,13,13,14,14,15,15,16,16,18,18,20,20,21,21,22,22,23,23,25,25,26,26,27,27,28,28,29,29,30,30,33,33,34,34,35,35,36,36,38,38,41,41,42,42,43,43,44,44],"right_children":[2,4,6,8,10,12,14,16,18,-1,-1,20,22,24,26,28,30,-1,32,-1,34,36,38,40,-1,42,44,46,48,50,52,-1,-1,54,56,58,60,-1,62,-1,-1,64,66,68,70,-1,-1,-1,-1,-1,-1,-1,-1,-1,-1,-1,-1,-1,-1,-1,-1,-1,-1,-1,-1,-1,-1,-1,-1,-1,-1],"split_conditions":[1.4226191E0,1.9E0,1.5669643E0,2.585E0,1.17E1,9E-1,1.6060867E3,1.846591E-1,4.5454547E-2,-6.8134226E-2,4.6633258E-1,2.04E0,8.933333E1,1.5555556E-1,1.1E0,1.7424244E-1,1.6070657E3,-3.8147354E-1,1.7657788E3,1.1071465E-1,1.2272727E0,2.185E0,2.3095238E0,2.475E0,-5.5110383E-1,4.2261904E-1,1.5916667E0,5E-1,1.9545455E0,5.5555557E-3,3.693182E-1,1.3614191E-2,-6.1446194E-2,2.41E0,2.295E0,5.5555557E-3,1.7036328E3,-5.7947373E-1,2.4520833E0,-2.3024572E-1,-3.6688752E-2,5E-1,7.9285717E-1,2.5349998E0,1.6076922E0,2.516344E-1,-2.9606644E-2,-4.2147044E-2,5.343701E-1,-5.311068E-2,5.219176E-1,-4.583072E-2,1.5107974E-1,-5.407085E-1,-1.3319317E-1,6.1245028E-2,-9.923177E-2,-1.3517557E-1,5.1736265E-1,5.0411844E-1,1.8393385E-1,3.379962E-1,-1.0551268E-1,2.4854214E-1,7.907339E-3,7.347358E-2,-8.050284E-2,-2.9570404E-1,2.6425648E-1,5.229905E-1,-2.5954628E-2],"split_indices":[13,3,13,0,5,4,2,12,7,0,0,0,5,8,4,12,2,0,2,0,14,0,15,0,0,12,13,3,15,11,8,0,0,0,0,11,2,0,15,0,0,1,14,0,13,0,0,0,0,0,0,0,0,0,0,0,0,0,0,0,0,0,0,0,0,0,0,0,0,0,0],"split_type":[0,0,0,0,0,0,0,0,0,0,0,0,0,0,0,0,0,0,0,0,0,0,0,0,0,0,0,0,0,0,0,0,0,0,0,0,0,0,0,0,0,0,0,0,0,0,0,0,0,0,0,0,0,0,0,0,0,0,0,0,0,0,0,0,0,0,0,0,0,0,0],"sum_hessian":[9.22E2,4.7E2,4.52E2,4.65E2,5E0,7.8E1,3.74E2,4.58E2,7E0,1E0,4E0,8E0,7E1,7E0,3.67E2,1.33E2,3.25E2,4E0,3E0,2E0,6E0,5.7E1,1.3E1,5E0,2E0,1.5E2,2.17E2,1.13E2,2E1,9E0,3.16E2,2E0,1E0,3E0,3E0,2E1,3.7E1,2E0,1.1E1,4E0,1E0,8.2E1,6.8E1,1.4E1,2.03E2,8E0,1.05E2,9E0,1.1E1,6E0,3E0,3.06E2,1E1,2E0,1E0,1E0,2E0,1.6E1,4E0,1.4E1,2.3E1,3E0,8E0,4.2E1,4E1,2.2E1,4.6E1,1.3E1,1E0,5E0,1.98E2],"tree_param":{"num_deleted":"0","num_feature":"16","num_nodes":"71","size_leaf_vector":"0"}},{"base_weights":[1.2076042E-2,2.697287E-3,3.6327618E-1,2.4287933E-2,-2.3171036E-1,1.2542291E-1,1.9864415E0,5.936397E-3,6.1129963E-1,1.7532021E0,-2.815519E-1,-3.5607833E-1,3.2824078E-1,2.275133E-2,-4.5908841E-1,1.3319564E-1,1.1181461E0,-4.0319014E-1,3.2958367E-1,-6.0534376E-1,-1.3530336E-1,7.8130996E-1,-2.1731723E-2,-2.711939E-2,1.1385527E-1,-1.1320984E0,-2.2299567E-2,5.6708336E-1,-2.6310557E-1,-3.0163777E-1,1.2746389E0,-2.70022E-2,-5.306796E-1,-4.1247997E-1,1.0245639E0,-1.8286953E-3,-2.2367692E-1,9.8129E-1,1.8757324E-1,-2.6361766E-1,4.070016E-1,9.32515E-3,-3.7125903E-1,3.8242406E-1,4.154723E-2,-1.2151492E0,-1.507954E-1,8.10668E-1,-4.050308E-1,-7.38257E-2,8.3821213E-1,-1.2265235E-2,-5.108796E-1,1.5562074E0,5.0538057E-3,3.040504E-1,-5.4337025E-1,-5.6203127E-1,4.5574903E-1,-1.4071368E-2,-7.0776856E-1,4.716881E-2,1.4060882E0,3.6129534E-2,-3.8872577E-2,1.0731646E-1,-4.334546E-1],"categories":[],"categories_nodes":[],"categories_segments":[],"categories_sizes":[],"default_left":[1,1,1,1,1,1,0,1,1,0,1,1,1,1,1,1,1,1,1,0,1,1,1,1,1,1,1,1,1,0,1,1,1,1,1,1,0,0,0,1,0,0,0,0,0,0,0,0,0,0,0,0,0,0,0,0,0,0,0,0,0,0,0,0,0,0,0],"id":16,"left_children":[1,3,5,7,9,11,-1,13,15,-1,17,19,21,23,25,27,29,31,33,-1,35,37,39,41,43,45,47,49,51,-1,53,55,57,59,61,63,-1,-1,-1,65,-1,-1,-1,-1,-1,-1,-1,-1,-1,-1,-1,-1,-1,-1,-1,-1,-1,-1,-1,-1,-1,-1,-1,-1,-1,-1,-1],"loss_changes":[3.039216E0,4.560539E0,9.016659E0,8.883739E0,8.012379E0,2.2653346E0,0E0,6.2737527E0,5.9091997E0,0E0,5.7081943E0,3.0331594E-1,2.553967E0,3.5196939E0,8.205728E0,2.5565057E0,3.0507116E0,3.0071516E0,7.1269665E0,0E0,5.856911E-2,6.470847E-1,1.1443385E0,6.28701E0,5.305104E0,7.132387E-1,6.0667944E0,1.278264E0,4.9094772E-1,0E0,3.9243622E0,3.0712767E0,1.7096767E0,8.1355953E-1,2.5439758E0,5.622809E-3,0E0,0E0,0E0,4.8750505E-1,0E0,0E0,0E0,0E0,0E0,0E0,0E0,0E0,0E0,0E0,0E0,0E0,0E0,0E0,0E0,0E0,0E0,0E0,0E0,0E0,0E0,0E0,0E0,0E0,0E0,0E0,0E0],"parents":[2147483647,0,0,1,1,2,2,3,3,4,4,5,5,7,7,8,8,10,10,11,11,12,12,13,13,14,14,15,15,16,16,17,17,18,18,20,20,21,21,22,22,23,23,24,24,25,25,26,26,27,27,28,28,30,30,31,31,32,32,33,33,34,34,35,35,39,39],"right_children":[2,4,6,8,10,12,-1,14,16,-1,18,20,22,24,26,28,30,32,34,-1,36,38,40,42,44,46,48,50,52,-1,54,56,58,60,62,64,-1,-1,-1,66,-1,-1,-1,-1,-1,-1,-1,-1,-1,-1,-1,-1,-1,-1,-1,-1,-1,-1,-1,-1,-1,-1,-1,-1,-1,-1,-1],"split_conditions":[3.1E0,2.3923078E0,8.333035E1,2.2928572E0,2.6785713E-1,1.1805556E-2,5.959325E-1,8.619048E-2,1.7748965E3,5.259606E-1,1.8944385E3,3.3000002E0,2.155E0,2.4038462E-2,9.258242E-2,1.7132605E3,1.585E0,4.166667E-3,2.4E0,-1.8160313E-1,1.895E0,7.1428575E-2,2.41E0,2.2792208E0,1.6839529E3,1.9231472E3,1.6864922E3,3.1015385E1,3.2051284E-2,-9.049133E-2,2.51E0,1.0884616E0,2.57E0,2.355E0,4.8041664E1,1.59E0,-6.710308E-2,2.94387E-1,5.6271974E-2,5E-1,1.2210049E-1,2.7975452E-3,-1.11377716E-1,1.1472722E-1,1.246417E-2,-3.6454475E-1,-4.523862E-2,2.432004E-1,-1.2150924E-1,-2.2147711E-2,2.5146365E-1,-3.6795707E-3,-1.5326388E-1,4.6686223E-1,1.5161418E-3,9.121512E-2,-1.6301107E-1,-1.6860938E-1,1.3672471E-1,-4.2214105E-3,-2.1233058E-1,1.4150644E-2,4.2182648E-1,1.0838861E-2,-1.1661774E-2,3.219494E-2,-1.3003638E-1],"split_indices":[3,13,5,13,12,10,0,10,2,0,2,3,0,10,10,2,0,10,3,0,0,7,0,15,2,2,2,5,11,0,0,14,0,0,5,0,0,0,0,1,0,0,0,0,0,0,0,0,0,0,0,0,0,0,0,0,0,0,0,0,0,0,0,0,0,0,0],"split_type":[0,0,0,0,0,0,0,0,0,0,0,0,0,0,0,0,0,0,0,0,0,0,0,0,0,0,0,0,0,0,0,0,0,0,0,0,0,0,0,0,0,0,0,0,0,0,0,0,0,0,0,0,0,0,0,0,0,0,0,0,0,0,0,0,0,0,0],"sum_hessian":[9.22E2,8.99E2,2.3E1,8.24E2,7.5E1,2.1E1,2E0,8E2,2.4E1,1E0,7.4E1,6E0,1.5E1,7.73E2,2.7E1,1.3E1,1.1E1,6.2E1,1.2E1,2E0,4E0,6E0,9E0,5E2,2.73E2,1E1,1.7E1,6E0,7E0,1E0,1E1,1.6E1,4.6E1,6E0,6E0,2E0,2E0,4E0,2E0,6E0,3E0,4.53E2,4.7E1,5.7E1,2.16E2,9E0,1E0,5E0,1.2E1,2E0,4E0,4E0,3E0,8E0,2E0,1E1,6E0,4.5E1,1E0,3E0,3E0,2E0,4E0,1E0,1E0,2E0,4E0],"tree_param":{"num_deleted":"0","num_feature":"16","num_nodes":"67","size_leaf_vector":"0"}},{"base_weights":[1.012581E-2,-3.0516377E-2,6.599585E-2,-4.4589113E-2,4.6031114E-1,-3.6868993E-2,1.9872683E-1,-1.2517424E-1,3.996311E-2,1.2511535E0,-6.0225368E-2,7.232379E-2,-2.9836446E-1,1.0369091E0,1.454315E-1,-2.1862635E-1,1.2151336E-1,1.1949134E-1,-3.5490844E-1,1.4673276E0,8.514148E-2,-3.0725232E-1,6.1858827E-1,1.20777525E-1,-5.773643E-1,-6.395997E-1,1.2397175E-2,3.202072E0,4.4054973E-1,-1.0435748E0,1.8237163E-1,-6.545111E-2,-4.184338E-1,-4.0807477E-1,3.390497E-1,6.821996E-1,5.1105056E-2,2.0672178E-1,-1.0111192E0,1.7244017E0,2.1951532E-1,-6.1656083E-3,-6.0679764E-1,-2.566245E-1,1.9343501E-1,-1.154489E0,-8.265181E-2,-9.6180403E-1,-4.9292475E-2,2.347568E-1,-4.9409264E-1,-1.1062171E0,7.7217275E-1,-1.1918015E0,-2.253338E-1,4.739695E-1,3.7603132E-2,1.0267991E0,-1.1587915E-1,2.3609456E-1,-7.1591365E-1,6.306154E-1,-5.4347456E-1,4.227902E-2,9.1375494E-1,6.217962E-2,1.0763425E0,1.935418E-1,-1.2879889E-1,-2.7069393E-1,1.0324917E0,-1.3131256E0,-8.7583505E-2,2.1673632E-1,-1.16075166E-1,-1.6995603E-1,-8.066518E-1,5.535484E-1,9.5920905E-2,1.959511E-1,-3.405918E-1,-1.3536648E0,-4.345768E-1,9.619413E-1,-9.090225E-1,5.0544804E-1,-4.0364307E-1,5.6902856E-2,-7.078288E-1,1.0554417E0,-5.1756103E-2,6.956703E-1,-3.230058E-1,-7.1098083E-1,1.3176529E-1],"categories":[],"categories_nodes":[],"categories_segments":[],"categories_sizes":[],"default_left":[1,1,1,1,1,1,1,1,1,1,1,1,1,1,1,1,1,1,1,1,0,1,0,1,1,1,1,0,1,1,1,1,1,1,1,1,1,1,1,0,0,1,0,1,1,0,1,1,1,1,1,0,1,0,0,1,1,0,0,0,0,0,0,0,0,0,0,0,0,0,0,0,0,0,0,0,0,0,0,0,0,0,0,0,0,0,0,0,0,0,0,0,0,0,0],"id":17,"left_children":[1,3,5,7,9,11,13,15,17,19,21,23,25,27,29,31,33,35,37,39,-1,41,-1,43,45,47,49,-1,51,53,55,57,59,61,63,65,67,69,71,-1,-1,73,-1,75,77,-1,79,81,83,85,87,-1,89,-1,-1,91,93,-1,-1,-1,-1,-1,-1,-1,-1,-1,-1,-1,-1,-1,-1,-1,-1,-1,-1,-1,-1,-1,-1,-1,-1,-1,-1,-1,-1,-1,-1,-1,-1,-1,-1,-1,-1,-1,-1],"loss_changes":[2.097852E0,3.7159235E0,5.3184805E0,3.554915E0,6.250286E0,6.3033304E0,7.4433074E0,6.1818438E0,8.050285E0,1.3874378E0,1.8669152E0,4.980584E0,6.900712E0,1.150148E1,7.2617674E0,5.9100904E0,8.663503E0,8.161701E0,1.6056576E1,1.2253695E0,0E0,7.1777153E-1,0E0,4.0531187E0,3.0451982E0,5.848776E0,4.0577927E0,0E0,5.470682E0,3.3787298E-1,6.609803E0,6.2328687E0,1.6524578E1,3.436769E0,9.000817E0,5.553731E0,4.9192896E0,9.741141E0,5.4632645E0,0E0,0E0,1.4765295E-1,0E0,1.0069852E0,4.266188E0,0E0,5.697791E-1,3.543724E0,1.1307084E1,4.524252E0,1.335722E0,0E0,1.921773E0,0E0,0E0,9.412591E0,7.5654397E0,0E0,0E0,0E0,0E0,0E0,0E0,0E0,0E0,0E0,0E0,0E0,0E0,0E0,0E0,0E0,0E0,0E0,0E0,0E0,0E0,0E0,0E0,0E0,0E0,0E0,0E0,0E0,0E0,0E0,0E0,0E0,0E0,0E0,0E0,0E0,0E0,0E0,0E0],"parents":[2147483647,0,0,1,1,2,2,3,3,4,4,5,5,6,6,7,7,8,8,9,9,10,10,11,11,12,12,13,13,14,14,15,15,16,16,17,17,18,18,19,19,21,21,23,23,24,24,25,25,26,26,28,28,29,29,30,30,31,31,32,32,33,33,34,34,35,35,36,36,37,37,38,38,41,41,43,43,44,44,46,46,47,47,48,48,49,49,50,50,52,52,55,55,56,56],"right_children":[2,4,6,8,10,12,14,16,18,20,22,24,26,28,30,32,34,36,38,40,-1,42,-1,44,46,48,50,-1,52,54,56,58,60,62,64,66,68,70,72,-1,-1,74,-1,76,78,-1,80,82,84,86,88,-1,90,-1,-1,92,94,-1,-1,-1,-1,-1,-1,-1,-1,-1,-1,-1,-1,-1,-1,-1,-1,-1,-1,-1,-1,-1,-1,-1,-1,-1,-1,-1,-1,-1,-1,-1,-1,-1,-1,-1,-1,-1,-1],"split_conditions":[1.5E0,3.875E-1,2.3449998E0,1.4226191E0,8.174603E-1,2.245E0,2.355E0,8.567291E1,8.909091E1,2.415E0,2.39E0,2.1825397E-1,6.904762E-2,1.6125E0,1.3484849E0,2.315E0,9E-1,1.4580419E0,2.35E0,1.8896359E3,2.5542445E-2,7.142857E-3,1.8557648E-1,1.555E0,1.3333334E-2,2.315E0,7.083334E-2,9.606216E-1,1.8E0,1.8297878E3,1.7071428E0,1.5979658E3,1.0972223E0,1.6549346E3,1.6025642E-1,1.925E0,1.7795769E3,1.1E0,1.7774705E3,5.173205E-1,6.58546E-2,1.6848073E3,-1.8203929E-1,1.535E0,1.7024775E3,-3.4634674E-1,1.7869729E3,1.8333334E-2,2.2261906E0,8.436667E1,9E-1,-3.3186516E-1,2.4375E0,-3.575405E-1,-6.760014E-2,1.8977892E3,1.7928572E0,3.0803972E-1,-3.4763746E-2,7.082837E-2,-2.147741E-1,1.8918464E-1,-1.6304237E-1,1.2683706E-2,2.741265E-1,1.8653886E-2,3.2290274E-1,5.8062542E-2,-3.863967E-2,-8.1208184E-2,3.0974752E-1,-3.939377E-1,-2.6275052E-2,6.50209E-2,-3.482255E-2,-5.098681E-2,-2.4199554E-1,1.6606453E-1,2.8776273E-2,5.8785334E-2,-1.0217754E-1,-4.0609944E-1,-1.3037305E-1,2.885824E-1,-2.7270678E-1,1.5163442E-1,-1.2109292E-1,1.7070858E-2,-2.1234865E-1,3.1663254E-1,-1.5526831E-2,2.087011E-1,-9.6901745E-2,-2.1329425E-1,3.9529588E-2],"split_indices":[3,8,0,14,13,0,0,5,5,0,0,8,8,13,15,0,4,14,0,2,0,10,0,0,11,0,11,0,3,2,13,2,14,2,8,0,2,3,2,0,0,2,0,0,2,0,2,10,15,5,4,0,13,0,0,2,13,0,0,0,0,0,0,0,0,0,0,0,0,0,0,0,0,0,0,0,0,0,0,0,0,0,0,0,0,0,0,0,0,0,0,0,0,0,0],"split_type":[0,0,0,0,0,0,0,0,0,0,0,0,0,0,0,0,0,0,0,0,0,0,0,0,0,0,0,0,0,0,0,0,0,0,0,0,0,0,0,0,0,0,0,0,0,0,0,0,0,0,0,0,0,0,0,0,0,0,0,0,0,0,0,0,0,0,0,0,0,0,0,0,0,0,0,0,0,0,0,0,0,0,0,0,0,0,0,0,0,0,0,0,0,0,0],"sum_hessian":[9.22E2,5.34E2,3.88E2,5.2E2,1.4E1,2.19E2,1.69E2,2.66E2,2.54E2,5E0,9E0,1.55E2,6.4E1,9E0,1.6E2,1.93E2,7.3E1,2.12E2,4.2E1,4E0,1E0,7E0,2E0,1.45E2,1E1,3E1,3.4E1,1E0,8E0,4E0,1.56E2,1.1E2,8.3E1,2.1E1,5.2E1,2.2E1,1.9E2,2.3E1,1.9E1,3E0,1E0,4E0,3E0,2.3E1,1.22E2,4E0,6E0,1.9E1,1.1E1,2.4E1,1E1,1E0,7E0,3E0,1E0,5.1E1,1.05E2,4E0,1.06E2,2.6E1,5.7E1,2E0,1.9E1,3.5E1,1.7E1,9E0,1.3E1,1.06E2,8.4E1,1.5E1,8E0,1.4E1,5E0,1E0,3E0,2.1E1,2E0,2.5E1,9.7E1,3E0,3E0,1E1,9E0,5E0,6E0,1.7E1,7E0,3E0,7E0,5E0,2E0,4E1,1.1E1,1.1E1,9.4E1],"tree_param":{"num_deleted":"0","num_feature":"16","num_nodes":"95","size_leaf_vector":"0"}},{"base_weights":[7.6553235E-3,-2.2598521E-1,1.9607734E-2,4.5535332E-1,-3.856085E-1,2.2041534E-1,3.277924E-4,-1.2866466E-1,1.2175419E0,9.4108425E-2,-5.921852E-1,-6.9485515E-2,6.769095E-1,2.0442184E-2,-1.8427046E-1,8.389902E-1,-4.8999366E-1,-1.1098838E-1,1.6973815E0,-1.8611343E-1,4.053492E-1,-9.011649E-1,-8.892519E-2,-6.574943E-1,1.0255612E-1,2.9926827E-2,1.241149E0,-4.5835796E-1,3.6077976E-2,3.4181112E-1,-3.451111E-1,-6.977618E-1,1.7053938E-1,-2.0174482E-1,-4.6162546E-2,6.8137276E-1,-9.7798675E-2,-9.888779E-1,-1.9144945E-1,-4.4922853E-1,2.86199E-1,-1.2393669E0,3.396069E-2,-1.2089921E-1,4.5324758E-1,-3.2037535E-1,6.08776E-1,1.5394285E-1,1.4802009E0,1.29705705E-2,-8.219161E-1,-4.697425E-2,1.07609585E-1,1.1495032E0,4.9793012E-2,-1.184668E0,-1.5726332E-1,-1.7700805E-1,3.0310035E-2,-3.5530707E-1,-1.064864E0,-1.821897E-1,-6.555374E-1,4.9587917E-1,-8.8774204E-2,3.715117E-1,-4.2742756E-1,8.277422E-2,-4.6955207E-1,1.1496907E0,2.576647E-1,-5.901134E-1,5.0571793E-1,1.2636116E-1,1.0490705E0,3.0163598E-1,-1.4456826E-1,4.536683E-1,1.88603E0,-3.4910136E-1,1.9238523E-1,-1.3494748E0,-5.2870107E-1,8.6171937E-1,-5.8081992E-2,-6.667938E-1,1.370179E-1,1.3822126E0,1.09332584E-1,-2.3459218E-1,5.154695E-1,-4.9857143E-1,-1.6733198E0,9.603036E-1,-3.5688314E-1],"categories":[],"categories_nodes":[],"categories_segments":[],"categories_sizes":[],"default_left":[1,1,1,1,1,1,1,1,1,1,1,1,1,1,1,0,1,0,0,1,1,1,1,1,1,1,1,1,1,1,1,0,0,0,0,0,1,1,0,1,1,0,1,1,1,1,1,1,1,1,1,1,1,1,1,1,1,0,0,0,0,0,0,0,0,0,0,0,0,0,0,0,0,0,0,0,0,0,0,0,0,0,0,0,0,0,0,0,0,0,0,0,0,0,0],"id":18,"left_children":[1,3,5,7,9,11,13,15,17,19,21,23,25,27,29,-1,31,-1,-1,33,35,37,39,41,43,45,47,49,51,53,55,-1,-1,-1,-1,-1,57,59,-1,61,63,-1,65,67,69,71,73,75,77,79,81,83,85,87,89,91,93,-1,-1,-1,-1,-1,-1,-1,-1,-1,-1,-1,-1,-1,-1,-1,-1,-1,-1,-1,-1,-1,-1,-1,-1,-1,-1,-1,-1,-1,-1,-1,-1,-1,-1,-1,-1,-1,-1],"loss_changes":[2.5819712E0,5.0696754E0,3.403028E0,4.1628413E0,3.7223682E0,1.0237065E1,2.9853714E0,2.5089507E0,2.738315E0,1.1220385E0,3.9627895E0,4.923206E0,1.091445E1,5.4441905E0,6.8025713E0,0E0,8.0518436E-1,0E0,0E0,6.00031E-3,8.999216E-1,8.0669975E-1,1.6153122E0,4.4678154E0,3.0326245E0,3.2366188E0,3.9305134E0,3.9518332E0,4.181479E0,4.4241157E0,9.433939E0,0E0,0E0,0E0,0E0,0E0,3.580735E-2,2.956438E-1,0E0,2.1112275E-1,5.1576793E-1,0E0,1.0932468E0,1.7431386E0,1.7469501E0,2.5267189E0,1.1418655E0,2.1995914E-1,4.560129E0,7.817331E-1,1.2974768E0,3.3405423E0,8.6999E0,1.0591674E0,2.1073978E0,2.8536186E0,1.1720231E1,0E0,0E0,0E0,0E0,0E0,0E0,0E0,0E0,0E0,0E0,0E0,0E0,0E0,0E0,0E0,0E0,0E0,0E0,0E0,0E0,0E0,0E0,0E0,0E0,0E0,0E0,0E0,0E0,0E0,0E0,0E0,0E0,0E0,0E0,0E0,0E0,0E0,0E0],"parents":[2147483647,0,0,1,1,2,2,3,3,4,4,5,5,6,6,7,7,8,8,9,9,10,10,11,11,12,12,13,13,14,14,16,16,19,19,20,20,21,21,22,22,23,23,24,24,25,25,26,26,27,27,28,28,29,29,30,30,36,36,37,37,39,39,40,40,42,42,43,43,44,44,45,45,46,46,47,47,48,48,49,49,50,50,51,51,52,52,53,53,54,54,55,55,56,56],"right_children":[2,4,6,8,10,12,14,16,18,20,22,24,26,28,30,-1,32,-1,-1,34,36,38,40,42,44,46,48,50,52,54,56,-1,-1,-1,-1,-1,58,60,-1,62,64,-1,66,68,70,72,74,76,78,80,82,84,86,88,90,92,94,-1,-1,-1,-1,-1,-1,-1,-1,-1,-1,-1,-1,-1,-1,-1,-1,-1,-1,-1,-1,-1,-1,-1,-1,-1,-1,-1,-1,-1,-1,-1,-1,-1,-1,-1,-1,-1,-1],"split_conditions":[1.6275806E3,7.0000005E-1,1.6632793E3,5.5555557E-3,2.0900002E0,2.4038462E-2,1.1805555E-1,1.655E0,2.1100001E0,3.221818E1,7.9121796E1,7.0000005E-1,1.6524824E3,1.671277E3,2.295E0,2.5169706E-1,8.44375E1,-3.3296514E-2,5.0921446E-1,1.825E0,9E-1,1.3392857E-1,5E-1,8.1593406E-1,1.3392857E-2,1.2698413E-1,9E-1,5E-3,2.2849998E0,2.0833334E-1,2.3095238E0,-2.0932855E-1,5.1161814E-2,-6.052345E-2,-1.3848764E-2,2.0441183E-1,1.8299999E0,1.5908147E3,-5.743484E-2,2.967033E-1,2.48E0,-3.7181008E-1,5E-1,2.25E0,1.6378396E3,1.9E0,8.6363636E-2,2.5349998E0,1.05E0,8.1666666E-1,1.1805556E-2,3E-1,8.712122E-2,1.9129202E3,3.1666666E-2,9E-1,1.7130273E3,-5.3102415E-2,9.093011E-3,-1.06592126E-1,-3.1945923E-1,-5.465691E-2,-1.9666123E-1,1.4876376E-1,-2.6632262E-2,1.1145351E-1,-1.2822828E-1,2.4832267E-2,-1.4086562E-1,3.4490722E-1,7.7299416E-2,-1.7703402E-1,1.5171538E-1,3.790835E-2,3.1472117E-1,9.0490796E-2,-4.337048E-2,1.361005E-1,5.65809E-1,-1.0473041E-1,5.771557E-2,-4.0484247E-1,-1.5861033E-1,2.5851583E-1,-1.7424598E-2,-2.0003815E-1,4.1105375E-2,4.1466382E-1,3.2799777E-2,-7.0377655E-2,1.5464085E-1,-1.4957143E-1,-5.01996E-1,2.880911E-1,-1.0706495E-1],"split_indices":[2,3,2,11,0,10,7,0,0,5,5,3,2,2,0,0,5,0,0,0,4,7,1,13,11,8,4,10,0,12,15,0,0,0,0,0,0,2,0,12,0,0,1,0,2,4,10,0,14,13,10,4,12,2,10,3,2,0,0,0,0,0,0,0,0,0,0,0,0,0,0,0,0,0,0,0,0,0,0,0,0,0,0,0,0,0,0,0,0,0,0,0,0,0,0],"split_type":[0,0,0,0,0,0,0,0,0,0,0,0,0,0,0,0,0,0,0,0,0,0,0,0,0,0,0,0,0,0,0,0,0,0,0,0,0,0,0,0,0,0,0,0,0,0,0,0,0,0,0,0,0,0,0,0,0,0,0,0,0,0,0,0,0,0,0,0,0,0,0,0,0,0,0,0,0,0,0,0,0,0,0,0,0,0,0,0,0,0,0,0,0,0,0],"sum_hessian":[9.22E2,4.4E1,8.78E2,8E0,3.6E1,7.6E1,8.02E2,5E0,3E0,1.1E1,2.5E1,4.7E1,2.9E1,7.24E2,7.8E1,1E0,4E0,1E0,2E0,6E0,5E0,1.5E1,1E1,1E1,3.7E1,1.4E1,1.5E1,2.2E1,7.02E2,1.8E1,6E1,3E0,1E0,5E0,1E0,3E0,2E0,1.3E1,2E0,5E0,5E0,5E0,5E0,2.3E1,1.4E1,9E0,5E0,3E0,1.2E1,1E1,1.2E1,3.25E2,3.77E2,4E0,1.4E1,1E1,5E1,1E0,1E0,2E0,1.1E1,3E0,2E0,3E0,2E0,3E0,2E0,1.5E1,8E0,2E0,1.2E1,7E0,2E0,3E0,2E0,2E0,1E0,4E0,8E0,3E0,7E0,3E0,9E0,3E0,3.22E2,1.3E1,3.64E2,3E0,1E0,9E0,5E0,5E0,5E0,7E0,4.3E1],"tree_param":{"num_deleted":"0","num_feature":"16","num_nodes":"95","size_leaf_vector":"0"}},{"base_weights":[5.9758695E-3,3.51818E-2,-7.589745E-2,4.5125786E-2,-4.0933946E-1,-1.257521E-1,2.1425998E-1,6.0309768E-2,-2.58066E-1,-7.929897E-1,1.4240213E-1,-7.515563E-2,-4.9311212E-1,-2.749027E-2,5.961168E-1,1.5895914E0,5.5398155E-2,-4.590476E-1,3.312803E-2,-3.1645608E-1,-9.785138E-1,3.9244843E-1,-3.2180908E-1,-4.115024E-1,-1.4691525E-2,2.4975309E-1,-6.057643E-1,-1.6074634E-1,9.144656E-1,1.1355511E0,1.7025872E-1,2.6866846E-2,2.8166282E-1,6.422573E-2,-5.6117547E-1,-5.173536E-1,3.0505604E-1,5.251627E-1,1.28918E-1,-2.0265594E-1,-9.082866E-1,3.28697E-2,-4.358792E-1,4.110151E-1,5.8994055E-2,-9.7020805E-2,-7.496877E-1,-8.781851E-3,-8.043999E-1,1.3608289E-1,1.2356155E0,1.4948705E0,2.7794155E-1,-1.8600728E-1,6.6209304E-1,5.746182E-2,-2.0936315E-1,-1.4089039E-1,6.126638E-1,2.5867128E-1,-8.681321E-2,-1.15453E0,-3.3543748E-1,-3.3493247E-2,-8.2876277E-1,-1.0534576E-1,4.208247E-1,-3.0039105E-1,8.7602293E-1,-1.1589037E0,-3.6794347E-1,3.503105E-1,-4.130074E-2,-6.327903E-1,6.2833256E-1,7.533097E-2,-2.9448292E-1,-8.872794E-1,-8.0694646E-2,-7.0615315E-1,1.22524135E-1,-9.115744E-2,-1.0117615E0,1.9535166E0,5.9466124E-2,3.815993E-1,3.531301E-2,-2.7822265E-1,-1.0510286E-3],"categories":[],"categories_nodes":[],"categories_segments":[],"categories_sizes":[],"default_left":[1,1,1,1,1,1,1,1,1,1,1,1,1,1,1,0,1,1,1,0,0,1,0,1,1,1,1,1,1,1,1,1,1,1,1,1,1,0,0,1,1,1,1,0,0,1,1,1,1,0,0,1,1,1,0,0,0,0,0,0,0,0,0,0,0,0,0,0,0,0,0,0,0,0,0,0,0,0,0,0,0,0,0,0,0,0,0,0,0],"id":19,"left_children":[1,3,5,7,9,11,13,15,17,19,21,23,25,27,29,-1,31,33,35,-1,-1,37,-1,39,41,43,45,47,49,51,53,55,57,59,61,63,65,-1,-1,67,69,71,73,-1,-1,75,77,79,81,-1,-1,83,85,87,-1,-1,-1,-1,-1,-1,-1,-1,-1,-1,-1,-1,-1,-1,-1,-1,-1,-1,-1,-1,-1,-1,-1,-1,-1,-1,-1,-1,-1,-1,-1,-1,-1,-1,-1],"loss_changes":[2.2097354E0,3.0287044E0,3.542109E0,3.0862038E0,3.2880602E0,3.829061E0,3.3396907E0,4.689086E0,1.8879962E0,4.860201E-1,9.3881345E-1,3.7359452E0,2.2434268E0,3.0339875E0,3.0227776E0,0E0,4.091756E0,1.0514169E0,2.253501E0,0E0,0E0,1.0716832E-1,0E0,2.7209754E0,3.159383E0,9.8801285E-2,1.538106E0,2.0469978E0,5.8178663E-1,1.4334478E0,1.7001687E0,4.09554E0,1.0016773E1,1.399315E-1,1.7558098E0,7.256348E-1,5.194489E-1,0E0,0E0,2.4770699E0,6.5694284E-1,3.357819E0,3.750485E0,0E0,0E0,2.2638135E-1,1.4932165E0,1.7347633E0,4.9936724E-1,0E0,0E0,2.5172024E0,6.1975583E-2,1.0204244E-1,0E0,0E0,0E0,0E0,0E0,0E0,0E0,0E0,0E0,0E0,0E0,0E0,0E0,0E0,0E0,0E0,0E0,0E0,0E0,0E0,0E0,0E0,0E0,0E0,0E0,0E0,0E0,0E0,0E0,0E0,0E0,0E0,0E0,0E0,0E0],"parents":[2147483647,0,0,1,1,2,2,3,3,4,4,5,5,6,6,7,7,8,8,9,9,10,10,11,11,12,12,13,13,14,14,16,16,17,17,18,18,21,21,23,23,24,24,25,25,26,26,27,27,28,28,29,29,30,30,31,31,32,32,33,33,34,34,35,35,36,36,39,39,40,40,41,41,42,42,45,45,46,46,47,47,48,48,51,51,52,52,53,53],"right_children":[2,4,6,8,10,12,14,16,18,20,22,24,26,28,30,-1,32,34,36,-1,-1,38,-1,40,42,44,46,48,50,52,54,56,58,60,62,64,66,-1,-1,68,70,72,74,-1,-1,76,78,80,82,-1,-1,84,86,88,-1,-1,-1,-1,-1,-1,-1,-1,-1,-1,-1,-1,-1,-1,-1,-1,-1,-1,-1,-1,-1,-1,-1,-1,-1,-1,-1,-1,-1,-1,-1,-1,-1,-1,-1],"split_conditions":[3.6038962E-1,2.585E0,2.4850001E0,2.96875E0,2.5707068E0,6.681818E-2,8.4642044E1,3E-1,1.8194444E0,6.2533333E1,1.7E0,3.693182E-1,1.45E0,2.585E0,4.2261904E-1,4.7687742E-1,6.3961044E-2,2.27E0,9E-1,-9.4936825E-2,-2.9355416E-1,2.5949998E0,-9.654273E-2,2.3049998E0,2.455E0,2.3600001E0,2.3049998E0,1.8208567E3,1.6601318E3,1.9020538E3,9.095238E-2,4.5804195E-2,1.4642857E0,1.9449999E0,2.3249998E0,2.41E0,2.295E0,1.5754882E-1,3.8675405E-2,2.1E0,5E-1,3.923077E-1,2.7564101E0,1.2330453E-1,1.7698217E-2,1.1E0,2.4650002E0,1.6275806E3,5E-1,4.0824868E-2,3.7068465E-1,1.25E-1,2.505E0,1.3809524E-1,1.9862792E-1,1.7238546E-2,-6.2808946E-2,-4.2267118E-2,1.8379915E-1,7.760139E-2,-2.6043965E-2,-3.46359E-1,-1.00631244E-1,-1.0047974E-2,-2.4862884E-1,-3.160373E-2,1.2624742E-1,-9.011732E-2,2.628069E-1,-3.4767112E-1,-1.1038304E-1,1.0509316E-1,-1.2390222E-2,-1.8983711E-1,1.8849978E-1,2.2599293E-2,-8.834488E-2,-2.6618382E-1,-2.4208395E-2,-2.1184595E-1,3.6757242E-2,-2.7347231E-2,-3.035285E-1,5.86055E-1,1.7839838E-2,1.14479795E-1,1.0593903E-2,-8.34668E-2,-3.153086E-4],"split_indices":[12,0,0,15,15,10,5,4,13,5,4,12,13,0,12,0,10,0,4,0,0,0,0,0,0,0,0,2,2,2,11,10,13,0,0,0,0,0,0,4,1,12,13,0,0,4,0,2,1,0,0,6,0,8,0,0,0,0,0,0,0,0,0,0,0,0,0,0,0,0,0,0,0,0,0,0,0,0,0,0,0,0,0,0,0,0,0,0,0],"split_type":[0,0,0,0,0,0,0,0,0,0,0,0,0,0,0,0,0,0,0,0,0,0,0,0,0,0,0,0,0,0,0,0,0,0,0,0,0,0,0,0,0,0,0,0,0,0,0,0,0,0,0,0,0,0,0,0,0,0,0,0,0,0,0,0,0,0,0,0,0,0,0,0,0,0,0,0,0,0,0,0,0,0,0,0,0,0,0,0,0],"sum_hessian":[9.22E2,6.8E2,2.42E2,6.66E2,1.4E1,2.07E2,3.5E1,6.35E2,3.1E1,8E0,6E0,1.83E2,2.4E1,2.2E1,1.3E1,1E0,6.34E2,1.8E1,1.3E1,3E0,5E0,4E0,2E0,2.7E1,1.56E2,3E0,2.1E1,2E1,2E0,5E0,8E0,5.64E2,7E1,3E0,1.5E1,4E0,9E0,2E0,2E0,2E1,7E0,1.41E2,1.5E1,1E0,2E0,5E0,1.6E1,1.7E1,3E0,1E0,1E0,3E0,2E0,5E0,3E0,5E2,6.4E1,3.1E1,3.9E1,1E0,2E0,3E0,1.2E1,2E0,2E0,2E0,7E0,1.9E1,1E0,4E0,3E0,2.6E1,1.15E2,1.3E1,2E0,3E0,2E0,1.3E1,3E0,2E0,1.5E1,1E0,2E0,2E0,1E0,1E0,1E0,3E0,2E0],"tree_param":{"num_deleted":"0","num_feature":"16","num_nodes":"89","size_leaf_vector":"0"}},{"base_weights":[4.2532976E-3,3.9284045E-1,-4.331341E-4,-1.1709675E-1,1.0281844E0,-4.2870268E-1,3.3489736E-3,1.2016391E-1,-4.7349894E-1,1.320786E0,-7.111086E-2,2.7282959E-2,-4.9774107E-1,-2.6217693E-2,5.6796603E-2,3.7962025E-1,-3.960524E-2,3.7702867E-1,1.5096955E0,-3.29171E-1,-7.5458074E-1,-5.3675417E-3,-4.2506137E-1,-2.8195146E-1,9.3725175E-2,-1.06375076E-1,8.035213E-2,-6.736299E-2,5.29744E-2,7.9661915E-3,-8.2975155E-1,-4.7195143E-1,1.2368038E-1,9.0383315E-1,5.577828E-2,-2.8851695E-2,-1.3071091E-1,-8.628641E-2,7.7964896E-1,1.5090138E-1,-1.03656664E-1,-7.907074E-1,6.2827164E-1,-1.2382966E0,-1.8594334E-1,-6.780873E-1,-2.0417123E-1,-2.4931118E-1,3.7243432E-1,3.3162755E-1,1.5161351E0,-5.521039E-1,8.7443344E-2],"categories":[],"categories_nodes":[],"categories_segments":[],"categories_sizes":[],"default_left":[1,1,1,1,1,1,1,1,0,1,0,0,1,1,1,0,1,0,0,0,0,1,1,1,1,1,0,1,1,1,1,1,1,1,1,0,0,0,0,0,0,0,0,0,0,0,0,0,0,0,0,0,0],"id":20,"left_children":[1,3,5,7,9,11,13,15,-1,17,-1,-1,19,21,23,-1,25,-1,-1,-1,-1,27,29,31,33,35,-1,37,39,41,43,45,47,49,51,-1,-1,-1,-1,-1,-1,-1,-1,-1,-1,-1,-1,-1,-1,-1,-1,-1,-1],"loss_changes":[1.6810336E0,3.684238E0,1.4802781E0,6.488191E-1,1.7021999E0,2.654239E-1,1.4332122E0,2.2230057E-1,0E0,1.4394045E-1,0E0,0E0,5.4682136E-2,4.8542347E0,4.066988E0,0E0,4.0585596E-2,0E0,0E0,0E0,0E0,2.014584E0,5.088628E0,2.5246122E0,8.925981E0,1.8885583E-3,0E0,4.394933E0,4.4177647E0,7.9281025E0,3.7151165E0,1.0759339E0,1.1134664E0,4.051923E0,5.4378943E0,0E0,0E0,0E0,0E0,0E0,0E0,0E0,0E0,0E0,0E0,0E0,0E0,0E0,0E0,0E0,0E0,0E0,0E0],"parents":[2147483647,0,0,1,1,2,2,3,3,4,4,5,5,6,6,7,7,9,9,12,12,13,13,14,14,16,16,21,21,22,22,23,23,24,24,25,25,27,27,28,28,29,29,30,30,31,31,32,32,33,33,34,34],"right_children":[2,4,6,8,10,12,14,16,-1,18,-1,-1,20,22,24,-1,26,-1,-1,-1,-1,28,30,32,34,36,-1,38,40,42,44,46,48,50,52,-1,-1,-1,-1,-1,-1,-1,-1,-1,-1,-1,-1,-1,-1,-1,-1,-1,-1],"split_conditions":[4.2222223E-1,8.3333336E-2,5.584416E-1,2.13E0,5E-1,1.6850142E3,2.395E0,1.7072986E3,-1.4204969E-1,1.7049999E0,-2.1333259E-2,8.184888E-3,2.185E0,2.375E0,1.6559846E3,1.1388608E-1,1.755E0,1.13108605E-1,4.5290866E-1,-9.875131E-2,-2.2637422E-1,1.3038461E0,2.5396826E-2,8.414285E1,1.6655621E3,1.605E0,2.410564E-2,3.693182E-1,1.8516483E0,5E-1,7.1059525E1,2.967033E-1,5.5555557E-3,1.6619197E3,8.712122E-2,-8.655509E-3,-3.9213277E-2,-2.5885925E-2,2.3389469E-1,4.5270413E-2,-3.1097E-2,-2.3721223E-1,1.884815E-1,-3.71489E-1,-5.5783004E-2,-2.034262E-1,-6.125137E-2,-7.479335E-2,1.117303E-1,9.9488266E-2,4.5484054E-1,-1.6563118E-1,2.6233004E-2],"split_indices":[5,5,5,0,1,2,0,2,0,0,0,0,0,0,2,0,0,0,0,0,0,14,11,5,2,0,0,8,14,1,5,12,11,2,12,0,0,0,0,0,0,0,0,0,0,0,0,0,0,0,0,0,0],"split_type":[0,0,0,0,0,0,0,0,0,0,0,0,0,0,0,0,0,0,0,0,0,0,0,0,0,0,0,0,0,0,0,0,0,0,0,0,0,0,0,0,0,0,0,0,0,0,0,0,0,0,0,0,0],"sum_hessian":[9.22E2,1E1,9.12E2,6E0,4E0,7E0,9.05E2,4E0,2E0,3E0,1E0,1E0,6E0,5.83E2,3.22E2,1E0,3E0,1E0,2E0,5E0,1E0,5.55E2,2.8E1,3.1E1,2.91E2,2E0,1E0,2.69E2,2.86E2,1.4E1,1.4E1,2.1E1,1E1,1.2E1,2.79E2,1E0,1E0,2.64E2,5E0,1.76E2,1.1E2,6E0,8E0,8E0,6E0,1.1E1,1E1,4E0,6E0,7E0,5E0,1.3E1,2.66E2],"tree_param":{"num_deleted":"0","num_feature":"16","num_nodes":"53","size_leaf_vector":"0"}},{"base_weights":[3.0955994E-3,1.1080667E-2,-1.7818339E-1,1.2901298E-2,-7.9917806E-1,-2.597457E-1,1.4605918E0,-1.7399166E-2,6.60993E-2,5.401754E-1,-3.6974156E-1,2.9456473E-3,-2.9134718E-1,4.604381E-2,5.786913E-1,1.0085195E0,-6.666007E-1,-8.5298574E-1,-1.3284875E-1,4.9697492E-2,-1.0927778E-1,-8.279834E-1,8.816429E-3,2.4712852E-1,-2.3665305E-4,1.1780277E0,1.317696E-1,1.1864423E0,2.373758E-1,-9.5380056E-1,-2.662127E-1,-3.1176203E-1,4.5585147E-1,9.0768844E-2,-2.3623782E-1,-1.9652395E-1,4.5679417E-1,-1.1286485E0,-3.6608273E-1,-2.6215342E-1,2.5980157E-1,-1.739112E-1,5.494481E-1,2.7077112E-1,-5.0891206E-2,-2.5948846E-1,1.602279E0,-1.47745265E-2,5.7878923E-1,-3.578407E-1,-1.0729547E0,-4.6353254E-1,1.4634899E-2,-3.3964038E-2,7.092502E-1],"categories":[],"categories_nodes":[],"categories_segments":[],"categories_sizes":[],"default_left":[1,1,1,1,0,1,0,1,1,1,1,1,1,1,1,1,0,1,1,1,1,1,1,1,1,1,1,0,0,1,0,1,1,0,0,0,0,0,0,0,0,0,0,0,0,0,0,0,0,0,0,0,0,0,0],"id":21,"left_children":[1,3,5,7,-1,9,-1,11,13,15,17,19,21,23,25,27,-1,29,31,33,35,37,39,41,43,45,47,-1,-1,49,-1,51,53,-1,-1,-1,-1,-1,-1,-1,-1,-1,-1,-1,-1,-1,-1,-1,-1,-1,-1,-1,-1,-1,-1],"loss_changes":[1.3380401E0,1.3158457E0,5.5922103E0,1.4260912E0,0E0,3.5432699E0,0E0,3.1442676E0,3.2733269E0,3.4982123E0,3.778902E0,2.7651699E0,6.2893677E0,2.8850093E0,3.0590496E0,2.671833E-1,0E0,3.9679432E-1,2.669948E0,4.390118E0,7.744851E0,1.531105E0,1.8363523E0,7.478289E0,3.4869077E0,3.4651127E0,5.3261614E-1,0E0,0E0,2.5515366E-1,0E0,9.479948E-1,7.6880074E-1,0E0,0E0,0E0,0E0,0E0,0E0,0E0,0E0,0E0,0E0,0E0,0E0,0E0,0E0,0E0,0E0,0E0,0E0,0E0,0E0,0E0,0E0],"parents":[2147483647,0,0,1,1,2,2,3,3,5,5,7,7,8,8,9,9,10,10,11,11,12,12,13,13,14,14,15,15,17,17,18,18,19,19,20,20,21,21,22,22,23,23,24,24,25,25,26,26,29,29,31,31,32,32],"right_children":[2,4,6,8,-1,10,-1,12,14,16,18,20,22,24,26,28,-1,30,32,34,36,38,40,42,44,46,48,-1,-1,50,-1,52,54,-1,-1,-1,-1,-1,-1,-1,-1,-1,-1,-1,-1,-1,-1,-1,-1,-1,-1,-1,-1,-1,-1],"split_conditions":[8.619048E-2,2.6350002E0,2.5E0,2.4038462E-2,-2.3975343E-1,4.4216667E1,4.3817756E-1,1.9375E-2,2.1678324E0,1.7943514E3,2.5192308E0,1.6333333E0,1.710338E3,1.6839529E3,2.3375E0,5E-1,-1.9998021E-1,2.3000002E0,1.6961539E0,2.4850001E0,2.4850001E0,2.1825397E-2,5E-1,1.6524824E3,2.085E0,1.6854883E3,5.3571427E-1,3.5593268E-1,7.121274E-2,9.5454544E-2,-7.986382E-2,1.3809524E-1,1.4E0,2.7230654E-2,-7.087135E-2,-5.8957186E-2,1.3703826E-1,-3.3859456E-1,-1.0982482E-1,-7.864603E-2,7.794047E-2,-5.217336E-2,1.6483442E-1,8.123134E-2,-1.5267362E-2,-7.784654E-2,4.806837E-1,-4.4323583E-3,1.7363678E-1,-1.0735221E-1,-3.2188642E-1,-1.3905977E-1,4.3904698E-3,-1.0189212E-2,2.1277507E-1],"split_indices":[10,0,3,10,0,5,0,10,14,2,15,4,2,2,14,1,0,3,14,0,0,10,1,2,0,2,8,0,0,10,0,6,4,0,0,0,0,0,0,0,0,0,0,0,0,0,0,0,0,0,0,0,0,0,0],"split_type":[0,0,0,0,0,0,0,0,0,0,0,0,0,0,0,0,0,0,0,0,0,0,0,0,0,0,0,0,0,0,0,0,0,0,0,0,0,0,0,0,0,0,0,0,0,0,0,0,0,0,0,0,0,0,0],"sum_hessian":[9.22E2,8.84E2,3.8E1,8.83E2,1E0,3.7E1,1E0,5.63E2,3.2E2,4E0,3.3E1,5.25E2,3.8E1,3.09E2,1.1E1,3E0,1E0,1E1,2.3E1,3.71E2,1.54E2,1.3E1,2.5E1,5.7E1,2.52E2,4E0,7E0,2E0,1E0,8E0,2E0,1.8E1,5E0,3.25E2,4.6E1,1.34E2,2E1,7E0,6E0,1.2E1,1.3E1,2.4E1,3.3E1,3.9E1,2.13E2,1E0,3E0,6E0,1E0,2E0,6E0,1.2E1,6E0,2E0,3E0],"tree_param":{"num_deleted":"0","num_feature":"16","num_nodes":"55","size_leaf_vector":"0"}},{"base_weights":[2.5140268E-3,-3.2054693E-2,5.0262276E-2,-6.716714E-2,1.0298996E-1,6.848426E-2,-7.2469515E-1,2.3574983E-1,-8.7446116E-2,1.4472152E0,5.2250225E-2,1.1315017E0,5.7023905E-2,-4.1069508E-2,-8.0501467E-1,-9.47713E-2,9.073222E-1,-6.70193E-2,-7.423282E-1,2.481427E0,-8.2771015E-1,-2.5290444E-1,1.7838918E-1,1.5103086E0,-2.459526E-3,2.5976E-1,3.2674647E-3,-9.177461E-1,-3.1121352E-1,-4.234596E-1,2.433941E-1,1.2098752E-1,1.5121925E0,-1.5016924E-1,6.221962E-2,-3.850279E-1,-1.6858866E0,2.9552452E-2,-4.742349E-1,3.117253E-1,-1.4821409E-1,4.740324E-1,-1.9525804E-1,-3.3782635E-2,3.777641E-1,-1.5676747E-1,-5.751264E-1,5.3361726E-1,-6.116657E-1,-2.798249E-2,3.5843378E-1,1.9531255E0,-1.2576985E-1,-1.05198085E-1,-7.259608E-1,-9.389314E-3,2.8697705E-1,2.8694925E-1,-7.1401083E-1,1.9642422E-1,-2.5349256E-1,-1.8536543E-2,-6.0311043E-1,-1.2434657E-2,6.2475216E-1,-1.429865E-2,-7.8073776E-1,8.6433595E-1,1.3297834E-1,-8.995616E-1,6.101111E-2,1.32622E-1,-1.4689387E-1,6.057861E-1,-5.212771E-1],"categories":[],"categories_nodes":[],"categories_segments":[],"categories_sizes":[],"default_left":[1,1,1,1,1,1,1,1,1,1,1,1,1,0,1,1,1,1,1,0,0,1,1,0,0,1,1,0,0,1,1,1,1,1,1,1,0,1,1,1,1,1,1,1,1,0,0,0,0,0,0,0,0,0,0,0,0,0,0,0,0,0,0,0,0,0,0,0,0,0,0,0,0,0,0],"id":22,"left_children":[1,3,5,7,9,11,13,15,17,19,21,23,25,-1,27,29,31,33,35,-1,-1,37,39,-1,-1,41,43,-1,-1,45,47,49,51,53,55,57,-1,59,61,63,65,67,69,71,73,-1,-1,-1,-1,-1,-1,-1,-1,-1,-1,-1,-1,-1,-1,-1,-1,-1,-1,-1,-1,-1,-1,-1,-1,-1,-1,-1,-1,-1,-1],"loss_changes":[1.5251112E0,2.548494E0,5.5286803E0,2.6374679E0,7.495208E0,4.5648494E0,4.611144E-1,6.0791473E0,5.301112E0,1.1464922E1,4.202239E0,1.7219234E0,4.107837E0,0E0,1.5972042E-1,2.2149365E0,4.0977173E0,4.1896186E0,3.3964915E0,0E0,0E0,2.014537E0,3.3993986E0,0E0,0E0,7.7948847E0,4.161428E0,0E0,0E0,3.1432235E-1,2.8079772E0,1.8689172E-1,3.856804E0,6.0605106E0,2.4651747E0,2.415575E0,0E0,7.5827545E-1,1.0459309E0,5.588661E0,1.9370443E0,7.0732527E0,4.7476563E0,5.157952E0,5.850814E0,0E0,0E0,0E0,0E0,0E0,0E0,0E0,0E0,0E0,0E0,0E0,0E0,0E0,0E0,0E0,0E0,0E0,0E0,0E0,0E0,0E0,0E0,0E0,0E0,0E0,0E0,0E0,0E0,0E0,0E0],"parents":[2147483647,0,0,1,1,2,2,3,3,4,4,5,5,6,6,7,7,8,8,9,9,10,10,11,11,12,12,14,14,15,15,16,16,17,17,18,18,21,21,22,22,25,25,26,26,29,29,30,30,31,31,32,32,33,33,34,34,35,35,37,37,38,38,39,39,40,40,41,41,42,42,43,43,44,44],"right_children":[2,4,6,8,10,12,14,16,18,20,22,24,26,-1,28,30,32,34,36,-1,-1,38,40,-1,-1,42,44,-1,-1,46,48,50,52,54,56,58,-1,60,62,64,66,68,70,72,74,-1,-1,-1,-1,-1,-1,-1,-1,-1,-1,-1,-1,-1,-1,-1,-1,-1,-1,-1,-1,-1,-1,-1,-1,-1,-1,-1,-1,-1,-1],"split_conditions":[1.449495E0,6.201923E-2,3.923077E-1,1.846591E-1,1.7083333E0,3E-1,1.625E0,1.5476191E-1,1.4083333E0,9E-1,5.8899307E1,2.405E0,1.5669643E0,-1.2320853E-2,5E-3,1.4017857E0,1.945E0,1.7805603E3,1.8253969E-1,7.444281E-1,-2.4831305E-1,4.6666664E1,8.712122E-2,4.530926E-1,-7.3785783E-4,4.4602275E-2,3.2051283E-1,-2.7532384E-1,-9.336406E-2,1.20375E1,5E-2,9E-1,8.977273E1,1.7686141E3,1.3E0,1.7353394E3,-5.0576603E-1,3.875E-1,1.3E0,1.5E0,1.8166667E-1,